%YAML:1.0
---
opencv_ml_svm:
   format: 3
   svmType: C_SVC
   kernel:
      type: RBF
      gamma: 5.0624999999999998e-01
   C: 1.2500000000000000e+01
   term_criteria: { epsilon:1.1920928955078125e-07, iterations:1000 }
   var_count: 324
   class_count: 9
   class_labels: !!opencv-matrix
      rows: 9
      cols: 1
      dt: i
      data: [ 0, 1, 2, 4, 6, 7, 8, 9, 10 ]
   sv_total: 393
   support_vectors:
      - [ 3.03043544e-01, 5.10547817e-01, 3.04747820e-01, 1.30942449e-01,
          5.09895205e-01, 5.10547817e-01, 1.08194321e-01, 5.16343443e-03,
          2.16184184e-03, 1.85886060e-03, 4.17279691e-01, 4.78333533e-01,
          1.78361401e-01, 5.29133737e-01, 5.29133737e-01, 2.37253751e-03,
          0., 1.85886060e-03, 2.61772901e-01, 5.18494546e-01,
          5.18494546e-01, 2.86934853e-01, 4.57610875e-01, 1.01969332e-01,
          1.61721446e-02, 4.47400063e-02, 2.90212393e-01, 2.49394894e-01,
          4.87345010e-01, 2.07163006e-01, 5.10681756e-02, 2.28834927e-01,
          5.37916481e-01, 5.37916481e-01, 9.63258520e-02, 9.51227024e-02,
          1.07380468e-02, 6.14945590e-01, 6.14945590e-01, 1.09171852e-01,
          2.15599239e-01, 4.18339968e-01, 6.28931150e-02, 7.47169834e-03,
          2.71727471e-03, 1.46123227e-02, 6.94084287e-01, 6.94084287e-01,
          7.98540749e-03, 1.95613932e-02, 1.05520757e-02, 1.38735205e-01,
          9.38281342e-02, 2.72526927e-02, 7.17897937e-02, 4.52081598e-02,
          1.53671950e-01, 8.62639546e-02, 8.27111974e-02, 1.62223190e-01,
          6.19679987e-01, 6.19679987e-01, 3.92930806e-01, 3.43640894e-02,
          6.92857862e-01, 6.92857862e-01, 6.43626526e-02, 1.71155576e-02,
          4.37550731e-02, 1.44759268e-01, 5.29696718e-02, 4.10812125e-02,
          9.81915276e-04, 6.35518968e-01, 6.35518968e-01, 1.37271341e-02,
          1.29238758e-02, 1.58659164e-02, 4.24192846e-01, 7.30556250e-02,
          1.18629844e-03, 7.17897937e-02, 4.52081598e-02, 1.53671950e-01,
          8.62639546e-02, 8.27111974e-02, 1.62223190e-01, 6.19679987e-01,
          6.19679987e-01, 3.92930806e-01, 3.43640894e-02, 6.92857862e-01,
          6.92857862e-01, 6.43626526e-02, 1.71155576e-02, 4.37550731e-02,
          1.44759268e-01, 5.29696718e-02, 4.10812125e-02, 9.81915276e-04,
          6.35518968e-01, 6.35518968e-01, 1.37271341e-02, 1.29238758e-02,
          1.58659164e-02, 4.24192846e-01, 7.30556250e-02, 1.18629844e-03,
          1.88438166e-02, 1.72614921e-02, 4.39439528e-02, 8.99425894e-03,
          4.96599171e-03, 0., 3.46218377e-01, 6.59869492e-01,
          6.59869492e-01, 2.00026073e-02, 6.76697195e-01, 6.76697195e-01,
          2.56535821e-02, 8.09830055e-03, 4.35056072e-03, 1.52031220e-02,
          2.19226643e-01, 1.67248711e-01, 5.49753802e-03, 5.73532820e-01,
          5.73532820e-01, 2.23713778e-02, 1.60206556e-02, 3.43628004e-02,
          5.73532820e-01, 7.40406588e-02, 1.75577379e-03, 8.77022464e-03,
          1.16928117e-02, 1.03172332e-01, 2.56168507e-02, 2.08218321e-02,
          1.63941551e-02, 3.31556238e-02, 6.99891865e-01, 6.99891865e-01,
          2.51552552e-01, 4.77944940e-01, 4.77944940e-01, 9.64904428e-02,
          9.43154097e-02, 2.51995865e-03, 3.13950377e-03, 4.77944940e-01,
          4.77944940e-01, 5.07704094e-02, 4.33582395e-01, 4.33582395e-01,
          3.51924151e-01, 4.33582395e-01, 3.24793607e-01, 4.33582395e-01,
          5.45120500e-02, 9.38259065e-02, 2.61772901e-01, 5.18494546e-01,
          5.18494546e-01, 2.86934853e-01, 4.57610875e-01, 1.01969332e-01,
          1.61721446e-02, 4.47400063e-02, 2.90212393e-01, 1.82345837e-01,
          1.09584846e-01, 4.65275086e-02, 2.68285662e-01, 2.94980973e-01,
          3.49072784e-01, 4.71530735e-01, 4.71530735e-01, 4.71530735e-01,
          2.67235458e-01, 5.35598141e-04, 2.50343420e-02, 5.33956647e-01,
          5.33956647e-01, 2.20522910e-01, 4.73948181e-01, 6.55312091e-02,
          2.73596108e-01, 1.46123227e-02, 6.94084287e-01, 6.94084287e-01,
          7.98540749e-03, 1.95613932e-02, 1.05520757e-02, 1.38735205e-01,
          9.38281342e-02, 2.72526927e-02, 4.77568619e-03, 4.30692360e-02,
          4.63462584e-02, 3.01793516e-02, 1.99125037e-02, 8.72869790e-02,
          8.11704338e-01, 5.62918365e-01, 5.66236451e-02, 5.54400543e-03,
          2.77558435e-03, 1.56254351e-01, 5.44752598e-01, 4.87904787e-01,
          1.71704322e-01, 5.44752598e-01, 3.23535711e-01, 6.62303343e-02,
          9.81915276e-04, 6.35518968e-01, 6.35518968e-01, 1.37271341e-02,
          1.29238758e-02, 1.58659164e-02, 4.24192846e-01, 7.30556250e-02,
          1.18629844e-03, 1.87147714e-04, 2.39934400e-02, 3.56890075e-02,
          1.08653016e-03, 3.44136800e-03, 8.30925405e-02, 8.92466009e-01,
          4.30756837e-01, 1.67753156e-02, 1.93629228e-02, 3.66422236e-02,
          5.99501841e-02, 1.02192841e-01, 6.60117418e-02, 1.70569196e-01,
          6.56998813e-01, 6.56998813e-01, 2.84498960e-01, 9.81915276e-04,
          6.35518968e-01, 6.35518968e-01, 1.37271341e-02, 1.29238758e-02,
          1.58659164e-02, 4.24192846e-01, 7.30556250e-02, 1.18629844e-03,
          1.87147714e-04, 2.39934400e-02, 3.56890075e-02, 1.08653016e-03,
          3.44136800e-03, 8.30925405e-02, 8.92466009e-01, 4.30756837e-01,
          1.67753156e-02, 1.93629228e-02, 3.66422236e-02, 5.99501841e-02,
          1.02192841e-01, 6.60117418e-02, 1.70569196e-01, 6.56998813e-01,
          6.56998813e-01, 2.84498960e-01, 5.49753802e-03, 5.73532820e-01,
          5.73532820e-01, 2.23713778e-02, 1.60206556e-02, 3.43628004e-02,
          5.73532820e-01, 7.40406588e-02, 1.75577379e-03, 3.62212490e-03,
          3.23327258e-02, 7.78801879e-03, 6.01140142e-04, 1.66721586e-02,
          2.06008300e-01, 9.64727044e-01, 1.25188664e-01, 1.29887816e-02,
          4.40203905e-01, 4.40203905e-01, 2.12809771e-01, 8.29519108e-02,
          3.17280114e-01, 4.40203905e-01, 4.40203905e-01, 1.88681558e-01,
          1.79020613e-01, 5.07704094e-02, 4.33582395e-01, 4.33582395e-01,
          3.51924151e-01, 4.33582395e-01, 3.24793607e-01, 4.33582395e-01,
          5.45120500e-02, 9.38259065e-02, 5.78772783e-01, 5.54379672e-02,
          1.15560903e-03, 1.08944736e-02, 5.92836812e-02, 3.25973809e-01,
          5.78772783e-01, 2.35992908e-01, 3.94468397e-01, 6.29717708e-01,
          6.29717708e-01, 2.23030075e-02, 9.53294802e-03, 8.25601909e-03,
          2.83891242e-02, 4.32945639e-02, 5.65206707e-02, 4.40559208e-01 ]
      - [ 1.13150194e-01, 9.75481570e-02, 2.51911841e-02, 1.57436763e-03,
          2.41450756e-03, 9.99899348e-04, 6.95816696e-01, 6.95816696e-01,
          4.20681648e-02, 4.29686844e-01, 4.22084630e-01, 2.79554695e-01,
          2.30844114e-02, 1.69313364e-02, 7.67784053e-03, 4.29686844e-01,
          4.29686844e-01, 4.29686844e-01, 4.06106800e-01, 4.06106800e-01,
          4.06106800e-01, 4.88097817e-02, 6.26253635e-02, 1.01151736e-02,
          4.06106800e-01, 4.06106800e-01, 4.06106800e-01, 1.74041331e-01,
          1.47220641e-01, 6.60635531e-02, 1.76396873e-02, 3.15432772e-02,
          5.57867825e-01, 5.57867825e-01, 5.57867825e-01, 5.60785681e-02,
          3.46716315e-01, 3.46716315e-01, 3.46716315e-01, 3.46716315e-01,
          2.15094015e-01, 3.46716315e-01, 3.46716315e-01, 3.29825670e-01,
          3.46716315e-01, 3.59278321e-01, 2.23144144e-01, 2.69624144e-01,
          3.59278321e-01, 3.59278321e-01, 3.59278321e-01, 3.15332353e-01,
          3.59278321e-01, 3.59278321e-01, 0., 4.67502028e-02,
          1.48702413e-01, 1.31136796e-03, 2.20990274e-03, 3.85134637e-01,
          6.40683293e-01, 6.40683293e-01, 4.46202466e-03, 1.89709008e-01,
          4.36129898e-01, 4.36129898e-01, 2.55287170e-01, 1.09076120e-01,
          4.36129898e-01, 3.83342534e-01, 2.28555858e-01, 3.35808963e-01,
          4.23238486e-01, 1.36318550e-01, 1.68048054e-01, 1.94477230e-01,
          4.23238486e-01, 4.23238486e-01, 2.71962792e-01, 3.47333938e-01,
          4.23238486e-01, 0., 4.67502028e-02, 1.48702413e-01,
          1.31136796e-03, 2.20990274e-03, 3.85134637e-01, 6.40683293e-01,
          6.40683293e-01, 4.46202466e-03, 1.89709008e-01, 4.36129898e-01,
          4.36129898e-01, 2.55287170e-01, 1.09076120e-01, 4.36129898e-01,
          3.83342534e-01, 2.28555858e-01, 3.35808963e-01, 4.23238486e-01,
          1.36318550e-01, 1.68048054e-01, 1.94477230e-01, 4.23238486e-01,
          4.23238486e-01, 2.71962792e-01, 3.47333938e-01, 4.23238486e-01,
          2.64359149e-03, 4.84286025e-02, 1.19454160e-01, 8.56197625e-03,
          8.24518502e-03, 2.37278175e-02, 6.97346747e-01, 6.97346747e-01,
          5.59262186e-02, 3.46996993e-01, 4.06568378e-01, 4.06568378e-01,
          4.06568378e-01, 7.25578219e-02, 2.07979843e-01, 3.22227478e-01,
          3.81103903e-01, 2.86438257e-01, 3.55743498e-01, 3.55743498e-01,
          2.91355997e-01, 2.40597233e-01, 3.55743498e-01, 3.55743498e-01,
          3.55743498e-01, 3.07164073e-01, 3.55743498e-01, 3.11501976e-03,
          3.71663645e-02, 6.78502396e-02, 2.28436321e-01, 1.65836200e-01,
          1.39007315e-01, 6.64056003e-01, 6.64056003e-01, 8.01704302e-02,
          9.81809646e-02, 3.50677162e-01, 4.14940327e-01, 4.14940327e-01,
          4.14940327e-01, 3.27834278e-01, 4.14940327e-01, 2.24778220e-01,
          1.28602579e-01, 8.64344388e-02, 1.51895031e-01, 3.30112278e-01,
          4.49414402e-01, 4.49414402e-01, 4.49414402e-01, 4.49414402e-01,
          1.26491860e-01, 1.79165944e-01, 4.06106800e-01, 4.06106800e-01,
          4.06106800e-01, 4.88097817e-02, 6.26253635e-02, 1.01151736e-02,
          4.06106800e-01, 4.06106800e-01, 4.06106800e-01, 4.53208655e-01,
          1.61651336e-02, 2.82066502e-02, 1.26930356e-01, 2.39768717e-02,
          2.96343863e-03, 1.55772507e-01, 6.10935748e-01, 6.10935748e-01,
          8.75724927e-02, 3.37018585e-03, 5.53748989e-03, 3.74061577e-02,
          2.04184419e-03, 0., 2.77323350e-02, 7.01112628e-01,
          7.01112628e-01, 3.59278321e-01, 2.23144144e-01, 2.69624144e-01,
          3.59278321e-01, 3.59278321e-01, 3.59278321e-01, 3.15332353e-01,
          3.59278321e-01, 3.59278321e-01, 1.52695179e-01, 7.28092343e-02,
          1.87617257e-01, 4.23466921e-01, 1.87966615e-01, 4.23466921e-01,
          4.23466921e-01, 4.23466921e-01, 4.23466921e-01, 5.54750443e-01,
          1.91389453e-02, 1.34858102e-01, 2.24278644e-01, 1.24456966e-02,
          0., 4.69806567e-02, 5.54750443e-01, 5.54750443e-01,
          4.23238486e-01, 1.36318550e-01, 1.68048054e-01, 1.94477230e-01,
          4.23238486e-01, 4.23238486e-01, 2.71962792e-01, 3.47333938e-01,
          4.23238486e-01, 1.63130358e-01, 1.29957080e-01, 3.82230431e-01,
          9.97036844e-02, 3.60371053e-01, 4.08201426e-01, 4.08201426e-01,
          4.08201426e-01, 4.08201426e-01, 1.92451060e-01, 1.61640152e-01,
          4.17078406e-01, 6.41290396e-02, 4.17078406e-01, 4.17078406e-01,
          4.17078406e-01, 3.01779121e-01, 3.76387864e-01, 4.23238486e-01,
          1.36318550e-01, 1.68048054e-01, 1.94477230e-01, 4.23238486e-01,
          4.23238486e-01, 2.71962792e-01, 3.47333938e-01, 4.23238486e-01,
          1.63130358e-01, 1.29957080e-01, 3.82230431e-01, 9.97036844e-02,
          3.60371053e-01, 4.08201426e-01, 4.08201426e-01, 4.08201426e-01,
          4.08201426e-01, 1.92451060e-01, 1.61640152e-01, 4.17078406e-01,
          6.41290396e-02, 4.17078406e-01, 4.17078406e-01, 4.17078406e-01,
          3.01779121e-01, 3.76387864e-01, 3.55743498e-01, 3.55743498e-01,
          2.91355997e-01, 2.40597233e-01, 3.55743498e-01, 3.55743498e-01,
          3.55743498e-01, 3.07164073e-01, 3.55743498e-01, 2.35485837e-01,
          3.85775417e-01, 1.02212146e-01, 1.42903468e-02, 1.02272823e-01,
          4.92999166e-01, 4.92999166e-01, 4.92999166e-01, 2.01355442e-01,
          7.24543855e-02, 1.22645020e-01, 5.46520948e-02, 1.09134836e-03,
          2.52632201e-01, 6.67413831e-01, 6.67413831e-01, 1.23823136e-01,
          4.46227286e-03, 8.64344388e-02, 1.51895031e-01, 3.30112278e-01,
          4.49414402e-01, 4.49414402e-01, 4.49414402e-01, 4.49414402e-01,
          1.26491860e-01, 1.79165944e-01, 1.06022917e-01, 1.26254454e-01,
          3.90022807e-02, 5.12503237e-02, 3.48254710e-01, 6.45520985e-01,
          6.45520985e-01, 7.65324757e-02, 4.11474146e-02, 2.76057832e-02,
          3.08064669e-02, 4.18023665e-05, 0., 0., 7.03559995e-01,
          7.03559995e-01, 3.56705151e-02, 1.14502953e-04 ]
      - [ 3.62212509e-01, 3.62212509e-01, 3.62212509e-01, 3.54703546e-01,
          3.62212509e-01, 3.62212509e-01, 3.39262336e-01, 1.38134390e-01,
          2.83543646e-01, 4.27426308e-01, 2.01620474e-01, 6.65078014e-02,
          5.83206713e-02, 4.27426308e-01, 4.27426308e-01, 4.27426308e-01,
          1.83817074e-01, 4.27426308e-01, 4.31087941e-01, 2.90697545e-01,
          3.80524397e-02, 1.97927818e-01, 4.31087941e-01, 4.31087941e-01,
          2.33511865e-01, 2.69611090e-01, 4.31087941e-01, 3.58151555e-01,
          3.58151555e-01, 3.58151555e-01, 3.58151555e-01, 3.58151555e-01,
          3.58151555e-01, 3.23434800e-01, 3.05707484e-01, 1.69467673e-01,
          3.75286669e-01, 2.91590571e-01, 2.21866772e-01, 1.74413815e-01,
          3.75286669e-01, 3.75286669e-01, 3.75286669e-01, 3.56903791e-01,
          3.75286669e-01, 3.82904291e-01, 2.16628149e-01, 2.60102600e-01,
          3.82904291e-01, 3.82904291e-01, 2.78768808e-01, 2.66088516e-01,
          3.82904291e-01, 3.82904291e-01, 3.50822777e-01, 3.50822777e-01,
          1.59704313e-01, 3.50822777e-01, 3.50822777e-01, 3.50822777e-01,
          3.50822777e-01, 3.50822777e-01, 3.30836982e-01, 4.15501446e-01,
          2.06370458e-01, 1.31567329e-01, 4.15501446e-01, 4.15501446e-01,
          2.19574481e-01, 1.56621531e-01, 4.15501446e-01, 4.15501446e-01,
          4.80946511e-01, 1.77124068e-01, 8.97494778e-02, 3.74615222e-01,
          4.80946511e-01, 3.15864652e-01, 2.61911675e-02, 1.45075053e-01,
          4.80946511e-01, 3.50822777e-01, 3.50822777e-01, 1.59704313e-01,
          3.50822777e-01, 3.50822777e-01, 3.50822777e-01, 3.50822777e-01,
          3.50822777e-01, 3.30836982e-01, 4.15501446e-01, 2.06370458e-01,
          1.31567329e-01, 4.15501446e-01, 4.15501446e-01, 2.19574481e-01,
          1.56621531e-01, 4.15501446e-01, 4.15501446e-01, 4.80946511e-01,
          1.77124068e-01, 8.97494778e-02, 3.74615222e-01, 4.80946511e-01,
          3.15864652e-01, 2.61911675e-02, 1.45075053e-01, 4.80946511e-01,
          3.56314510e-01, 3.56314510e-01, 3.56314510e-01, 2.00528130e-01,
          3.56314510e-01, 3.56314510e-01, 3.56314510e-01, 2.59823889e-01,
          3.56314510e-01, 3.90091389e-01, 3.90091389e-01, 8.39008763e-02,
          9.00465176e-02, 3.90091389e-01, 3.90091389e-01, 3.13307524e-01,
          3.49195063e-01, 3.90091389e-01, 4.88700688e-01, 1.35113657e-01,
          4.40676436e-02, 1.46476969e-01, 4.88700688e-01, 4.39530522e-01,
          6.83702528e-02, 1.97785705e-01, 4.88700688e-01, 2.71987379e-01,
          3.33580136e-01, 3.90167803e-01, 3.90167803e-01, 3.90167803e-01,
          3.90167803e-01, 2.58357346e-01, 2.42202222e-01, 2.76613861e-01,
          4.44317102e-01, 2.58752674e-01, 7.72297755e-02, 2.38543764e-01,
          4.44317102e-01, 4.44317102e-01, 2.65640676e-01, 7.41995126e-02,
          4.44317102e-01, 4.48494762e-01, 5.04773706e-02, 2.21287105e-02,
          3.47966820e-01, 4.48494762e-01, 4.42708611e-01, 1.17068142e-01,
          2.41377309e-01, 4.48494762e-01, 4.31087941e-01, 2.90697545e-01,
          3.80524397e-02, 1.97927818e-01, 4.31087941e-01, 4.31087941e-01,
          2.33511865e-01, 2.69611090e-01, 4.31087941e-01, 4.71217781e-01,
          1.73252180e-01, 2.46359166e-02, 4.71217781e-01, 4.71217781e-01,
          1.57413349e-01, 5.66071458e-02, 2.20231593e-01, 4.71217781e-01,
          3.76022518e-01, 3.76022518e-01, 2.84250945e-01, 3.76022518e-01,
          3.76022518e-01, 3.05973619e-01, 1.64315954e-01, 2.96412975e-01,
          3.76022518e-01, 3.82904291e-01, 2.16628149e-01, 2.60102600e-01,
          3.82904291e-01, 3.82904291e-01, 2.78768808e-01, 2.66088516e-01,
          3.82904291e-01, 3.82904291e-01, 3.65956903e-01, 5.41855991e-02,
          1.16293028e-01, 3.75469536e-01, 3.75469536e-01, 3.75469536e-01,
          3.75469536e-01, 3.75469536e-01, 3.75469536e-01, 3.88598055e-01,
          2.08152756e-01, 3.03339720e-01, 3.88598055e-01, 3.88598055e-01,
          3.88598055e-01, 1.68733820e-01, 2.77960181e-01, 3.88598055e-01,
          4.80946511e-01, 1.77124068e-01, 8.97494778e-02, 3.74615222e-01,
          4.80946511e-01, 3.15864652e-01, 2.61911675e-02, 1.45075053e-01,
          4.80946511e-01, 3.65322173e-01, 2.11085826e-02, 2.33875550e-02,
          1.79388389e-01, 4.44420576e-01, 4.44420576e-01, 1.97203159e-01,
          4.44420576e-01, 4.44420576e-01, 4.64604467e-01, 1.16503537e-01,
          1.28080308e-01, 2.59527743e-01, 4.64604467e-01, 4.32275087e-01,
          1.71947718e-01, 1.84465170e-01, 4.64604467e-01, 4.80946511e-01,
          1.77124068e-01, 8.97494778e-02, 3.74615222e-01, 4.80946511e-01,
          3.15864652e-01, 2.61911675e-02, 1.45075053e-01, 4.80946511e-01,
          3.65322173e-01, 2.11085826e-02, 2.33875550e-02, 1.79388389e-01,
          4.44420576e-01, 4.44420576e-01, 1.97203159e-01, 4.44420576e-01,
          4.44420576e-01, 4.64604467e-01, 1.16503537e-01, 1.28080308e-01,
          2.59527743e-01, 4.64604467e-01, 4.32275087e-01, 1.71947718e-01,
          1.84465170e-01, 4.64604467e-01, 4.88700688e-01, 1.35113657e-01,
          4.40676436e-02, 1.46476969e-01, 4.88700688e-01, 4.39530522e-01,
          6.83702528e-02, 1.97785705e-01, 4.88700688e-01, 4.74852413e-01,
          9.79496446e-03, 1.26984743e-02, 5.20591699e-02, 4.74852413e-01,
          4.74852413e-01, 1.19059227e-01, 2.75999010e-01, 4.74852413e-01,
          4.32279319e-01, 1.54423997e-01, 1.72271714e-01, 2.96224475e-01,
          4.32279319e-01, 4.32279319e-01, 8.07635784e-02, 3.16898197e-01,
          4.32279319e-01, 4.48494762e-01, 5.04773706e-02, 2.21287105e-02,
          3.47966820e-01, 4.48494762e-01, 4.42708611e-01, 1.17068142e-01,
          2.41377309e-01, 4.48494762e-01, 3.97850692e-01, 2.16402397e-01,
          9.09821317e-02, 1.19651660e-01, 3.97850692e-01, 3.97850692e-01,
          3.67662191e-01, 3.97850692e-01, 3.97850692e-01, 3.93682539e-01,
          1.75141454e-01, 2.75874287e-01, 3.05700392e-01, 3.93682539e-01,
          3.93682539e-01, 1.44580558e-01, 3.93682539e-01, 3.93682539e-01 ]
      - [ 2.44472802e-01, 5.24084210e-01, 2.25203633e-01, 2.61421621e-01,
          4.54211652e-01, 5.24084210e-01, 2.09703416e-01, 8.08571652e-02,
          9.89500657e-02, 7.17207342e-02, 4.95538443e-01, 4.95538443e-01,
          8.13766271e-02, 4.95538443e-01, 4.95538443e-01, 2.53259577e-02,
          2.01987568e-02, 1.37501233e-03, 4.33998555e-01, 4.33998555e-01,
          4.33998555e-01, 8.82245153e-02, 4.33998555e-01, 1.00308627e-01,
          1.59992278e-01, 1.02216288e-01, 4.33998555e-01, 3.54333818e-01,
          4.01906848e-01, 1.32659495e-01, 1.17944226e-01, 2.57475793e-01,
          5.38349628e-01, 5.38349628e-01, 1.31518409e-01, 1.13142110e-01,
          4.16545048e-02, 7.01770008e-01, 7.01770008e-01, 5.49907833e-02,
          2.22631097e-02, 4.62123342e-02, 2.26610098e-02, 5.62685961e-03,
          9.83753242e-03, 1.98966134e-02, 5.72029412e-01, 5.72029412e-01,
          1.76146328e-02, 5.47116064e-02, 3.73690389e-02, 5.72029412e-01,
          8.60377848e-02, 1.16890706e-02, 1.56770229e-01, 2.78113484e-01,
          1.83181047e-01, 1.76933799e-02, 1.06826380e-01, 2.38492414e-01,
          6.27806604e-01, 6.27806604e-01, 3.69678922e-02, 1.48692001e-02,
          6.94969833e-01, 6.94969833e-01, 1.12467054e-02, 1.28691653e-02,
          4.94803824e-02, 1.55318081e-01, 2.76137399e-03, 1.85197813e-03,
          5.59448591e-03, 5.64168155e-01, 5.64168155e-01, 9.68885049e-03,
          7.29436986e-03, 5.06343842e-02, 5.64168155e-01, 1.91206902e-01,
          1.43831065e-02, 1.56770229e-01, 2.78113484e-01, 1.83181047e-01,
          1.76933799e-02, 1.06826380e-01, 2.38492414e-01, 6.27806604e-01,
          6.27806604e-01, 3.69678922e-02, 1.48692001e-02, 6.94969833e-01,
          6.94969833e-01, 1.12467054e-02, 1.28691653e-02, 4.94803824e-02,
          1.55318081e-01, 2.76137399e-03, 1.85197813e-03, 5.59448591e-03,
          5.64168155e-01, 5.64168155e-01, 9.68885049e-03, 7.29436986e-03,
          5.06343842e-02, 5.64168155e-01, 1.91206902e-01, 1.43831065e-02,
          2.34927714e-01, 1.11860849e-01, 4.02050540e-02, 3.23421806e-02,
          2.58475319e-02, 3.74409407e-02, 4.24771219e-01, 6.59054756e-01,
          5.53353727e-01, 6.99172467e-02, 6.93349600e-01, 6.93349600e-01,
          4.37807851e-02, 3.10009830e-02, 2.31100339e-02, 1.28261134e-01,
          7.59261549e-02, 3.30941454e-02, 8.99247825e-03, 5.60913861e-01,
          5.60913861e-01, 1.66063774e-02, 3.08909942e-03, 4.81081046e-02,
          5.60913861e-01, 2.18721956e-01, 2.43227533e-03, 8.09634328e-02,
          8.64306390e-02, 5.80887124e-02, 3.10661104e-02, 6.48793727e-02,
          6.52434453e-02, 4.95321229e-02, 6.94185197e-01, 6.94185197e-01,
          8.95293429e-02, 4.78283703e-01, 4.78283703e-01, 2.36193448e-01,
          1.12905934e-01, 4.56867144e-02, 3.95458825e-02, 4.78283703e-01,
          4.78283703e-01, 1.27031296e-01, 3.80442470e-01, 4.28530842e-01,
          4.28530842e-01, 4.28530842e-01, 1.83231279e-01, 4.28530842e-01,
          1.39072180e-01, 2.17661574e-01, 4.33998555e-01, 4.33998555e-01,
          4.33998555e-01, 8.82245153e-02, 4.33998555e-01, 1.00308627e-01,
          1.59992278e-01, 1.02216288e-01, 4.33998555e-01, 2.50104487e-01,
          6.91858381e-02, 6.77791238e-02, 4.29022551e-01, 4.29022551e-01,
          5.89892939e-02, 4.29022551e-01, 4.29022551e-01, 4.29022551e-01,
          2.76561826e-01, 4.24699299e-02, 3.09880733e-01, 6.64380789e-01,
          4.35174257e-01, 2.80199498e-02, 2.76701361e-01, 1.88096806e-01,
          2.74851739e-01, 1.98966134e-02, 5.72029412e-01, 5.72029412e-01,
          1.76146328e-02, 5.47116064e-02, 3.73690389e-02, 5.72029412e-01,
          8.60377848e-02, 1.16890706e-02, 1.13048442e-02, 5.42157628e-02,
          8.60748142e-02, 2.29437742e-02, 1.68820713e-02, 4.79414985e-02,
          7.61093438e-01, 6.32059038e-01, 7.48236896e-03, 1.45722181e-02,
          1.04726024e-01, 4.98568386e-01, 4.98568386e-01, 1.25087500e-01,
          2.66500507e-02, 4.98568386e-01, 4.31717604e-01, 1.88128024e-01,
          5.59448591e-03, 5.64168155e-01, 5.64168155e-01, 9.68885049e-03,
          7.29436986e-03, 5.06343842e-02, 5.64168155e-01, 1.91206902e-01,
          1.43831065e-02, 4.79349820e-03, 1.03580151e-02, 4.01210412e-02,
          1.42045561e-02, 6.04502205e-03, 1.56798467e-01, 8.25367928e-01,
          5.32697916e-01, 1.41365677e-02, 9.41168070e-02, 1.40046135e-01,
          4.40721273e-01, 3.65984887e-01, 3.35259378e-01, 3.31137151e-01,
          4.40721273e-01, 4.40721273e-01, 1.68598190e-01, 5.59448591e-03,
          5.64168155e-01, 5.64168155e-01, 9.68885049e-03, 7.29436986e-03,
          5.06343842e-02, 5.64168155e-01, 1.91206902e-01, 1.43831065e-02,
          4.79349820e-03, 1.03580151e-02, 4.01210412e-02, 1.42045561e-02,
          6.04502205e-03, 1.56798467e-01, 8.25367928e-01, 5.32697916e-01,
          1.41365677e-02, 9.41168070e-02, 1.40046135e-01, 4.40721273e-01,
          3.65984887e-01, 3.35259378e-01, 3.31137151e-01, 4.40721273e-01,
          4.40721273e-01, 1.68598190e-01, 8.99247825e-03, 5.60913861e-01,
          5.60913861e-01, 1.66063774e-02, 3.08909942e-03, 4.81081046e-02,
          5.60913861e-01, 2.18721956e-01, 2.43227533e-03, 5.45400241e-03,
          8.62908959e-02, 7.42291361e-02, 2.05716491e-02, 0.,
          1.75621938e-02, 8.51637542e-01, 5.01766503e-01, 2.69824732e-02,
          4.49335575e-01, 4.49335575e-01, 4.49335575e-01, 1.01041578e-01,
          1.03039287e-01, 1.96275681e-01, 4.49335575e-01, 2.79040366e-01,
          2.25139007e-01, 1.27031296e-01, 3.80442470e-01, 4.28530842e-01,
          4.28530842e-01, 4.28530842e-01, 1.83231279e-01, 4.28530842e-01,
          1.39072180e-01, 2.17661574e-01, 6.33561194e-01, 8.59586373e-02,
          7.50922635e-02, 5.12857623e-02, 1.39217436e-01, 2.41484195e-01,
          6.33561194e-01, 2.06323013e-01, 2.34417617e-01, 6.73018754e-01,
          6.73018754e-01, 4.47618589e-02, 3.53956260e-02, 1.19342953e-01,
          2.10562885e-01, 7.53889754e-02, 5.69866970e-02, 1.28863558e-01 ]
      - [ 2.53746778e-01, 5.01109064e-01, 5.01109064e-01, 5.01109064e-01,
          2.40075052e-01, 2.82802671e-01, 1.37986794e-01, 1.27213746e-01,
          6.66308999e-02, 3.03675264e-01, 2.21653000e-01, 1.52999103e-01,
          1.09037526e-01, 3.58699262e-01, 2.13081613e-01, 2.71739215e-01,
          5.33905566e-01, 5.33905566e-01, 4.80287641e-01, 3.14123392e-01,
          7.52360299e-02, 1.51388749e-01, 4.00928229e-01, 1.10568441e-01,
          5.43406941e-02, 4.80287641e-01, 4.80287641e-01, 4.63931598e-02,
          1.18561260e-01, 5.41301489e-01, 5.41301489e-01, 1.04306899e-02,
          3.77057418e-02, 3.04137796e-01, 5.41301489e-01, 7.30269626e-02,
          2.26790875e-01, 2.95486361e-01, 5.00251472e-01, 4.65691090e-01,
          2.20137447e-01, 1.17622815e-01, 1.49585500e-01, 4.44666326e-01,
          3.26708287e-01, 5.31815767e-01, 3.56702387e-01, 7.70662278e-02,
          1.61115732e-02, 1.56842634e-01, 1.03226207e-01, 2.20134869e-01,
          4.09621179e-01, 5.71424901e-01, 5.56684146e-03, 1.23433620e-01,
          4.83818918e-01, 4.83818918e-01, 3.64437625e-02, 2.96613164e-02,
          4.83818918e-01, 4.83818918e-01, 2.03395575e-01, 2.15271622e-01,
          2.18210071e-01, 4.49089766e-01, 4.49089766e-01, 4.49089766e-01,
          3.16416860e-01, 3.92235309e-01, 1.56808734e-01, 1.33995071e-01,
          3.72812003e-01, 4.18311447e-01, 2.97222823e-01, 3.98785025e-01,
          4.18311447e-01, 2.57423490e-01, 2.87108392e-01, 1.92838147e-01,
          2.71307677e-01, 5.56684146e-03, 1.23433620e-01, 4.83818918e-01,
          4.83818918e-01, 3.64437625e-02, 2.96613164e-02, 4.83818918e-01,
          4.83818918e-01, 2.03395575e-01, 2.15271622e-01, 2.18210071e-01,
          4.49089766e-01, 4.49089766e-01, 4.49089766e-01, 3.16416860e-01,
          3.92235309e-01, 1.56808734e-01, 1.33995071e-01, 3.72812003e-01,
          4.18311447e-01, 2.97222823e-01, 3.98785025e-01, 4.18311447e-01,
          2.57423490e-01, 2.87108392e-01, 1.92838147e-01, 2.71307677e-01,
          5.55280177e-03, 2.67247111e-02, 5.18308282e-01, 3.58452827e-01,
          2.71543190e-02, 4.01169434e-02, 5.18308282e-01, 5.18308282e-01,
          2.39401221e-01, 1.36737108e-01, 1.58729911e-01, 5.98353565e-01,
          5.98353565e-01, 4.47272658e-02, 7.94431493e-02, 2.00660303e-01,
          3.98216873e-01, 1.64092109e-01, 3.92441183e-01, 4.64272946e-01,
          4.69055384e-01, 3.37476164e-01, 1.29717335e-01, 3.34954172e-01,
          3.26392502e-01, 1.40712857e-01, 1.91047892e-01, 1.18193276e-01,
          2.42452305e-02, 1.79058909e-01, 1.44124284e-01, 3.32795121e-02,
          2.30587021e-01, 5.40829182e-01, 5.40829182e-01, 5.36597967e-01,
          3.88884038e-01, 1.03685290e-01, 3.98054570e-01, 3.98054570e-01,
          2.46919081e-01, 3.07339672e-02, 3.71939063e-01, 3.98054570e-01,
          3.98054570e-01, 1.91726819e-01, 5.47281057e-02, 1.34667918e-01,
          5.56693673e-01, 5.56693673e-01, 5.84437959e-02, 4.79689576e-02,
          3.33282351e-02, 5.56693673e-01, 4.80287641e-01, 3.14123392e-01,
          7.52360299e-02, 1.51388749e-01, 4.00928229e-01, 1.10568441e-01,
          5.43406941e-02, 4.80287641e-01, 4.80287641e-01, 4.98611778e-01,
          5.04401803e-01, 5.04401803e-01, 1.82940513e-01, 1.33943841e-01,
          1.95690747e-02, 1.34527624e-01, 1.52962387e-01, 3.79763216e-01,
          5.60632408e-01, 3.54050219e-01, 1.69355407e-01, 1.01793513e-01,
          1.56127915e-01, 4.47756015e-02, 3.34911704e-01, 2.50684708e-01,
          5.60632408e-01, 5.31815767e-01, 3.56702387e-01, 7.70662278e-02,
          1.61115732e-02, 1.56842634e-01, 1.03226207e-01, 2.20134869e-01,
          4.09621179e-01, 5.71424901e-01, 3.63424420e-01, 5.26601613e-01,
          4.01505053e-01, 3.94555360e-01, 2.47757837e-01, 1.71137825e-01,
          1.82547823e-01, 1.74087152e-01, 3.35981637e-01, 3.23878348e-01,
          4.81428087e-01, 4.77145195e-01, 2.72617579e-01, 4.67366070e-01,
          5.29600587e-03, 1.14493899e-01, 1.12346247e-01, 3.32988948e-01,
          3.72812003e-01, 4.18311447e-01, 2.97222823e-01, 3.98785025e-01,
          4.18311447e-01, 2.57423490e-01, 2.87108392e-01, 1.92838147e-01,
          2.71307677e-01, 2.04957396e-01, 5.47668859e-02, 8.28027874e-02,
          3.96371633e-01, 4.75968897e-01, 2.72177368e-01, 3.30258399e-01,
          4.75968897e-01, 3.87335122e-01, 3.70589763e-01, 1.78788498e-01,
          4.93855417e-01, 5.01052260e-01, 5.01052260e-01, 3.61846644e-03,
          1.24919834e-02, 4.54078764e-02, 2.78321266e-01, 3.72812003e-01,
          4.18311447e-01, 2.97222823e-01, 3.98785025e-01, 4.18311447e-01,
          2.57423490e-01, 2.87108392e-01, 1.92838147e-01, 2.71307677e-01,
          2.04957396e-01, 5.47668859e-02, 8.28027874e-02, 3.96371633e-01,
          4.75968897e-01, 2.72177368e-01, 3.30258399e-01, 4.75968897e-01,
          3.87335122e-01, 3.70589763e-01, 1.78788498e-01, 4.93855417e-01,
          5.01052260e-01, 5.01052260e-01, 3.61846644e-03, 1.24919834e-02,
          4.54078764e-02, 2.78321266e-01, 3.92441183e-01, 4.64272946e-01,
          4.69055384e-01, 3.37476164e-01, 1.29717335e-01, 3.34954172e-01,
          3.26392502e-01, 1.40712857e-01, 1.91047892e-01, 6.08362198e-01,
          2.89427608e-01, 1.65608302e-01, 9.65668932e-02, 2.83691257e-01,
          2.40053147e-01, 2.19761983e-01, 3.62919271e-01, 4.30336654e-01,
          5.41614592e-01, 1.75266847e-01, 1.13031313e-01, 1.88732594e-01,
          4.70979065e-01, 3.19977313e-01, 5.47620170e-02, 3.97283100e-02,
          5.41614592e-01, 1.91726819e-01, 5.47281057e-02, 1.34667918e-01,
          5.56693673e-01, 5.56693673e-01, 5.84437959e-02, 4.79689576e-02,
          3.33282351e-02, 5.56693673e-01, 8.45181942e-02, 3.58270779e-02,
          2.60098483e-02, 5.62521040e-01, 5.62521040e-01, 2.89044768e-01,
          1.11041620e-01, 1.44595638e-01, 4.85421956e-01, 9.76503640e-02,
          4.81823087e-02, 5.18213250e-02, 5.82728982e-01, 5.82728982e-01,
          3.68519783e-01, 1.05543867e-01, 1.95643291e-01, 3.39514285e-01 ]
      - [ 6.04709804e-01, 6.04709804e-01, 2.82165557e-01, 6.89589903e-02,
          1.39575405e-02, 3.83203849e-02, 1.51368305e-01, 4.73350473e-02,
          3.89133930e-01, 5.88775933e-01, 3.27972382e-01, 7.00624734e-02,
          1.09864958e-02, 3.23356465e-02, 2.49831259e-01, 5.88775933e-01,
          2.94369489e-01, 1.95183530e-01, 9.89774764e-02, 1.54932737e-01,
          1.04058206e-01, 4.60137129e-02, 5.28398119e-02, 4.20574635e-01,
          7.54805505e-01, 4.41784889e-01, 3.37609313e-02, 3.63682687e-01,
          7.14216173e-01, 4.70719934e-01, 4.54605520e-02, 5.40343113e-02,
          2.15837419e-01, 2.76344508e-01, 3.04078162e-02, 7.78123597e-03,
          2.11477522e-02, 3.82429138e-02, 2.52990481e-02, 1.53546303e-03,
          5.19362930e-03, 3.45865011e-01, 8.56242955e-01, 3.68856460e-01,
          6.84771268e-03, 2.03548931e-02, 1.61051825e-01, 2.20839664e-01,
          1.10806013e-02, 1.50044775e-02, 3.44415307e-01, 7.67251790e-01,
          4.57789391e-01, 1.96035812e-03, 8.53404030e-02, 5.31205297e-01,
          5.31205297e-01, 1.80269212e-01, 2.01245129e-01, 4.32850748e-01,
          3.73059720e-01, 1.38789684e-01, 6.52787089e-02, 4.05927334e-04,
          2.75721997e-02, 4.18341234e-02, 7.10441405e-03, 1.72526538e-02,
          2.85580218e-01, 8.58515382e-01, 4.12265807e-01, 2.60817166e-03,
          6.22034520e-02, 5.25113106e-01, 5.25113106e-01, 1.56999640e-02,
          6.87539228e-04, 2.09238112e-01, 5.25113106e-01, 3.42186630e-01,
          5.03586754e-02, 8.53404030e-02, 5.31205297e-01, 5.31205297e-01,
          1.80269212e-01, 2.01245129e-01, 4.32850748e-01, 3.73059720e-01,
          1.38789684e-01, 6.52787089e-02, 4.05927334e-04, 2.75721997e-02,
          4.18341234e-02, 7.10441405e-03, 1.72526538e-02, 2.85580218e-01,
          8.58515382e-01, 4.12265807e-01, 2.60817166e-03, 6.22034520e-02,
          5.25113106e-01, 5.25113106e-01, 1.56999640e-02, 6.87539228e-04,
          2.09238112e-01, 5.25113106e-01, 3.42186630e-01, 5.03586754e-02,
          1.01831414e-01, 4.35981840e-01, 4.35981840e-01, 4.35981840e-01,
          2.40012869e-01, 1.20322354e-01, 3.22610646e-01, 4.35981840e-01,
          2.20892563e-01, 4.81661037e-03, 6.42097816e-02, 9.37395841e-02,
          6.38953084e-03, 1.69607182e-03, 2.35795990e-01, 8.73569429e-01,
          3.99158776e-01, 1.59831084e-02, 1.46393757e-02, 5.46392858e-01,
          5.46392858e-01, 8.57113078e-02, 3.31297256e-02, 1.49098098e-01,
          5.46392858e-01, 2.60602266e-01, 1.03002889e-02, 2.35542096e-02,
          1.47763908e-01, 6.18057966e-01, 6.18057966e-01, 9.24246311e-02,
          6.41597211e-02, 3.96122634e-01, 1.84338018e-01, 6.24202266e-02,
          1.91374924e-02, 3.20681706e-02, 2.66738534e-02, 3.11188158e-02,
          1.27975792e-02, 3.20620149e-01, 8.86919022e-01, 3.13716531e-01,
          8.45791865e-03, 5.30142337e-02, 5.66399276e-01, 5.66399276e-01,
          6.32882640e-02, 1.17090540e-02, 7.08943531e-02, 5.66399276e-01,
          1.39687955e-01, 2.06868481e-02, 9.89774764e-02, 1.54932737e-01,
          1.04058206e-01, 4.60137129e-02, 5.28398119e-02, 4.20574635e-01,
          7.54805505e-01, 4.41784889e-01, 3.37609313e-02, 3.15056778e-02,
          6.74887061e-01, 6.74887061e-01, 1.58370018e-01, 1.05214782e-01,
          4.00795378e-02, 1.63749978e-01, 1.15382209e-01, 5.86539395e-02,
          1.32017629e-02, 4.85634387e-01, 4.85634387e-01, 9.16026607e-02,
          6.77228346e-02, 6.63635284e-02, 1.85015485e-01, 4.85634387e-01,
          4.85634387e-01, 2.03548931e-02, 1.61051825e-01, 2.20839664e-01,
          1.10806013e-02, 1.50044775e-02, 3.44415307e-01, 7.67251790e-01,
          4.57789391e-01, 1.96035812e-03, 7.29264924e-03, 7.01575220e-01,
          7.01575220e-01, 3.37576978e-02, 2.39040907e-02, 2.34325640e-02,
          7.62723684e-02, 2.12167073e-02, 5.39654575e-04, 2.34585721e-03,
          4.97901052e-01, 4.97901052e-01, 1.13066077e-01, 1.01427034e-01,
          1.47245809e-01, 4.52741355e-01, 4.97901052e-01, 3.97222191e-02,
          6.22034520e-02, 5.25113106e-01, 5.25113106e-01, 1.56999640e-02,
          6.87539228e-04, 2.09238112e-01, 5.25113106e-01, 3.42186630e-01,
          5.03586754e-02, 1.90498587e-02, 7.02340484e-01, 7.02340484e-01,
          2.33036205e-02, 5.28691383e-03, 1.32122003e-02, 6.40990287e-02,
          3.18465754e-02, 1.39027024e-02, 9.35216025e-02, 5.28545320e-01,
          5.28545320e-01, 1.55915365e-01, 5.40273301e-02, 5.06660491e-02,
          5.28545320e-01, 3.41131300e-01, 4.15779352e-02, 6.22034520e-02,
          5.25113106e-01, 5.25113106e-01, 1.56999640e-02, 6.87539228e-04,
          2.09238112e-01, 5.25113106e-01, 3.42186630e-01, 5.03586754e-02,
          1.90498587e-02, 7.02340484e-01, 7.02340484e-01, 2.33036205e-02,
          5.28691383e-03, 1.32122003e-02, 6.40990287e-02, 3.18465754e-02,
          1.39027024e-02, 9.35216025e-02, 5.28545320e-01, 5.28545320e-01,
          1.55915365e-01, 5.40273301e-02, 5.06660491e-02, 5.28545320e-01,
          3.41131300e-01, 4.15779352e-02, 1.46393757e-02, 5.46392858e-01,
          5.46392858e-01, 8.57113078e-02, 3.31297256e-02, 1.49098098e-01,
          5.46392858e-01, 2.60602266e-01, 1.03002889e-02, 5.05993702e-03,
          6.98706627e-01, 6.98706627e-01, 6.86852038e-02, 2.73040887e-02,
          2.37600636e-02, 9.46049169e-02, 4.02348414e-02, 4.57933359e-03,
          1.56549096e-01, 4.71653789e-01, 4.32383597e-01, 1.37061477e-01,
          9.91654322e-02, 4.71653789e-01, 4.71653789e-01, 2.82214791e-01,
          9.04934034e-02, 5.30142337e-02, 5.66399276e-01, 5.66399276e-01,
          6.32882640e-02, 1.17090540e-02, 7.08943531e-02, 5.66399276e-01,
          1.39687955e-01, 2.06868481e-02, 1.84269287e-02, 6.82941377e-01,
          6.82941377e-01, 5.62402569e-02, 4.43668365e-02, 1.89158157e-01,
          1.30428344e-01, 4.57332507e-02, 3.09832301e-03, 7.17823058e-02,
          1.44067168e-01, 8.33712518e-02, 1.44928554e-02, 5.99054098e-02,
          6.91420138e-01, 6.91420138e-01, 1.56173436e-02, 8.52940045e-03 ]
      - [ 3.09727192e-01, 4.34993982e-01, 4.34993982e-01, 4.42800783e-02,
          4.34993982e-01, 4.34993982e-01, 3.69314432e-01, 2.67766491e-02,
          6.14336431e-02, 3.40627313e-01, 6.38336658e-01, 6.38336658e-01,
          2.34008320e-02, 1.36440769e-01, 1.15850978e-01, 6.47876337e-02,
          8.77769198e-03, 1.60601705e-01, 4.81302738e-01, 6.81053922e-02,
          2.41933867e-01, 3.84187438e-02, 5.05160838e-02, 3.72180231e-02,
          4.81302738e-01, 4.81302738e-01, 4.81302738e-01, 1.14242874e-01,
          6.89856768e-01, 6.89856768e-01, 5.50997406e-02, 1.34449288e-01,
          8.34213421e-02, 1.09964097e-02, 4.58565913e-03, 6.61153067e-03,
          5.42297959e-03, 6.02235854e-01, 7.77068734e-01, 1.60048753e-01,
          2.17709132e-03, 7.95740075e-03, 1.28338940e-03, 1.94905081e-03,
          1.50584884e-03, 1.21106105e-02, 1.26901343e-01, 5.53664565e-01,
          3.11709214e-02, 1.16101811e-02, 1.28226727e-02, 5.78807890e-01,
          5.78807890e-01, 1.08346520e-02, 1.52948610e-02, 6.27122700e-01,
          6.27122700e-01, 4.51967150e-01, 4.75750640e-02, 1.02021648e-02,
          1.58326048e-02, 0., 6.81578554e-03, 2.96199881e-03,
          6.99725091e-01, 7.04736650e-01, 7.86974058e-02, 3.06707993e-03,
          8.02189857e-03, 1.94490217e-02, 6.18822081e-03, 1.96332415e-03,
          8.12194496e-03, 2.30660632e-01, 5.59752703e-01, 1.50903035e-02,
          1.47707900e-02, 2.53586657e-02, 5.59752703e-01, 5.59752703e-01,
          9.04790871e-03, 1.52948610e-02, 6.27122700e-01, 6.27122700e-01,
          4.51967150e-01, 4.75750640e-02, 1.02021648e-02, 1.58326048e-02,
          0., 6.81578554e-03, 2.96199881e-03, 6.99725091e-01,
          7.04736650e-01, 7.86974058e-02, 3.06707993e-03, 8.02189857e-03,
          1.94490217e-02, 6.18822081e-03, 1.96332415e-03, 8.12194496e-03,
          2.30660632e-01, 5.59752703e-01, 1.50903035e-02, 1.47707900e-02,
          2.53586657e-02, 5.59752703e-01, 5.59752703e-01, 9.04790871e-03,
          8.03595334e-02, 1.51154831e-01, 6.37017488e-01, 6.37017488e-01,
          3.79660845e-01, 4.37228121e-02, 3.58009860e-02, 4.88626994e-02,
          5.50324172e-02, 5.15659594e-05, 7.01980233e-01, 7.01980233e-01,
          8.13478678e-02, 1.58154145e-02, 1.63741130e-02, 1.70573313e-02,
          2.69897166e-03, 2.49862554e-03, 3.10691316e-02, 2.69826561e-01,
          5.51901579e-01, 5.06114727e-03, 1.02509800e-02, 3.71103175e-02,
          5.51901579e-01, 5.51901579e-01, 7.36409128e-02, 2.05786690e-01,
          2.33395770e-02, 2.22942650e-01, 5.36132455e-01, 1.97998136e-01,
          1.97021849e-02, 1.20072709e-02, 5.36132455e-01, 5.36132455e-01,
          3.70072089e-02, 5.37854791e-01, 8.09959114e-01, 1.70720086e-01,
          7.85891637e-02, 4.87401849e-03, 2.45089852e-03, 2.45366711e-02,
          9.62919816e-02, 1.92547347e-02, 2.47501180e-01, 4.78641897e-01,
          1.03517093e-01, 4.78641897e-01, 7.23024979e-02, 4.78641897e-01,
          4.78641897e-01, 3.54409106e-02, 4.81302738e-01, 6.81053922e-02,
          2.41933867e-01, 3.84187438e-02, 5.05160838e-02, 3.72180231e-02,
          4.81302738e-01, 4.81302738e-01, 4.81302738e-01, 4.64124233e-02,
          1.35570876e-02, 1.64827198e-01, 4.94569629e-01, 4.52789307e-01,
          8.41801539e-02, 4.94569629e-01, 4.94569629e-01, 1.40188128e-01,
          7.38795474e-02, 2.97241248e-02, 4.62468833e-01, 4.64989632e-01,
          3.46633703e-01, 6.97756559e-02, 1.30470246e-01, 4.64989632e-01,
          4.47950512e-01, 1.21106105e-02, 1.26901343e-01, 5.53664565e-01,
          3.11709214e-02, 1.16101811e-02, 1.28226727e-02, 5.78807890e-01,
          5.78807890e-01, 1.08346520e-02, 1.03908833e-02, 2.04976462e-02,
          1.34723587e-02, 1.11904636e-03, 1.51970051e-03, 3.09792813e-03,
          7.03557312e-01, 7.03557312e-01, 4.76253107e-02, 3.82200927e-02,
          1.11443460e-01, 5.05386174e-01, 5.05386174e-01, 2.62664944e-01,
          1.13225885e-01, 2.92198211e-01, 5.05386174e-01, 2.18251780e-01,
          8.12194496e-03, 2.30660632e-01, 5.59752703e-01, 1.50903035e-02,
          1.47707900e-02, 2.53586657e-02, 5.59752703e-01, 5.59752703e-01,
          9.04790871e-03, 2.86709401e-04, 3.97254364e-04, 6.20264851e-04,
          6.14763529e-04, 2.01330450e-03, 1.24901636e-02, 7.04531252e-01,
          7.04531252e-01, 8.80897790e-03, 3.73263918e-02, 5.93262240e-02,
          2.96290927e-02, 0., 5.27090058e-02, 1.35307133e-01,
          6.78556144e-01, 6.78556144e-01, 2.13241577e-01, 8.12194496e-03,
          2.30660632e-01, 5.59752703e-01, 1.50903035e-02, 1.47707900e-02,
          2.53586657e-02, 5.59752703e-01, 5.59752703e-01, 9.04790871e-03,
          2.86709401e-04, 3.97254364e-04, 6.20264851e-04, 6.14763529e-04,
          2.01330450e-03, 1.24901636e-02, 7.04531252e-01, 7.04531252e-01,
          8.80897790e-03, 3.73263918e-02, 5.93262240e-02, 2.96290927e-02,
          0., 5.27090058e-02, 1.35307133e-01, 6.78556144e-01,
          6.78556144e-01, 2.13241577e-01, 3.10691316e-02, 2.69826561e-01,
          5.51901579e-01, 5.06114727e-03, 1.02509800e-02, 3.71103175e-02,
          5.51901579e-01, 5.51901579e-01, 7.36409128e-02, 2.51036510e-03,
          1.79518317e-03, 2.05790973e-03, 9.48356057e-04, 4.40145377e-03,
          3.07364911e-02, 7.04264879e-01, 7.04264879e-01, 3.62413982e-03,
          1.30047426e-01, 2.90200561e-01, 1.96695358e-01, 6.30717678e-03,
          1.28029719e-01, 4.68638718e-01, 5.55270195e-01, 5.55270195e-01,
          4.39732708e-02, 1.92547347e-02, 2.47501180e-01, 4.78641897e-01,
          1.03517093e-01, 4.78641897e-01, 7.23024979e-02, 4.78641897e-01,
          4.78641897e-01, 3.54409106e-02, 8.91422853e-02, 4.85964939e-02,
          2.05429830e-02, 1.40020279e-02, 8.41651857e-02, 1.47100464e-01,
          6.89544201e-01, 6.89544201e-01, 5.02568185e-02, 5.19362986e-01,
          5.19362986e-01, 1.05142966e-01, 3.68239805e-02, 1.03932589e-01,
          5.19362986e-01, 3.56936842e-01, 2.61996500e-02, 1.85191989e-01 ]
      - [ 4.24661934e-01, 2.29486257e-01, 4.24661934e-01, 2.84071565e-01,
          1.02549151e-01, 1.03613190e-01, 4.24661934e-01, 4.24661934e-01,
          3.46112907e-01, 7.54966915e-01, 4.14422870e-01, 1.63704786e-03,
          2.91208439e-02, 9.52308998e-02, 1.40579134e-01, 2.03077093e-01,
          3.07016134e-01, 2.92509675e-01, 7.68911481e-01, 4.95470256e-01,
          2.40678526e-02, 1.63640559e-01, 2.38084406e-01, 2.05079526e-01,
          4.99718450e-02, 5.70649188e-03, 1.64259270e-01, 5.33463538e-01,
          3.54714841e-01, 1.23640202e-01, 4.37146761e-02, 2.10652605e-01,
          3.43017012e-01, 5.33463538e-01, 2.44992539e-01, 2.45822698e-01,
          3.64117354e-01, 3.64117354e-01, 3.64117354e-01, 3.12917113e-01,
          3.64117354e-01, 3.64117354e-01, 3.64117354e-01, 2.57236242e-01,
          1.91796541e-01, 4.20713425e-01, 1.85437024e-01, 2.35374540e-01,
          4.20713425e-01, 4.20713425e-01, 7.67890513e-02, 1.22937366e-01,
          4.20713425e-01, 4.20713425e-01, 4.44784403e-01, 9.91899222e-02,
          1.30296454e-01, 4.73998934e-01, 2.89931983e-01, 9.17697847e-02,
          4.73998934e-01, 4.73998934e-01, 6.41042888e-02, 2.78548151e-01,
          4.16693360e-01, 4.16693360e-01, 4.05061215e-01, 9.60370079e-02,
          1.38364196e-01, 4.16693360e-01, 4.16693360e-01, 1.76840633e-01,
          1.56762645e-01, 2.00500041e-01, 3.32849175e-01, 4.01227087e-01,
          3.46322566e-01, 3.05563986e-01, 3.52378011e-01, 4.01227087e-01,
          4.01227087e-01, 4.44784403e-01, 9.91899222e-02, 1.30296454e-01,
          4.73998934e-01, 2.89931983e-01, 9.17697847e-02, 4.73998934e-01,
          4.73998934e-01, 6.41042888e-02, 2.78548151e-01, 4.16693360e-01,
          4.16693360e-01, 4.05061215e-01, 9.60370079e-02, 1.38364196e-01,
          4.16693360e-01, 4.16693360e-01, 1.76840633e-01, 1.56762645e-01,
          2.00500041e-01, 3.32849175e-01, 4.01227087e-01, 3.46322566e-01,
          3.05563986e-01, 3.52378011e-01, 4.01227087e-01, 4.01227087e-01,
          5.78275435e-02, 1.94606259e-02, 4.75692183e-01, 4.75692183e-01,
          4.75692183e-01, 7.50899017e-02, 3.56725991e-01, 4.17331994e-01,
          7.49596804e-02, 2.66181201e-01, 5.14400564e-02, 3.84305805e-01,
          3.84305805e-01, 3.84305805e-01, 1.91092774e-01, 3.84305805e-01,
          3.84305805e-01, 3.84305805e-01, 4.01554585e-01, 4.01554585e-01,
          1.19272076e-01, 4.01554585e-01, 4.01554585e-01, 4.01554585e-01,
          2.30911300e-01, 1.64762884e-01, 3.08326691e-01, 4.72494550e-02,
          8.60857517e-02, 4.73429263e-01, 4.73429263e-01, 2.90040463e-01,
          6.98303506e-02, 4.73429263e-01, 4.73429263e-01, 9.35055129e-03,
          1.00930586e-01, 1.08368091e-01, 4.45484787e-01, 4.45484787e-01,
          3.13188434e-01, 2.80949444e-01, 4.45484787e-01, 4.45484787e-01,
          5.26616089e-02, 5.43247700e-01, 1.74257278e-01, 1.36952907e-01,
          6.28835201e-01, 4.33433950e-01, 8.34908262e-02, 1.10500000e-01,
          9.45401937e-02, 1.95100486e-01, 7.68911481e-01, 4.95470256e-01,
          2.40678526e-02, 1.63640559e-01, 2.38084406e-01, 2.05079526e-01,
          4.99718450e-02, 5.70649188e-03, 1.64259270e-01, 4.50278521e-01,
          3.07985395e-01, 2.91987449e-01, 1.60562508e-02, 3.33798081e-02,
          5.49148060e-02, 4.50278521e-01, 4.50278521e-01, 4.50278521e-01,
          3.19754899e-01, 4.68824834e-01, 4.68824834e-01, 5.37684225e-02,
          0., 1.55308779e-04, 1.04861893e-01, 4.68824834e-01,
          4.68824834e-01, 4.20713425e-01, 1.85437024e-01, 2.35374540e-01,
          4.20713425e-01, 4.20713425e-01, 7.67890513e-02, 1.22937366e-01,
          4.20713425e-01, 4.20713425e-01, 1.18012987e-01, 3.98159549e-02,
          4.73810583e-01, 4.73810583e-01, 2.42609069e-01, 1.57731995e-02,
          4.73810583e-01, 4.73810583e-01, 1.50536910e-01, 6.65452555e-02,
          1.66400656e-01, 5.86428702e-01, 5.86428702e-01, 6.88172653e-02,
          5.13978582e-03, 3.69476080e-01, 1.89766631e-01, 3.11357647e-01,
          1.56762645e-01, 2.00500041e-01, 3.32849175e-01, 4.01227087e-01,
          3.46322566e-01, 3.05563986e-01, 3.52378011e-01, 4.01227087e-01,
          4.01227087e-01, 1.88162670e-01, 3.70797336e-01, 3.70797336e-01,
          3.70797336e-01, 3.02525342e-01, 2.10771754e-01, 3.70797336e-01,
          3.70797336e-01, 3.70797336e-01, 1.40858293e-01, 1.58209503e-01,
          4.64748442e-01, 4.64748442e-01, 4.64748442e-01, 3.25306840e-02,
          4.64748442e-01, 2.87030339e-01, 5.54756746e-02, 1.56762645e-01,
          2.00500041e-01, 3.32849175e-01, 4.01227087e-01, 3.46322566e-01,
          3.05563986e-01, 3.52378011e-01, 4.01227087e-01, 4.01227087e-01,
          1.88162670e-01, 3.70797336e-01, 3.70797336e-01, 3.70797336e-01,
          3.02525342e-01, 2.10771754e-01, 3.70797336e-01, 3.70797336e-01,
          3.70797336e-01, 1.40858293e-01, 1.58209503e-01, 4.64748442e-01,
          4.64748442e-01, 4.64748442e-01, 3.25306840e-02, 4.64748442e-01,
          2.87030339e-01, 5.54756746e-02, 4.01554585e-01, 4.01554585e-01,
          1.19272076e-01, 4.01554585e-01, 4.01554585e-01, 4.01554585e-01,
          2.30911300e-01, 1.64762884e-01, 3.08326691e-01, 4.24504727e-01,
          4.24504727e-01, 2.49463677e-01, 8.47865567e-02, 2.03090698e-01,
          4.24504727e-01, 4.24504727e-01, 3.94066751e-01, 9.48012546e-02,
          5.05226059e-03, 3.28307264e-02, 3.44478302e-02, 3.02384704e-01,
          5.08473575e-01, 3.67317200e-01, 5.08473575e-01, 4.99181539e-01,
          5.99167950e-04, 5.43247700e-01, 1.74257278e-01, 1.36952907e-01,
          6.28835201e-01, 4.33433950e-01, 8.34908262e-02, 1.10500000e-01,
          9.45401937e-02, 1.95100486e-01, 3.08615595e-01, 1.69477999e-01,
          4.01349564e-04, 5.13131738e-01, 2.71807671e-01, 7.48606473e-02,
          5.13131738e-01, 5.13131738e-01, 3.88940275e-02, 1.29754349e-04,
          3.48091096e-04, 0., 2.62481272e-02, 7.82210007e-02,
          4.22138870e-02, 7.01572180e-01, 7.01572180e-01, 0. ]
      - [ 3.54564071e-01, 3.71090144e-01, 4.15274858e-01, 1.71348721e-01,
          1.12773091e-01, 2.31718831e-02, 4.15274858e-01, 4.15274858e-01,
          4.15274858e-01, 4.83549327e-01, 2.01604366e-01, 1.38731122e-01,
          0., 0., 0., 4.83549327e-01, 4.83549327e-01, 4.83549327e-01,
          4.06881720e-01, 4.06881720e-01, 4.06881720e-01, 4.75175381e-02,
          2.69219093e-02, 1.80327264e-03, 4.06881720e-01, 4.06430423e-01,
          4.06881720e-01, 4.25617278e-01, 4.25617278e-01, 2.56735086e-01,
          4.88465764e-02, 1.78852797e-01, 1.73529536e-01, 4.25617278e-01,
          3.75164628e-01, 4.25617278e-01, 4.16378647e-01, 4.16378647e-01,
          4.16378647e-01, 7.71253332e-02, 1.16565332e-01, 1.97934300e-01,
          2.65086621e-01, 4.16378647e-01, 4.16378647e-01, 4.00720984e-01,
          4.00720984e-01, 2.07213476e-01, 1.44239426e-01, 2.61898130e-01,
          2.46530190e-01, 4.00720984e-01, 4.00720984e-01, 4.00720984e-01,
          3.88471007e-01, 3.88471007e-01, 3.88471007e-01, 3.88471007e-01,
          3.88471007e-01, 1.30644590e-01, 2.70141661e-01, 2.28485703e-01,
          3.15151185e-01, 3.53560984e-01, 3.53560984e-01, 3.26031983e-01,
          3.46464187e-01, 3.53560984e-01, 3.53560984e-01, 3.53560984e-01,
          1.41778573e-01, 3.53560984e-01, 3.97069573e-01, 3.97069573e-01,
          1.94809526e-01, 3.97069573e-01, 3.97069573e-01, 2.87606597e-01,
          2.85400033e-01, 7.47704133e-02, 3.97069573e-01, 3.88471007e-01,
          3.88471007e-01, 3.88471007e-01, 3.88471007e-01, 3.88471007e-01,
          1.30644590e-01, 2.70141661e-01, 2.28485703e-01, 3.15151185e-01,
          3.53560984e-01, 3.53560984e-01, 3.26031983e-01, 3.46464187e-01,
          3.53560984e-01, 3.53560984e-01, 3.53560984e-01, 1.41778573e-01,
          3.53560984e-01, 3.97069573e-01, 3.97069573e-01, 1.94809526e-01,
          3.97069573e-01, 3.97069573e-01, 2.87606597e-01, 2.85400033e-01,
          7.47704133e-02, 3.97069573e-01, 6.05392605e-02, 1.57294884e-01,
          4.02224988e-01, 4.02224988e-01, 4.02224988e-01, 4.02224988e-01,
          4.02224988e-01, 3.95668089e-01, 4.57951650e-02, 1.55233875e-01,
          2.65858978e-01, 4.55610573e-01, 4.55610573e-01, 4.55610573e-01,
          4.55610573e-01, 2.45802999e-01, 5.90658523e-02, 8.02419260e-02,
          3.03715140e-01, 1.65069863e-01, 3.98988098e-01, 4.16877568e-01,
          4.16877568e-01, 4.16877568e-01, 4.16877568e-01, 5.65210804e-02,
          1.37152612e-01, 1.17561696e-02, 2.05156073e-01, 4.85699981e-01,
          1.40394583e-01, 1.39210656e-01, 4.65028733e-01, 4.85699981e-01,
          4.75118458e-01, 5.74679673e-03, 3.41338338e-03, 1.53385431e-01,
          4.35904473e-01, 2.24000424e-01, 4.35904473e-01, 4.35904473e-01,
          4.35904473e-01, 4.02328700e-01, 3.41338338e-03, 5.54889292e-02,
          4.91458237e-01, 4.91458237e-01, 2.09640518e-01, 3.85399789e-01,
          1.25898764e-01, 4.91458237e-01, 2.42869332e-01, 1.00344643e-02,
          4.06881720e-01, 4.06881720e-01, 4.06881720e-01, 4.75175381e-02,
          2.69219093e-02, 1.80327264e-03, 4.06881720e-01, 4.06430423e-01,
          4.06881720e-01, 3.15455884e-01, 4.17190373e-01, 4.17190373e-01,
          1.28534436e-01, 9.77602825e-02, 1.66706368e-03, 4.17190373e-01,
          4.17190373e-01, 4.17190373e-01, 2.25494325e-01, 4.74042505e-01,
          4.74042505e-01, 1.48636277e-03, 7.76101806e-05, 0.,
          4.74042505e-01, 4.74042505e-01, 2.13424996e-01, 4.00720984e-01,
          4.00720984e-01, 2.07213476e-01, 1.44239426e-01, 2.61898130e-01,
          2.46530190e-01, 4.00720984e-01, 4.00720984e-01, 4.00720984e-01,
          4.86834198e-01, 4.22529399e-01, 8.36515874e-02, 8.06465000e-02,
          4.86834198e-01, 1.43732175e-01, 2.02634647e-01, 1.74249068e-01,
          4.86834198e-01, 4.21235144e-01, 3.38981152e-01, 2.80749410e-01,
          4.81455959e-02, 2.83321857e-01, 9.85801220e-02, 4.21235144e-01,
          4.21235144e-01, 4.21235144e-01, 3.97069573e-01, 3.97069573e-01,
          1.94809526e-01, 3.97069573e-01, 3.97069573e-01, 2.87606597e-01,
          2.85400033e-01, 7.47704133e-02, 3.97069573e-01, 4.97552723e-01,
          1.51082441e-01, 4.00677770e-02, 2.65341043e-01, 4.97552723e-01,
          3.04503173e-01, 1.81326345e-01, 1.78650513e-01, 4.97552723e-01,
          3.14431757e-01, 5.77922910e-02, 8.98153484e-02, 2.26943642e-02,
          4.20715630e-01, 4.20715630e-01, 4.20715630e-01, 4.20715630e-01,
          4.20715630e-01, 3.97069573e-01, 3.97069573e-01, 1.94809526e-01,
          3.97069573e-01, 3.97069573e-01, 2.87606597e-01, 2.85400033e-01,
          7.47704133e-02, 3.97069573e-01, 4.97552723e-01, 1.51082441e-01,
          4.00677770e-02, 2.65341043e-01, 4.97552723e-01, 3.04503173e-01,
          1.81326345e-01, 1.78650513e-01, 4.97552723e-01, 3.14431757e-01,
          5.77922910e-02, 8.98153484e-02, 2.26943642e-02, 4.20715630e-01,
          4.20715630e-01, 4.20715630e-01, 4.20715630e-01, 4.20715630e-01,
          3.03715140e-01, 1.65069863e-01, 3.98988098e-01, 4.16877568e-01,
          4.16877568e-01, 4.16877568e-01, 4.16877568e-01, 5.65210804e-02,
          1.37152612e-01, 2.55428761e-01, 7.98667967e-02, 4.21586573e-01,
          4.34260666e-01, 4.34260666e-01, 3.73552740e-01, 4.34260666e-01,
          6.46455958e-02, 1.91928625e-01, 1.05157811e-02, 7.72123262e-02,
          4.82634395e-01, 1.63151234e-01, 4.82634395e-01, 1.71650648e-01,
          4.82634395e-01, 4.82634395e-01, 3.57899368e-02, 5.54889292e-02,
          4.91458237e-01, 4.91458237e-01, 2.09640518e-01, 3.85399789e-01,
          1.25898764e-01, 4.91458237e-01, 2.42869332e-01, 1.00344643e-02,
          5.53912856e-02, 4.66735631e-01, 4.92014706e-01, 9.99778733e-02,
          1.97809488e-01, 1.76943004e-01, 4.92014706e-01, 4.57510382e-01,
          1.64330918e-02, 8.37250729e-04, 4.77617204e-01, 5.00072956e-01,
          1.28508374e-01, 1.05307892e-01, 2.92631555e-02, 5.00072956e-01,
          4.88139540e-01, 0. ]
      - [ 5.50139487e-01, 5.50139487e-01, 1.80422366e-01, 1.23852566e-02,
          7.49572888e-02, 2.78116725e-02, 1.18139267e-01, 1.83006242e-01,
          5.50139487e-01, 5.32172501e-01, 2.03497514e-01, 9.88969952e-02,
          1.77697223e-02, 9.31149442e-03, 1.02470377e-02, 5.72740257e-01,
          5.72740257e-01, 5.75437956e-02, 1.04478011e-02, 1.22296482e-01,
          4.06087250e-01, 2.27779988e-02, 1.24178648e-01, 8.42690542e-02,
          6.28559351e-01, 6.28559351e-01, 2.31895223e-02, 4.23457384e-01,
          4.23457384e-01, 4.23457384e-01, 1.59443706e-01, 4.22137320e-01,
          3.10713593e-02, 1.62376046e-01, 2.18063459e-01, 4.23457384e-01,
          2.19295709e-03, 2.68483590e-02, 5.78847453e-02, 1.79496482e-02,
          3.16587422e-04, 2.46415078e-03, 7.03056574e-01, 7.03056574e-01,
          0., 7.10444758e-04, 1.45214498e-01, 4.72615719e-01,
          4.27638972e-03, 2.20446251e-02, 3.62507291e-02, 6.11392021e-01,
          6.11392021e-01, 4.83026030e-03, 3.47523719e-01, 3.63792479e-01,
          4.86798674e-01, 4.69369024e-01, 1.29403099e-01, 3.25497776e-01,
          2.00557768e-01, 1.62465841e-01, 3.08913589e-01, 1.26840046e-03,
          1.06122987e-02, 4.07429412e-02, 3.09406854e-02, 0.,
          5.52504836e-03, 7.03635871e-01, 7.03635871e-01, 2.67302711e-03,
          8.88103433e-03, 1.76522642e-01, 5.36423981e-01, 2.04671407e-03,
          8.20685085e-03, 3.68563980e-02, 5.79846919e-01, 5.79846919e-01,
          3.66796553e-02, 3.47523719e-01, 3.63792479e-01, 4.86798674e-01,
          4.69369024e-01, 1.29403099e-01, 3.25497776e-01, 2.00557768e-01,
          1.62465841e-01, 3.08913589e-01, 1.26840046e-03, 1.06122987e-02,
          4.07429412e-02, 3.09406854e-02, 0., 5.52504836e-03,
          7.03635871e-01, 7.03635871e-01, 2.67302711e-03, 8.88103433e-03,
          1.76522642e-01, 5.36423981e-01, 2.04671407e-03, 8.20685085e-03,
          3.68563980e-02, 5.79846919e-01, 5.79846919e-01, 3.66796553e-02,
          3.60650182e-01, 3.88579667e-01, 3.95759016e-01, 2.12026551e-01,
          1.16450049e-01, 1.73109531e-01, 3.95759016e-01, 3.95759016e-01,
          3.95759016e-01, 6.85678935e-03, 1.40590537e-02, 1.87809933e-02,
          8.14894866e-03, 1.09080803e-02, 8.61118641e-03, 7.04310834e-01,
          7.04310834e-01, 2.18997686e-03, 1.24110514e-02, 2.00962439e-01,
          5.61891794e-01, 5.51771896e-04, 1.12003339e-02, 6.88865483e-02,
          5.61891794e-01, 5.61891794e-01, 4.25534733e-02, 2.09310666e-01,
          4.81477678e-02, 1.68949291e-01, 2.22385764e-01, 4.29087013e-01,
          3.67590249e-01, 4.29087013e-01, 4.29087013e-01, 4.29087013e-01,
          2.04057116e-02, 2.30941307e-02, 2.31268071e-02, 3.16101573e-02,
          2.40335632e-02, 1.21316286e-02, 7.03334212e-01, 7.03334212e-01,
          2.03132294e-02, 2.27990169e-02, 2.71068066e-01, 5.51507413e-01,
          2.66950894e-02, 2.61344742e-02, 6.79924935e-02, 5.51507413e-01,
          5.51507413e-01, 4.46651168e-02, 1.04478011e-02, 1.22296482e-01,
          4.06087250e-01, 2.27779988e-02, 1.24178648e-01, 8.42690542e-02,
          6.28559351e-01, 6.28559351e-01, 2.31895223e-02, 3.64547670e-02,
          6.85452402e-01, 6.85452402e-01, 3.35732959e-02, 4.05918658e-02,
          1.13528576e-02, 4.55703624e-02, 1.09071396e-01, 1.87779978e-01,
          1.54150233e-01, 1.68137267e-01, 3.65306735e-01, 4.64731216e-04,
          0., 4.90655676e-02, 2.62695342e-01, 6.07058823e-01,
          6.07058823e-01, 7.10444758e-04, 1.45214498e-01, 4.72615719e-01,
          4.27638972e-03, 2.20446251e-02, 3.62507291e-02, 6.11392021e-01,
          6.11392021e-01, 4.83026030e-03, 2.12602608e-04, 7.02646136e-01,
          7.02646136e-01, 2.25116895e-03, 5.19302953e-03, 8.58723372e-03,
          5.94858080e-02, 4.36482392e-02, 3.63401673e-03, 0.,
          4.41003591e-01, 5.12761295e-01, 0., 0., 4.39619981e-02,
          5.12761295e-01, 5.12761295e-01, 9.84366313e-02, 8.88103433e-03,
          1.76522642e-01, 5.36423981e-01, 2.04671407e-03, 8.20685085e-03,
          3.68563980e-02, 5.79846919e-01, 5.79846919e-01, 3.66796553e-02,
          2.84499768e-03, 7.02895582e-01, 7.02895582e-01, 0.,
          1.84336654e-03, 1.52986664e-02, 6.07377253e-02, 2.88360771e-02,
          9.63560957e-03, 0., 4.88132864e-01, 5.00197947e-01,
          6.97875395e-04, 0., 7.83305615e-02, 5.00197947e-01,
          5.00197947e-01, 7.41073687e-04, 8.88103433e-03, 1.76522642e-01,
          5.36423981e-01, 2.04671407e-03, 8.20685085e-03, 3.68563980e-02,
          5.79846919e-01, 5.79846919e-01, 3.66796553e-02, 2.84499768e-03,
          7.02895582e-01, 7.02895582e-01, 0., 1.84336654e-03,
          1.52986664e-02, 6.07377253e-02, 2.88360771e-02, 9.63560957e-03,
          0., 4.88132864e-01, 5.00197947e-01, 6.97875395e-04, 0.,
          7.83305615e-02, 5.00197947e-01, 5.00197947e-01, 7.41073687e-04,
          1.24110514e-02, 2.00962439e-01, 5.61891794e-01, 5.51771896e-04,
          1.12003339e-02, 6.88865483e-02, 5.61891794e-01, 5.61891794e-01,
          4.25534733e-02, 2.29248963e-03, 7.01917708e-01, 7.01917708e-01,
          2.25911476e-03, 5.23536757e-04, 1.04315383e-02, 6.90255463e-02,
          5.17253764e-02, 7.52473529e-03, 2.64777932e-02, 4.59418416e-01,
          5.07650971e-01, 8.69408436e-03, 0., 9.50881764e-02,
          5.07650971e-01, 5.07650971e-01, 3.02949734e-02, 2.27990169e-02,
          2.71068066e-01, 5.51507413e-01, 2.66950894e-02, 2.61344742e-02,
          6.79924935e-02, 5.51507413e-01, 5.51507413e-01, 4.46651168e-02,
          1.11282049e-02, 7.02735364e-01, 7.02735364e-01, 1.18166832e-02,
          3.72375292e-03, 1.20959952e-02, 5.58655113e-02, 3.94944213e-02,
          1.43721793e-02, 2.46357061e-02, 2.80347705e-01, 4.65793759e-01,
          2.29480222e-01, 1.50184408e-01, 4.65793759e-01, 4.65793759e-01,
          4.32293028e-01, 5.62180430e-02 ]
      - [ 1.98755428e-01, 1.37399033e-01, 3.92015837e-02, 4.50891629e-02,
          2.07407176e-01, 1.16983242e-01, 6.46063507e-01, 6.46063507e-01,
          2.00247332e-01, 4.14605588e-01, 4.14605588e-01, 4.14605588e-01,
          4.14605588e-01, 3.00365120e-01, 4.80381139e-02, 1.99240953e-01,
          6.43862039e-02, 4.14605588e-01, 6.59859926e-02, 3.30340624e-01,
          5.26521504e-01, 1.21993065e-01, 1.02013990e-01, 1.02976725e-01,
          5.26521504e-01, 5.26521504e-01, 1.17024146e-01, 1.32172376e-01,
          2.88759649e-01, 6.17404506e-02, 2.79537705e-03, 3.20587168e-03,
          2.84560304e-03, 6.61377788e-01, 6.61377788e-01, 1.17755651e-01,
          4.96956110e-01, 4.96956110e-01, 3.30157310e-01, 1.31315157e-01,
          1.51256919e-01, 1.83408875e-02, 2.19936833e-01, 2.37288341e-01,
          4.96956110e-01, 3.99075508e-01, 1.23874687e-01, 3.43244314e-01,
          1.63805559e-01, 3.99075508e-01, 1.99281245e-01, 3.99075508e-01,
          3.99075508e-01, 3.99075508e-01, 9.60780978e-02, 2.05772385e-01,
          2.59970397e-01, 1.24772079e-01, 1.96547247e-02, 8.55565444e-03,
          6.55047715e-01, 6.55047715e-01, 9.98975802e-03, 5.02425551e-01,
          5.02425551e-01, 3.34705174e-01, 5.02425551e-01, 2.25594640e-01,
          3.74323875e-02, 1.68413669e-01, 1.34713426e-01, 1.63875654e-01,
          4.67526257e-01, 5.79289049e-02, 8.59650783e-04, 1.96476683e-01,
          4.67526257e-01, 2.56035835e-01, 1.16159961e-01, 4.67526257e-01,
          4.67526257e-01, 9.60780978e-02, 2.05772385e-01, 2.59970397e-01,
          1.24772079e-01, 1.96547247e-02, 8.55565444e-03, 6.55047715e-01,
          6.55047715e-01, 9.98975802e-03, 5.02425551e-01, 5.02425551e-01,
          3.34705174e-01, 5.02425551e-01, 2.25594640e-01, 3.74323875e-02,
          1.68413669e-01, 1.34713426e-01, 1.63875654e-01, 4.67526257e-01,
          5.79289049e-02, 8.59650783e-04, 1.96476683e-01, 4.67526257e-01,
          2.56035835e-01, 1.16159961e-01, 4.67526257e-01, 4.67526257e-01,
          2.89817229e-02, 1.10401355e-01, 8.17840174e-02, 7.75844455e-02,
          3.83072346e-02, 9.50000994e-03, 6.94601834e-01, 6.94601834e-01,
          2.87849512e-02, 1.59905881e-01, 1.20099567e-01, 1.50613293e-01,
          6.22929633e-01, 6.22929633e-01, 1.75881431e-01, 2.85436720e-01,
          1.72878370e-01, 1.12802170e-01, 1.52239203e-01, 5.13443025e-04,
          7.72425090e-04, 5.12671649e-01, 5.12671649e-01, 5.12671649e-01,
          3.68928254e-01, 1.82360895e-02, 2.16251999e-01, 8.00522789e-03,
          1.30992150e-03, 0., 4.07588221e-02, 2.33812332e-01,
          1.70282260e-01, 6.73565507e-01, 6.73565507e-01, 2.24383492e-02,
          2.00506717e-01, 3.21009815e-01, 4.31110680e-01, 4.31110680e-01,
          4.31110680e-01, 2.16165930e-01, 4.31110680e-01, 1.47221565e-01,
          2.01533511e-01, 3.70681465e-01, 2.56180614e-01, 3.83847803e-01,
          1.76067054e-01, 3.83847803e-01, 2.77823567e-01, 3.83847803e-01,
          3.09176296e-01, 3.83847803e-01, 6.59859926e-02, 3.30340624e-01,
          5.26521504e-01, 1.21993065e-01, 1.02013990e-01, 1.02976725e-01,
          5.26521504e-01, 5.26521504e-01, 1.17024146e-01, 4.98532623e-01,
          0., 0., 0., 1.87084582e-02, 2.30598710e-02, 4.98532623e-01,
          4.98532623e-01, 4.98532623e-01, 2.31177911e-01, 0., 0., 0., 0.,
          0., 2.21729752e-05, 6.85461104e-01, 6.85461104e-01,
          3.99075508e-01, 1.23874687e-01, 3.43244314e-01, 1.63805559e-01,
          3.99075508e-01, 1.99281245e-01, 3.99075508e-01, 3.99075508e-01,
          3.99075508e-01, 4.98395830e-01, 0., 0., 0., 3.49938087e-02,
          1.42859779e-02, 4.98395830e-01, 4.98395830e-01, 4.98395830e-01,
          4.97648008e-02, 0., 0., 0., 0., 0., 6.07530236e-01,
          6.07530236e-01, 5.03260851e-01, 4.67526257e-01, 5.79289049e-02,
          8.59650783e-04, 1.96476683e-01, 4.67526257e-01, 2.56035835e-01,
          1.16159961e-01, 4.67526257e-01, 4.67526257e-01, 4.39555794e-01,
          2.59334268e-03, 2.04891209e-02, 5.41564599e-02, 4.39555794e-01,
          2.35632718e-01, 4.04833049e-01, 4.39555794e-01, 4.39555794e-01,
          4.55830067e-01, 5.56080742e-03, 5.35578355e-02, 7.72903264e-02,
          4.40403134e-01, 4.46919166e-02, 4.08996671e-01, 4.55830067e-01,
          4.55830067e-01, 4.67526257e-01, 5.79289049e-02, 8.59650783e-04,
          1.96476683e-01, 4.67526257e-01, 2.56035835e-01, 1.16159961e-01,
          4.67526257e-01, 4.67526257e-01, 4.39555794e-01, 2.59334268e-03,
          2.04891209e-02, 5.41564599e-02, 4.39555794e-01, 2.35632718e-01,
          4.04833049e-01, 4.39555794e-01, 4.39555794e-01, 4.55830067e-01,
          5.56080742e-03, 5.35578355e-02, 7.72903264e-02, 4.40403134e-01,
          4.46919166e-02, 4.08996671e-01, 4.55830067e-01, 4.55830067e-01,
          1.52239203e-01, 5.13443025e-04, 7.72425090e-04, 5.12671649e-01,
          5.12671649e-01, 5.12671649e-01, 3.68928254e-01, 1.82360895e-02,
          2.16251999e-01, 1.22967049e-01, 2.75025656e-03, 2.17288472e-02,
          1.76559731e-01, 5.33429146e-01, 5.33429146e-01, 5.33429146e-01,
          2.12594494e-01, 2.21500859e-01, 2.46153578e-01, 4.50139958e-03,
          4.33543511e-02, 2.63831019e-01, 6.19225919e-01, 3.53664786e-01,
          4.92172539e-01, 1.10993065e-01, 3.14080209e-01, 3.70681465e-01,
          2.56180614e-01, 3.83847803e-01, 1.76067054e-01, 3.83847803e-01,
          2.77823567e-01, 3.83847803e-01, 3.09176296e-01, 3.83847803e-01,
          7.14190081e-02, 0., 0., 1.62470222e-01, 5.53812206e-01,
          5.53812206e-01, 5.53812206e-01, 1.64815813e-01, 1.25236988e-01,
          3.23401950e-03, 0., 0., 2.24090298e-03, 5.60943186e-01,
          5.60943186e-01, 5.60943186e-01, 2.24154428e-01, 1.28826434e-02 ]
      - [ 9.11013246e-01, 2.90081233e-01, 1.21740699e-02, 0.,
          7.99589977e-03, 0., 0., 0., 2.76778400e-01, 6.97785079e-01,
          6.86397076e-01, 1.03698308e-02, 0., 5.23419678e-02, 0.,
          2.14194809e-03, 7.13982736e-04, 1.79268494e-01, 6.79879963e-01,
          4.95444685e-01, 2.33145035e-03, 0., 5.37855327e-02,
          6.41025305e-02, 1.28284246e-01, 2.66013712e-01, 4.37359005e-01,
          5.57586908e-01, 5.57586908e-01, 6.24221824e-02, 7.77719989e-02,
          1.53924063e-01, 5.57586908e-01, 1.47805065e-01, 2.77025495e-02,
          7.39664808e-02, 4.70562607e-01, 4.70562607e-01, 2.49939725e-01,
          2.12047219e-01, 4.70562607e-01, 4.70562607e-01, 3.39693464e-02,
          1.72825821e-03, 3.15050744e-02, 4.16255236e-01, 2.86006004e-01,
          3.18989545e-01, 2.23623797e-01, 4.16255236e-01, 4.16255236e-01,
          4.16255236e-01, 2.11424559e-01, 1.56545103e-01, 3.60318720e-01,
          3.26407492e-01, 2.10312694e-01, 3.53603989e-01, 2.67288417e-01,
          3.60318720e-01, 3.60318720e-01, 3.60318720e-01, 3.60318720e-01,
          4.23362881e-01, 3.33928108e-01, 3.06569248e-01, 2.48288825e-01,
          4.23362881e-01, 4.23362881e-01, 4.46151569e-02, 9.84666944e-02,
          4.23362881e-01, 3.87752980e-01, 3.87752980e-01, 3.19523543e-01,
          3.87752980e-01, 3.87752980e-01, 3.64070266e-01, 4.73311916e-02,
          8.64966735e-02, 3.87752980e-01, 3.60318720e-01, 3.26407492e-01,
          2.10312694e-01, 3.53603989e-01, 2.67288417e-01, 3.60318720e-01,
          3.60318720e-01, 3.60318720e-01, 3.60318720e-01, 4.23362881e-01,
          3.33928108e-01, 3.06569248e-01, 2.48288825e-01, 4.23362881e-01,
          4.23362881e-01, 4.46151569e-02, 9.84666944e-02, 4.23362881e-01,
          3.87752980e-01, 3.87752980e-01, 3.19523543e-01, 3.87752980e-01,
          3.87752980e-01, 3.64070266e-01, 4.73311916e-02, 8.64966735e-02,
          3.87752980e-01, 1.78603411e-01, 1.13254957e-01, 6.58607632e-02,
          4.84378248e-01, 4.84378248e-01, 2.11813394e-02, 8.46206695e-02,
          4.84378248e-01, 4.84378248e-01, 4.04129028e-01, 3.41814637e-01,
          4.04129028e-01, 4.04129028e-01, 2.41550848e-01, 2.24362221e-02,
          6.06138073e-02, 4.04129028e-01, 4.04129028e-01, 3.17394465e-01,
          1.07411072e-01, 2.65013963e-01, 3.86412501e-01, 2.86947429e-01,
          1.47326827e-01, 2.98939824e-01, 3.79366577e-01, 5.70223212e-01,
          0., 0., 0., 7.00659752e-01, 7.00659752e-01, 1.55375330e-02,
          4.11349274e-02, 9.37755555e-02, 2.07378063e-02, 1.01898089e-01,
          1.01611510e-01, 1.81588650e-01, 6.80333078e-01, 6.80333078e-01,
          1.15724336e-02, 2.01754868e-02, 1.09743230e-01, 3.51421013e-02,
          6.55021099e-03, 1.26196975e-02, 3.70791033e-02, 5.48344076e-01,
          5.48344076e-01, 3.52027088e-01, 4.27198559e-01, 2.26439938e-01,
          1.84086800e-01, 6.79879963e-01, 4.95444685e-01, 2.33145035e-03,
          0., 5.37855327e-02, 6.41025305e-02, 1.28284246e-01,
          2.66013712e-01, 4.37359005e-01, 4.54775900e-01, 4.54775900e-01,
          1.69271138e-02, 2.60020178e-02, 2.89690137e-01, 4.54775900e-01,
          3.22372735e-01, 2.39288494e-01, 3.59065384e-01, 4.56539154e-01,
          1.74443394e-01, 5.93510382e-02, 6.16108291e-02, 1.66839540e-01,
          3.86149824e-01, 4.56539154e-01, 4.56539154e-01, 3.94283980e-01,
          4.16255236e-01, 2.86006004e-01, 3.18989545e-01, 2.23623797e-01,
          4.16255236e-01, 4.16255236e-01, 4.16255236e-01, 2.11424559e-01,
          1.56545103e-01, 4.07202780e-01, 3.01292717e-01, 2.87038505e-01,
          1.42458007e-01, 4.07202780e-01, 4.07202780e-01, 4.07202780e-01,
          2.50281215e-01, 2.76717037e-01, 4.26311851e-01, 1.66536540e-01,
          2.07966045e-01, 5.97741306e-02, 3.78797591e-01, 4.01272267e-01,
          4.30586815e-01, 4.30586815e-01, 2.53145844e-01, 3.87752980e-01,
          3.87752980e-01, 3.19523543e-01, 3.87752980e-01, 3.87752980e-01,
          3.64070266e-01, 4.73311916e-02, 8.64966735e-02, 3.87752980e-01,
          4.17420000e-01, 2.31445640e-01, 1.89782128e-01, 4.17420000e-01,
          4.17420000e-01, 3.60219657e-01, 2.31497884e-01, 1.61054075e-01,
          4.17420000e-01, 3.68937969e-01, 3.68937969e-01, 3.68937969e-01,
          1.33582801e-01, 3.54150116e-01, 1.90672845e-01, 3.68937969e-01,
          3.68937969e-01, 3.68937969e-01, 3.87752980e-01, 3.87752980e-01,
          3.19523543e-01, 3.87752980e-01, 3.87752980e-01, 3.64070266e-01,
          4.73311916e-02, 8.64966735e-02, 3.87752980e-01, 4.17420000e-01,
          2.31445640e-01, 1.89782128e-01, 4.17420000e-01, 4.17420000e-01,
          3.60219657e-01, 2.31497884e-01, 1.61054075e-01, 4.17420000e-01,
          3.68937969e-01, 3.68937969e-01, 3.68937969e-01, 1.33582801e-01,
          3.54150116e-01, 1.90672845e-01, 3.68937969e-01, 3.68937969e-01,
          3.68937969e-01, 3.17394465e-01, 1.07411072e-01, 2.65013963e-01,
          3.86412501e-01, 2.86947429e-01, 1.47326827e-01, 2.98939824e-01,
          3.79366577e-01, 5.70223212e-01, 4.17648554e-01, 2.41174945e-03,
          5.27840219e-02, 4.43140268e-01, 4.43140268e-01, 1.62035182e-01,
          2.40240306e-01, 3.81130785e-01, 4.43140268e-01, 1.94587365e-01,
          8.79923776e-02, 3.57303709e-01, 3.62175316e-01, 3.79566371e-01,
          3.39825988e-01, 3.79566371e-01, 3.79566371e-01, 3.79566371e-01,
          6.55021099e-03, 1.26196975e-02, 3.70791033e-02, 5.48344076e-01,
          5.48344076e-01, 3.52027088e-01, 4.27198559e-01, 2.26439938e-01,
          1.84086800e-01, 4.55647595e-02, 1.16578611e-02, 6.21061958e-02,
          4.44418162e-01, 4.44418162e-01, 1.85473308e-01, 4.06277210e-01,
          4.44418162e-01, 4.44418162e-01, 3.69968414e-02, 1.13758687e-02,
          6.60472661e-02, 3.10543805e-01, 3.24552149e-01, 1.91980943e-01,
          5.05248427e-01, 5.05248427e-01, 4.89809364e-01 ]
      - [ 6.92918062e-01, 5.72818294e-02, 1.71845481e-01, 0., 0., 0., 0.,
          0., 6.92918062e-01, 6.93768978e-01, 1.50722802e-01,
          4.97632958e-02, 0., 0., 0., 6.07340224e-03, 7.22009167e-02,
          6.93768978e-01, 5.74703693e-01, 5.61868809e-02, 4.83982963e-03,
          0., 0., 0., 2.57123232e-01, 5.14198184e-01, 5.74703693e-01,
          7.00556219e-01, 7.00556219e-01, 0., 0., 0., 0., 0., 0.,
          1.06998503e-01, 6.65214002e-01, 6.43753827e-01, 0., 0., 0., 0.,
          1.66345850e-01, 2.05225557e-01, 2.58151025e-01, 4.97410297e-01,
          7.32409284e-02, 0., 0., 0., 0., 4.97410297e-01, 4.97410297e-01,
          4.97410297e-01, 5.46035886e-01, 5.46035886e-01, 7.34213591e-02,
          5.46035886e-01, 3.06005657e-01, 0., 0., 0., 3.24270613e-02,
          5.39511919e-01, 4.83486384e-01, 0., 4.42523479e-01,
          2.09341139e-01, 3.03405449e-02, 3.00779194e-01, 3.18651289e-01,
          1.92877918e-01, 4.53196824e-01, 4.55712713e-03, 0.,
          3.87912504e-02, 4.53196824e-01, 8.73914286e-02, 4.05907720e-01,
          4.53196824e-01, 4.53196824e-01, 5.46035886e-01, 5.46035886e-01,
          7.34213591e-02, 5.46035886e-01, 3.06005657e-01, 0., 0., 0.,
          3.24270613e-02, 5.39511919e-01, 4.83486384e-01, 0.,
          4.42523479e-01, 2.09341139e-01, 3.03405449e-02, 3.00779194e-01,
          3.18651289e-01, 1.92877918e-01, 4.53196824e-01, 4.55712713e-03,
          0., 3.87912504e-02, 4.53196824e-01, 8.73914286e-02,
          4.05907720e-01, 4.53196824e-01, 4.53196824e-01, 1.81171149e-02,
          1.91632062e-02, 1.52568845e-02, 7.04287052e-01, 7.04287052e-01,
          0., 0., 0., 9.58154036e-04, 4.59465140e-04, 1.83294796e-05, 0.,
          6.56453788e-01, 6.56453788e-01, 9.69446898e-02, 3.47454488e-01,
          3.82072255e-02, 5.32773789e-04, 8.51197913e-03, 0., 0.,
          3.99499148e-01, 5.17622709e-01, 5.17622709e-01, 5.17622709e-01,
          1.76859885e-01, 8.89573898e-03, 2.19312161e-02, 0., 0.,
          7.27550030e-01, 6.80034518e-01, 0., 0., 0., 2.19312161e-02, 0.,
          0., 0., 6.83121383e-01, 6.83121383e-01, 1.72335342e-01,
          1.73154846e-01, 1.37430336e-02, 0., 0., 0., 0., 4.92771864e-01,
          4.92771864e-01, 4.92771864e-01, 4.92771864e-01, 1.54214010e-01,
          0., 5.74703693e-01, 5.61868809e-02, 4.83982963e-03, 0., 0., 0.,
          2.57123232e-01, 5.14198184e-01, 5.74703693e-01, 6.98031068e-01,
          0., 0., 0., 0., 0., 1.23283073e-01, 5.77801391e-02,
          6.98031068e-01, 5.42154253e-01, 0., 0., 0., 0., 0.,
          3.35845500e-01, 5.42154253e-01, 5.42154253e-01, 4.97410297e-01,
          7.32409284e-02, 0., 0., 0., 0., 4.97410297e-01, 4.97410297e-01,
          4.97410297e-01, 6.95346355e-01, 0., 0., 0., 0., 0.,
          1.29761890e-01, 9.59550813e-02, 6.95346355e-01, 6.76937103e-01,
          0., 0., 0., 0., 0., 2.06056938e-01, 1.85189024e-01,
          6.76937103e-01, 4.53196824e-01, 4.55712713e-03, 0.,
          3.87912504e-02, 4.53196824e-01, 8.73914286e-02, 4.05907720e-01,
          4.53196824e-01, 4.53196824e-01, 5.74697793e-01, 0., 0.,
          5.71133792e-02, 5.74697793e-01, 5.96926268e-03, 4.20236634e-03,
          1.06522534e-02, 5.74697793e-01, 4.74526554e-01, 7.25741498e-03,
          2.17722468e-02, 1.64629314e-02, 2.99444109e-01, 6.39845431e-02,
          4.74526554e-01, 4.74526554e-01, 4.74526554e-01, 4.53196824e-01,
          4.55712713e-03, 0., 3.87912504e-02, 4.53196824e-01,
          8.73914286e-02, 4.05907720e-01, 4.53196824e-01, 4.53196824e-01,
          5.74697793e-01, 0., 0., 5.71133792e-02, 5.74697793e-01,
          5.96926268e-03, 4.20236634e-03, 1.06522534e-02, 5.74697793e-01,
          4.74526554e-01, 7.25741498e-03, 2.17722468e-02, 1.64629314e-02,
          2.99444109e-01, 6.39845431e-02, 4.74526554e-01, 4.74526554e-01,
          4.74526554e-01, 8.51197913e-03, 0., 0., 3.99499148e-01,
          5.17622709e-01, 5.17622709e-01, 5.17622709e-01, 1.76859885e-01,
          8.89573898e-03, 2.69512013e-02, 0., 0., 5.28413117e-01,
          8.40873182e-01, 4.08916548e-02, 4.32667211e-02, 7.27338530e-03,
          3.15817632e-02, 2.08693929e-02, 1.47190271e-02, 4.41570841e-02,
          2.79144287e-01, 6.28623068e-01, 3.76244158e-01, 5.98939002e-01,
          1.27461299e-01, 3.87185626e-02, 0., 0., 0., 4.92771864e-01,
          4.92771864e-01, 4.92771864e-01, 4.92771864e-01, 1.54214010e-01,
          0., 0., 0., 0., 3.35371405e-01, 8.48313928e-01, 5.03688306e-02,
          3.90465677e-01, 6.65122345e-02, 0., 0., 1.74451806e-02,
          5.23355454e-02, 2.59509772e-01, 8.39805245e-01, 1.54090524e-01,
          4.22273844e-01, 1.17893472e-01, 0. ]
      - [ 4.49939549e-01, 2.30317608e-01, 1.49018347e-01, 2.06373483e-01,
          4.49939549e-01, 1.99110702e-01, 3.06307048e-01, 4.49939549e-01,
          3.69942069e-01, 4.02368277e-01, 3.17348897e-01, 4.72744852e-01,
          4.72744852e-01, 4.72744852e-01, 9.93291140e-02, 2.63834968e-02,
          6.70120865e-02, 2.17143804e-01, 4.31803949e-02, 4.29415368e-02,
          2.04320908e-01, 1.15541860e-01, 4.99035686e-01, 4.21632141e-01,
          4.99035686e-01, 4.99035686e-01, 1.06428042e-01, 4.50507492e-01,
          4.00386244e-01, 4.38134819e-01, 7.49339014e-02, 8.88730306e-03,
          1.69997849e-02, 1.68447599e-01, 4.50507492e-01, 4.50507492e-01,
          5.65940380e-01, 2.02168018e-01, 3.97602588e-01, 2.44269520e-01,
          1.84431583e-01, 1.10472269e-01, 7.10752085e-02, 2.09460050e-01,
          5.65940380e-01, 4.50515270e-01, 6.80236742e-02, 1.71069369e-01,
          2.34423116e-01, 3.41733694e-01, 2.64551669e-01, 3.33154887e-01,
          4.50515270e-01, 4.50515270e-01, 1.25851840e-01, 1.40477762e-01,
          4.86617893e-01, 4.86617893e-01, 3.14835086e-02, 6.88178912e-02,
          4.86617893e-01, 4.86617893e-01, 8.15588236e-02, 3.42622578e-01,
          1.39863700e-01, 3.83419335e-01, 3.83419335e-01, 2.71648049e-01,
          2.24438697e-01, 3.83419335e-01, 3.83419335e-01, 3.83419335e-01,
          1.17897548e-01, 6.95048273e-02, 4.69592631e-01, 4.69592631e-01,
          1.18436113e-01, 6.20897412e-02, 3.48936021e-01, 4.69592631e-01,
          4.18793976e-01, 1.25851840e-01, 1.40477762e-01, 4.86617893e-01,
          4.86617893e-01, 3.14835086e-02, 6.88178912e-02, 4.86617893e-01,
          4.86617893e-01, 8.15588236e-02, 3.42622578e-01, 1.39863700e-01,
          3.83419335e-01, 3.83419335e-01, 2.71648049e-01, 2.24438697e-01,
          3.83419335e-01, 3.83419335e-01, 3.83419335e-01, 1.17897548e-01,
          6.95048273e-02, 4.69592631e-01, 4.69592631e-01, 1.18436113e-01,
          6.20897412e-02, 3.48936021e-01, 4.69592631e-01, 4.18793976e-01,
          2.89793853e-02, 1.68207902e-02, 4.95361298e-01, 4.95361298e-01,
          6.38960823e-02, 2.02594753e-02, 4.95361298e-01, 4.95361298e-01,
          8.89129862e-02, 1.36545628e-01, 9.79467481e-02, 4.46623296e-01,
          4.46623296e-01, 4.46623296e-01, 1.28091335e-01, 1.74370572e-01,
          4.46623296e-01, 3.50140631e-01, 3.08908597e-02, 1.02146849e-01,
          4.16893750e-01, 3.42737496e-01, 4.82698202e-01, 4.17011291e-01,
          1.71462283e-01, 4.82698202e-01, 1.52408779e-01, 3.21133047e-01,
          2.37600833e-01, 4.42007065e-01, 4.42007065e-01, 6.22792877e-02,
          7.72008020e-03, 4.42007065e-01, 4.42007065e-01, 2.24910855e-01,
          2.71528363e-01, 4.92713489e-02, 1.12082720e-01, 1.41141623e-01,
          4.04406577e-01, 1.02259427e-01, 5.58099270e-01, 5.58099270e-01,
          2.98054874e-01, 4.00088310e-01, 4.00088310e-01, 4.00088310e-01,
          4.00088310e-01, 4.00088310e-01, 1.37737557e-01, 7.11427853e-02,
          1.07452802e-01, 4.00088310e-01, 4.31803949e-02, 4.29415368e-02,
          2.04320908e-01, 1.15541860e-01, 4.99035686e-01, 4.21632141e-01,
          4.99035686e-01, 4.99035686e-01, 1.06428042e-01, 1.48338139e-01,
          1.40871391e-01, 4.48713630e-01, 4.48713630e-01, 4.48713630e-01,
          1.16444916e-01, 2.66856462e-01, 4.48713630e-01, 2.52034754e-01,
          2.08232045e-01, 6.12712540e-02, 5.17117500e-01, 5.17117500e-01,
          7.45835453e-02, 2.56791916e-02, 2.93056816e-01, 5.17117500e-01,
          2.31051415e-01, 4.50515270e-01, 6.80236742e-02, 1.71069369e-01,
          2.34423116e-01, 3.41733694e-01, 2.64551669e-01, 3.33154887e-01,
          4.50515270e-01, 4.50515270e-01, 4.03825819e-01, 1.34573266e-01,
          4.07447785e-01, 3.40961337e-01, 2.08509699e-01, 1.69910774e-01,
          3.57914597e-01, 4.07447785e-01, 4.07447785e-01, 7.25788474e-02,
          1.07371159e-01, 5.56338012e-01, 5.56338012e-01, 4.11809282e-03,
          1.08919796e-02, 1.25840649e-01, 5.56338012e-01, 1.82045802e-01,
          1.17897548e-01, 6.95048273e-02, 4.69592631e-01, 4.69592631e-01,
          1.18436113e-01, 6.20897412e-02, 3.48936021e-01, 4.69592631e-01,
          4.18793976e-01, 8.61098617e-02, 9.30736139e-02, 4.82431024e-01,
          1.88609123e-01, 7.27638230e-02, 9.60535780e-02, 5.01528442e-01,
          6.33689821e-01, 2.04127774e-01, 1.62959948e-01, 1.72082737e-01,
          6.09374404e-01, 6.09374404e-01, 7.41910003e-03, 2.15112250e-02,
          8.96222219e-02, 3.26180726e-01, 2.83070803e-01, 1.17897548e-01,
          6.95048273e-02, 4.69592631e-01, 4.69592631e-01, 1.18436113e-01,
          6.20897412e-02, 3.48936021e-01, 4.69592631e-01, 4.18793976e-01,
          8.61098617e-02, 9.30736139e-02, 4.82431024e-01, 1.88609123e-01,
          7.27638230e-02, 9.60535780e-02, 5.01528442e-01, 6.33689821e-01,
          2.04127774e-01, 1.62959948e-01, 1.72082737e-01, 6.09374404e-01,
          6.09374404e-01, 7.41910003e-03, 2.15112250e-02, 8.96222219e-02,
          3.26180726e-01, 2.83070803e-01, 3.08908597e-02, 1.02146849e-01,
          4.16893750e-01, 3.42737496e-01, 4.82698202e-01, 4.17011291e-01,
          1.71462283e-01, 4.82698202e-01, 1.52408779e-01, 7.73090795e-02,
          4.10249345e-02, 1.26134232e-01, 8.47338513e-02, 4.82015461e-01,
          4.27052289e-01, 4.82015461e-01, 4.82015461e-01, 2.91626155e-01,
          6.17199540e-02, 1.05689444e-01, 4.89674240e-01, 4.89674240e-01,
          3.36234681e-02, 1.14532053e-01, 4.81064051e-01, 4.89674240e-01,
          1.22948341e-01, 4.00088310e-01, 4.00088310e-01, 4.00088310e-01,
          4.00088310e-01, 4.00088310e-01, 1.37737557e-01, 7.11427853e-02,
          1.07452802e-01, 4.00088310e-01, 3.27302694e-01, 4.10907716e-02,
          7.92522579e-02, 2.65562713e-01, 4.12727177e-01, 4.12727177e-01,
          4.12727177e-01, 4.12727177e-01, 3.59001607e-01, 2.20831990e-01,
          5.21484129e-02, 4.51176703e-01, 2.82494366e-01, 5.84475733e-02,
          2.15746149e-01, 4.51176703e-01, 4.51176703e-01, 4.51176703e-01 ]
      - [ 5.70775688e-01, 5.70775688e-01, 8.81889462e-02, 6.41761487e-03,
          3.21753994e-02, 1.82049438e-01, 3.18810463e-01, 4.38579619e-01,
          8.21140483e-02, 4.57163006e-01, 4.57163006e-01, 4.57163006e-01,
          1.38509512e-01, 9.18209106e-02, 4.57163006e-01, 2.92070240e-01,
          1.10691130e-01, 1.85116202e-01, 3.94467741e-01, 1.48660943e-01,
          3.94467741e-01, 3.94467741e-01, 3.70913446e-01, 1.28229544e-01,
          2.04732955e-01, 3.94467741e-01, 3.94467741e-01, 4.67238963e-01,
          4.67238963e-01, 2.70016491e-01, 1.03313804e-01, 1.28088355e-01,
          4.67238963e-01, 3.10251296e-01, 2.52833068e-01, 2.83243001e-01,
          2.41440430e-01, 3.85899812e-01, 3.85899812e-01, 3.85899812e-01,
          1.21216394e-01, 3.53575677e-01, 3.85899812e-01, 3.85899812e-01,
          2.31406197e-01, 3.77588689e-01, 6.37949184e-02, 3.77588689e-01,
          3.77588689e-01, 3.77588689e-01, 1.77575663e-01, 3.24323356e-01,
          3.77588689e-01, 3.77588689e-01, 1.01499490e-01, 5.19500792e-01,
          5.19500792e-01, 1.28317043e-01, 4.45717834e-02, 3.29482675e-01,
          5.19500792e-01, 2.14812443e-01, 4.13669124e-02, 1.90041766e-01,
          4.27370280e-01, 4.27370280e-01, 2.65455812e-01, 1.78524360e-01,
          4.27370280e-01, 4.18932974e-01, 3.14666361e-01, 1.86604843e-01,
          4.77702051e-01, 5.44564463e-02, 6.63180351e-02, 1.32840559e-01,
          4.77702051e-01, 4.77702051e-01, 1.78855851e-01, 1.59474298e-01,
          4.77702051e-01, 1.01499490e-01, 5.19500792e-01, 5.19500792e-01,
          1.28317043e-01, 4.45717834e-02, 3.29482675e-01, 5.19500792e-01,
          2.14812443e-01, 4.13669124e-02, 1.90041766e-01, 4.27370280e-01,
          4.27370280e-01, 2.65455812e-01, 1.78524360e-01, 4.27370280e-01,
          4.18932974e-01, 3.14666361e-01, 1.86604843e-01, 4.77702051e-01,
          5.44564463e-02, 6.63180351e-02, 1.32840559e-01, 4.77702051e-01,
          4.77702051e-01, 1.78855851e-01, 1.59474298e-01, 4.77702051e-01,
          2.40033353e-03, 5.51557422e-01, 5.51557422e-01, 0.,
          6.42912388e-02, 0., 5.51557422e-01, 2.78748184e-01,
          2.40033353e-03, 3.85082006e-01, 3.85082006e-01, 3.85082006e-01,
          3.78987998e-01, 2.47876361e-01, 3.85082006e-01, 3.70522678e-01,
          2.03447655e-01, 1.38736054e-01, 4.67489630e-01, 1.98777139e-01,
          4.91040647e-02, 2.09624946e-01, 4.67489630e-01, 4.67489630e-01,
          1.52300820e-01, 1.09921053e-01, 4.67489630e-01, 8.88868701e-03,
          2.74634957e-01, 4.39791054e-01, 4.39791054e-01, 3.02776963e-01,
          3.69238071e-02, 2.67513871e-01, 4.39791054e-01, 4.18633640e-01,
          4.02257651e-01, 4.02257651e-01, 4.02257651e-01, 4.02257651e-01,
          3.19725573e-01, 1.35356575e-01, 1.60477474e-01, 2.01560318e-01,
          4.02257651e-01, 4.38200086e-01, 7.71239772e-02, 7.92315081e-02,
          4.38200086e-01, 4.38200086e-01, 4.38200086e-01, 8.65800008e-02,
          1.25714913e-01, 4.38200086e-01, 3.94467741e-01, 1.48660943e-01,
          3.94467741e-01, 3.94467741e-01, 3.70913446e-01, 1.28229544e-01,
          2.04732955e-01, 3.94467741e-01, 3.94467741e-01, 3.79876822e-01,
          3.79876822e-01, 3.79876822e-01, 2.11012900e-01, 2.04799041e-01,
          2.09516943e-01, 3.79876822e-01, 3.79876822e-01, 3.79876822e-01,
          3.06296647e-01, 3.72706264e-01, 3.39377314e-01, 3.72706264e-01,
          1.78265031e-02, 3.03997040e-01, 3.72706264e-01, 3.72706264e-01,
          3.72706264e-01, 3.77588689e-01, 6.37949184e-02, 3.77588689e-01,
          3.77588689e-01, 3.77588689e-01, 1.77575663e-01, 3.24323356e-01,
          3.77588689e-01, 3.77588689e-01, 4.01314110e-01, 1.98753864e-01,
          1.77359685e-01, 2.13980094e-01, 4.01314110e-01, 4.01314110e-01,
          3.99742901e-01, 2.74294227e-01, 4.01314110e-01, 1.00294374e-01,
          4.13408019e-02, 6.28950074e-02, 4.33410853e-01, 2.01796591e-01,
          4.33410853e-01, 4.33410853e-01, 4.33410853e-01, 4.33410853e-01,
          4.77702051e-01, 5.44564463e-02, 6.63180351e-02, 1.32840559e-01,
          4.77702051e-01, 4.77702051e-01, 1.78855851e-01, 1.59474298e-01,
          4.77702051e-01, 4.59807009e-01, 1.27126358e-03, 0.,
          5.15440255e-02, 4.59807009e-01, 4.59807009e-01, 2.23259285e-01,
          3.11791837e-01, 4.59807009e-01, 1.26129091e-01, 0.,
          1.12065661e-03, 8.00523325e-04, 3.85089546e-01, 4.82220978e-01,
          4.82220978e-01, 4.82220978e-01, 3.65195602e-01, 4.77702051e-01,
          5.44564463e-02, 6.63180351e-02, 1.32840559e-01, 4.77702051e-01,
          4.77702051e-01, 1.78855851e-01, 1.59474298e-01, 4.77702051e-01,
          4.59807009e-01, 1.27126358e-03, 0., 5.15440255e-02,
          4.59807009e-01, 4.59807009e-01, 2.23259285e-01, 3.11791837e-01,
          4.59807009e-01, 1.26129091e-01, 0., 1.12065661e-03,
          8.00523325e-04, 3.85089546e-01, 4.82220978e-01, 4.82220978e-01,
          4.82220978e-01, 3.65195602e-01, 4.67489630e-01, 1.98777139e-01,
          4.91040647e-02, 2.09624946e-01, 4.67489630e-01, 4.67489630e-01,
          1.52300820e-01, 1.09921053e-01, 4.67489630e-01, 3.39216709e-01,
          2.84954220e-01, 3.39216709e-01, 3.39216709e-01, 3.39216709e-01,
          3.31566066e-01, 3.39216709e-01, 3.39216709e-01, 3.39216709e-01,
          9.33536887e-03, 5.71710132e-02, 1.63137794e-01, 0.,
          3.90204377e-02, 3.51539612e-01, 5.93041718e-01, 5.93041718e-01,
          3.68251413e-01, 4.38200086e-01, 7.71239772e-02, 7.92315081e-02,
          4.38200086e-01, 4.38200086e-01, 4.38200086e-01, 8.65800008e-02,
          1.25714913e-01, 4.38200086e-01, 4.21442032e-01, 2.39891008e-01,
          1.34625077e-01, 4.90444116e-02, 4.21442032e-01, 4.21442032e-01,
          4.21442032e-01, 1.72180325e-01, 4.21442032e-01, 2.36950085e-01,
          3.84166449e-01, 4.81646582e-02, 0., 7.43686929e-02,
          4.70433563e-01, 4.70433563e-01, 4.70433563e-01, 3.46118867e-01 ]
      - [ 1.35518461e-01, 4.22861487e-01, 4.61389035e-01, 1.51311308e-01,
          1.77286752e-02, 4.42135036e-02, 4.61389035e-01, 4.61389035e-01,
          3.66620511e-01, 4.88536924e-01, 4.52967048e-01, 4.88536924e-01,
          1.09016057e-02, 2.99806576e-02, 9.97354649e-03, 2.01135069e-01,
          1.79900199e-01, 4.88536924e-01, 2.53160119e-01, 4.17782396e-01,
          4.17782396e-01, 4.17782396e-01, 3.46774310e-01, 2.08554476e-01,
          4.17782396e-01, 1.83073565e-01, 1.90537781e-01, 3.65372956e-01,
          4.21271056e-01, 4.21271056e-01, 3.59941095e-01, 6.02977388e-02,
          9.64859352e-02, 4.21271056e-01, 4.21271056e-01, 9.95700732e-02,
          5.99063337e-01, 5.99063337e-01, 4.31332029e-02, 1.46579891e-01,
          2.22595796e-01, 1.31828666e-01, 4.90766913e-02, 3.26062031e-02,
          4.27222371e-01, 4.58259434e-01, 4.58259434e-01, 9.93302092e-02,
          2.16001481e-01, 3.95681649e-01, 3.29950631e-01, 1.93271786e-01,
          7.81605989e-02, 4.58259434e-01, 4.05116290e-01, 4.05116290e-01,
          4.05116290e-01, 4.05116290e-01, 1.46931604e-01, 8.14067945e-02,
          4.05116290e-01, 3.49949151e-01, 1.57088131e-01, 3.50455493e-01,
          3.50455493e-01, 1.18093371e-01, 3.50455493e-01, 3.50455493e-01,
          3.50455493e-01, 3.50455493e-01, 3.50455493e-01, 3.50455493e-01,
          3.78937453e-01, 3.75150114e-01, 2.83933699e-01, 3.78937453e-01,
          3.78937453e-01, 3.78937453e-01, 2.20754042e-01, 9.03217643e-02,
          3.78937453e-01, 4.05116290e-01, 4.05116290e-01, 4.05116290e-01,
          4.05116290e-01, 1.46931604e-01, 8.14067945e-02, 4.05116290e-01,
          3.49949151e-01, 1.57088131e-01, 3.50455493e-01, 3.50455493e-01,
          1.18093371e-01, 3.50455493e-01, 3.50455493e-01, 3.50455493e-01,
          3.50455493e-01, 3.50455493e-01, 3.50455493e-01, 3.78937453e-01,
          3.75150114e-01, 2.83933699e-01, 3.78937453e-01, 3.78937453e-01,
          3.78937453e-01, 2.20754042e-01, 9.03217643e-02, 3.78937453e-01,
          1.07462920e-01, 4.03032869e-01, 4.03032869e-01, 4.03032869e-01,
          4.03032869e-01, 3.09854373e-02, 4.03032869e-01, 4.03032869e-01,
          9.40869153e-02, 1.79939121e-01, 1.26335502e-01, 2.13854000e-01,
          5.71017206e-01, 5.71017206e-01, 3.35476436e-02, 3.69183309e-02,
          2.59387791e-01, 4.22296226e-01, 2.80057281e-01, 1.03589699e-01,
          3.45972598e-01, 4.32265759e-01, 4.32265759e-01, 1.68576390e-01,
          2.76702166e-01, 3.48251224e-01, 4.32265759e-01, 1.88044310e-01,
          4.16841507e-01, 4.16841507e-01, 2.44625911e-01, 1.87855154e-01,
          2.52313375e-01, 4.16841507e-01, 4.16841507e-01, 3.26579928e-01,
          1.24366917e-02, 1.61706492e-01, 3.74669820e-01, 4.24018681e-01,
          4.66989100e-01, 3.77672225e-01, 4.23726767e-01, 3.26975524e-01,
          4.11113016e-02, 2.79430032e-01, 3.60890150e-01, 3.60890150e-01,
          3.60890150e-01, 3.60890150e-01, 1.33603737e-01, 3.47997159e-01,
          3.57984453e-01, 3.60890150e-01, 2.53160119e-01, 4.17782396e-01,
          4.17782396e-01, 4.17782396e-01, 3.46774310e-01, 2.08554476e-01,
          4.17782396e-01, 1.83073565e-01, 1.90537781e-01, 4.59650867e-02,
          4.72919613e-01, 4.72919613e-01, 2.38407701e-01, 7.29073286e-02,
          1.67608127e-01, 4.72919613e-01, 4.72919613e-01, 9.11356285e-02,
          3.03004775e-03, 2.36326337e-01, 4.13490891e-01, 4.41576689e-02,
          5.98802697e-03, 1.56733066e-01, 6.63528383e-01, 5.47465861e-01,
          1.47710741e-03, 4.58259434e-01, 4.58259434e-01, 9.93302092e-02,
          2.16001481e-01, 3.95681649e-01, 3.29950631e-01, 1.93271786e-01,
          7.81605989e-02, 4.58259434e-01, 4.02591288e-01, 3.26618284e-01,
          1.60685733e-01, 1.22660033e-01, 1.95024654e-01, 4.02591288e-01,
          4.02591288e-01, 4.02591288e-01, 4.02591288e-01, 4.84429032e-01,
          3.01016066e-02, 2.99610216e-02, 3.56878377e-02, 1.40221529e-02,
          2.30654761e-01, 4.84429032e-01, 4.84429032e-01, 4.84429032e-01,
          3.78937453e-01, 3.75150114e-01, 2.83933699e-01, 3.78937453e-01,
          3.78937453e-01, 3.78937453e-01, 2.20754042e-01, 9.03217643e-02,
          3.78937453e-01, 3.63529444e-01, 3.28395516e-01, 3.63529444e-01,
          2.28312820e-01, 2.08508700e-01, 3.63529444e-01, 3.63529444e-01,
          3.63529444e-01, 3.63529444e-01, 5.13401449e-01, 1.52313769e-01,
          1.05808623e-01, 1.62445605e-01, 5.13401449e-01, 3.08804903e-02,
          3.21685195e-01, 1.97258174e-01, 5.13401449e-01, 3.78937453e-01,
          3.75150114e-01, 2.83933699e-01, 3.78937453e-01, 3.78937453e-01,
          3.78937453e-01, 2.20754042e-01, 9.03217643e-02, 3.78937453e-01,
          3.63529444e-01, 3.28395516e-01, 3.63529444e-01, 2.28312820e-01,
          2.08508700e-01, 3.63529444e-01, 3.63529444e-01, 3.63529444e-01,
          3.63529444e-01, 5.13401449e-01, 1.52313769e-01, 1.05808623e-01,
          1.62445605e-01, 5.13401449e-01, 3.08804903e-02, 3.21685195e-01,
          1.97258174e-01, 5.13401449e-01, 2.80057281e-01, 1.03589699e-01,
          3.45972598e-01, 4.32265759e-01, 4.32265759e-01, 1.68576390e-01,
          2.76702166e-01, 3.48251224e-01, 4.32265759e-01, 4.62364256e-02,
          2.78118029e-02, 8.94079804e-02, 3.74351859e-01, 4.51117277e-01,
          4.51117277e-01, 4.51117277e-01, 4.51117277e-01, 1.74419910e-01,
          6.94319233e-02, 2.56009307e-02, 4.21243273e-02, 1.92520127e-01,
          6.28363311e-01, 3.25353950e-01, 6.28363311e-01, 2.24487066e-01,
          5.90001382e-02, 2.79430032e-01, 3.60890150e-01, 3.60890150e-01,
          3.60890150e-01, 3.60890150e-01, 1.33603737e-01, 3.47997159e-01,
          3.57984453e-01, 3.60890150e-01, 2.23963588e-01, 3.50201875e-01,
          3.97034585e-01, 2.69916981e-01, 3.97034585e-01, 3.01349759e-01,
          3.97034585e-01, 3.97034585e-01, 1.70352206e-01, 8.64367709e-02,
          1.13448948e-01, 2.22941026e-01, 2.01556254e-02, 7.68075064e-02,
          1.74100980e-01, 6.62850499e-01, 6.62850499e-01, 8.93284306e-02 ]
      - [ 4.14897352e-01, 4.14897352e-01, 4.14897352e-01, 7.34015852e-02,
          3.93789820e-02, 1.14704100e-02, 4.14897352e-01, 4.14897352e-01,
          3.57891172e-01, 2.89033592e-01, 4.42849159e-01, 4.42849159e-01,
          4.57937717e-02, 3.04861575e-01, 6.85736388e-02, 4.42849159e-01,
          4.42849159e-01, 1.66836724e-01, 4.80523586e-01, 7.48947710e-02,
          1.37273565e-01, 1.93475131e-02, 1.77950561e-01, 1.22861519e-01,
          4.80523586e-01, 4.80523586e-01, 4.80523586e-01, 4.23963398e-01,
          4.23963398e-01, 4.23963398e-01, 1.88554153e-02, 4.23963398e-01,
          2.74403006e-01, 1.09201364e-01, 1.36833698e-01, 4.12897289e-01,
          4.51016724e-01, 3.26531947e-01, 4.51016724e-01, 5.18865287e-02,
          4.51016724e-01, 4.51016724e-01, 1.52746543e-01, 1.04589880e-01,
          1.95562810e-01, 4.01624292e-01, 4.01624292e-01, 4.01624292e-01,
          5.88485189e-02, 4.01624292e-01, 4.01624292e-01, 1.39521584e-01,
          2.49496713e-01, 3.22954178e-01, 2.71303002e-02, 6.85629964e-01,
          6.85629964e-01, 2.04428844e-03, 1.13407537e-01, 5.78310527e-02,
          1.81269899e-01, 5.61321825e-02, 4.81192488e-03, 8.20538521e-01,
          3.55566502e-01, 0., 0., 2.50798255e-01, 5.87859303e-02, 0., 0.,
          3.54605258e-01, 5.20639241e-01, 5.20639241e-01, 5.20639241e-01,
          8.45901389e-03, 4.95623518e-03, 8.67298692e-02, 2.26239443e-01,
          4.68943492e-02, 3.47279727e-01, 2.71303002e-02, 6.85629964e-01,
          6.85629964e-01, 2.04428844e-03, 1.13407537e-01, 5.78310527e-02,
          1.81269899e-01, 5.61321825e-02, 4.81192488e-03, 8.20538521e-01,
          3.55566502e-01, 0., 0., 2.50798255e-01, 5.87859303e-02, 0., 0.,
          3.54605258e-01, 5.20639241e-01, 5.20639241e-01, 5.20639241e-01,
          8.45901389e-03, 4.95623518e-03, 8.67298692e-02, 2.26239443e-01,
          4.68943492e-02, 3.47279727e-01, 5.69316328e-01, 5.69316328e-01,
          5.69316328e-01, 6.52209818e-02, 8.75445157e-02, 6.38259351e-02,
          6.89021349e-02, 2.29673795e-02, 2.61787418e-02, 5.34646928e-01,
          5.34646928e-01, 3.63246761e-02, 1.12112369e-02, 3.68658334e-01,
          5.29536724e-01, 6.84455130e-03, 0., 7.18039870e-02,
          4.65274006e-01, 2.59341568e-01, 2.00743839e-01, 4.97199111e-02,
          4.65274006e-01, 4.65274006e-01, 2.93599159e-01, 7.93542862e-02,
          3.78665090e-01, 3.45365644e-01, 5.09183109e-01, 5.09183109e-01,
          3.03210288e-01, 5.09183109e-01, 7.47822523e-02, 1.65796857e-02,
          5.52656176e-03, 8.19917710e-04, 5.57255447e-01, 2.24879980e-01,
          8.35772604e-02, 6.93321899e-02, 5.57255447e-01, 5.57255447e-01,
          6.16586907e-03, 2.35558386e-04, 2.08133832e-02, 4.84435529e-01,
          2.18121573e-01, 2.58634806e-01, 3.06642819e-02, 4.84435529e-01,
          4.84435529e-01, 3.12978238e-01, 1.05278946e-01, 2.58224428e-01,
          4.80523586e-01, 7.48947710e-02, 1.37273565e-01, 1.93475131e-02,
          1.77950561e-01, 1.22861519e-01, 4.80523586e-01, 4.80523586e-01,
          4.80523586e-01, 6.82527423e-01, 5.10146730e-02, 1.05365580e-02,
          6.35396503e-03, 1.47285849e-01, 1.73129484e-01, 5.70694432e-02,
          6.18174002e-02, 6.82527423e-01, 5.90344608e-01, 2.42642849e-03,
          0., 0., 4.56661433e-01, 2.97330558e-01, 1.10158604e-02,
          4.42545675e-03, 5.90344608e-01, 4.01624292e-01, 4.01624292e-01,
          4.01624292e-01, 5.88485189e-02, 4.01624292e-01, 4.01624292e-01,
          1.39521584e-01, 2.49496713e-01, 3.22954178e-01, 3.78828257e-01,
          3.78828257e-01, 3.78828257e-01, 3.09891980e-02, 1.84802428e-01,
          3.16287875e-01, 3.78828257e-01, 3.78828257e-01, 3.78828257e-01,
          4.24457461e-01, 1.48879454e-01, 0., 0., 3.92227560e-01,
          3.14794809e-01, 4.24457461e-01, 4.24457461e-01, 4.24457461e-01,
          5.20639241e-01, 5.20639241e-01, 5.20639241e-01, 8.45901389e-03,
          4.95623518e-03, 8.67298692e-02, 2.26239443e-01, 4.68943492e-02,
          3.47279727e-01, 3.85066777e-01, 3.97996306e-01, 3.97996306e-01,
          1.26545176e-01, 2.54358411e-01, 3.97996306e-01, 3.97996306e-01,
          3.07871908e-01, 1.96586832e-01, 4.32480633e-01, 4.32480633e-01,
          2.51073509e-01, 9.15896520e-02, 2.27702186e-01, 4.32480633e-01,
          4.32480633e-01, 1.48385718e-01, 3.19732308e-01, 5.20639241e-01,
          5.20639241e-01, 5.20639241e-01, 8.45901389e-03, 4.95623518e-03,
          8.67298692e-02, 2.26239443e-01, 4.68943492e-02, 3.47279727e-01,
          3.85066777e-01, 3.97996306e-01, 3.97996306e-01, 1.26545176e-01,
          2.54358411e-01, 3.97996306e-01, 3.97996306e-01, 3.07871908e-01,
          1.96586832e-01, 4.32480633e-01, 4.32480633e-01, 2.51073509e-01,
          9.15896520e-02, 2.27702186e-01, 4.32480633e-01, 4.32480633e-01,
          1.48385718e-01, 3.19732308e-01, 4.65274006e-01, 2.59341568e-01,
          2.00743839e-01, 4.97199111e-02, 4.65274006e-01, 4.65274006e-01,
          2.93599159e-01, 7.93542862e-02, 3.78665090e-01, 3.90641779e-01,
          3.90641779e-01, 3.90641779e-01, 1.65293753e-01, 3.25797230e-01,
          3.90641779e-01, 3.90641779e-01, 3.01956743e-01, 9.19174775e-02,
          4.66760129e-01, 3.65269333e-01, 1.62833139e-01, 1.11524299e-01,
          4.66760129e-01, 4.66760129e-01, 1.13698900e-01, 1.04803564e-02,
          3.95387888e-01, 4.84435529e-01, 2.18121573e-01, 2.58634806e-01,
          3.06642819e-02, 4.84435529e-01, 4.84435529e-01, 3.12978238e-01,
          1.05278946e-01, 2.58224428e-01, 3.60223323e-01, 3.60223323e-01,
          3.60223323e-01, 1.91214189e-01, 3.60223323e-01, 3.60223323e-01,
          3.60223323e-01, 2.26963162e-01, 3.60223323e-01, 4.21088099e-01,
          2.06841737e-01, 1.64882585e-01, 2.15815902e-01, 6.13457561e-01,
          4.97995824e-01, 2.26098284e-01, 1.11056253e-01, 1.10587366e-01 ]
      - [ 3.87584478e-01, 2.45656773e-01, 3.87584478e-01, 3.87584478e-01,
          1.62923202e-01, 1.13179252e-01, 3.81206751e-01, 3.87584478e-01,
