%YAML:1.0
---
opencv_ml_svm:
   format: 3
   svmType: C_SVC
   kernel:
      type: RBF
      gamma: 5.0624999999999998e-01
   C: 1.2500000000000000e+01
   term_criteria: { epsilon:1.1920928955078125e-07, iterations:1000 }
   var_count: 324
   class_count: 10
   class_labels: !!opencv-matrix
      rows: 10
      cols: 1
      dt: i
      data: [ 0, 1, 2, 4, 5, 6, 7, 8, 9, 10 ]
   sv_total: 424
   support_vectors:
      - [ 4.89945382e-01, 4.89945382e-01, 3.33058000e-01, 5.57189509e-02,
          1.91161796e-01, 9.87473726e-02, 1.17935836e-01, 3.17383409e-01,
          4.89945382e-01, 2.07811117e-01, 1.56428441e-01, 5.23311317e-01,
          2.44700626e-01, 2.84591969e-02, 1.66101940e-02, 2.11163774e-01,
          5.23311317e-01, 5.23311317e-01, 9.12557766e-02, 3.56788784e-01,
          4.25032705e-01, 4.25032705e-01, 4.25032705e-01, 3.74581188e-01,
          1.10995188e-01, 3.76662105e-01, 1.53832987e-01, 2.18712077e-01,
          4.12643105e-01, 4.12643105e-01, 4.12643105e-01, 4.12643105e-01,
          4.12643105e-01, 2.11632773e-01, 1.89902961e-01, 1.25776350e-01,
          5.14610410e-02, 2.41349950e-01, 3.06616902e-01, 3.32702041e-01,
          2.14052841e-01, 4.25912201e-01, 4.71522629e-01, 4.71522629e-01,
          2.40418106e-01, 3.68620664e-01, 2.70733207e-01, 1.99638411e-01,
          3.68620664e-01, 3.68620664e-01, 3.68620664e-01, 3.68620664e-01,
          3.42115253e-01, 2.94476599e-01, 3.81770819e-01, 3.05006087e-01,
          3.81770819e-01, 3.81770819e-01, 2.25539237e-01, 3.47885758e-01,
          2.10583404e-01, 3.22371930e-01, 3.81770819e-01, 6.18198514e-02,
          5.38686872e-01, 3.16266358e-01, 5.53226583e-02, 1.02765694e-01,
          5.38686872e-01, 5.38686872e-01, 8.04325193e-02, 1.15343975e-02,
          4.81974334e-01, 4.81974334e-01, 4.81974334e-01, 1.56847872e-02,
          9.80197936e-02, 2.25414485e-01, 4.66551781e-01, 3.29678208e-02,
          1.37351230e-01, 3.81770819e-01, 3.05006087e-01, 3.81770819e-01,
          3.81770819e-01, 2.25539237e-01, 3.47885758e-01, 2.10583404e-01,
          3.22371930e-01, 3.81770819e-01, 6.18198514e-02, 5.38686872e-01,
          3.16266358e-01, 5.53226583e-02, 1.02765694e-01, 5.38686872e-01,
          5.38686872e-01, 8.04325193e-02, 1.15343975e-02, 4.81974334e-01,
          4.81974334e-01, 4.81974334e-01, 1.56847872e-02, 9.80197936e-02,
          2.25414485e-01, 4.66551781e-01, 3.29678208e-02, 1.37351230e-01,
          3.81233394e-01, 1.02471806e-01, 3.07635993e-01, 3.81233394e-01,
          3.81233394e-01, 3.50137621e-01, 3.46152455e-01, 3.81233394e-01,
          2.59379297e-01, 3.14671338e-01, 3.91234070e-01, 3.91234070e-01,
          1.32553905e-01, 3.91234070e-01, 3.91234070e-01, 3.91234070e-01,
          1.77495912e-01, 2.87537158e-01, 1.79551765e-01, 6.46924555e-01,
          6.46924555e-01, 2.02195883e-01, 6.64289147e-02, 1.62513033e-01,
          1.76233619e-01, 1.26765922e-01, 7.37934932e-02, 4.56617266e-01,
          4.56617266e-01, 2.11374030e-01, 1.26323208e-01, 1.63733423e-01,
          1.89574331e-01, 4.56617266e-01, 1.95084691e-01, 4.56617266e-01,
          4.11989987e-01, 6.60809204e-02, 4.40678209e-01, 3.58126938e-01,
          7.83594400e-02, 7.87465572e-02, 3.13540697e-01, 4.40678209e-01,
          4.40678209e-01, 2.82181744e-02, 1.16087653e-01, 5.59752941e-01,
          5.59752941e-01, 5.87577783e-02, 4.24406230e-02, 1.82160959e-01,
          5.59752941e-01, 4.16077003e-02, 9.12557766e-02, 3.56788784e-01,
          4.25032705e-01, 4.25032705e-01, 4.25032705e-01, 3.74581188e-01,
          1.10995188e-01, 3.76662105e-01, 1.53832987e-01, 7.84025490e-02,
          4.76269454e-01, 1.68430150e-01, 7.04303980e-02, 3.36593568e-01,
          5.49412906e-01, 5.49412906e-01, 1.00775406e-01, 3.23220342e-02,
          5.00080824e-01, 5.00080824e-01, 2.93989301e-01, 8.22206214e-03,
          4.42375392e-02, 2.21334875e-01, 5.00080824e-01, 8.95580202e-02,
          3.15117031e-01, 3.68620664e-01, 2.70733207e-01, 1.99638411e-01,
          3.68620664e-01, 3.68620664e-01, 3.68620664e-01, 3.68620664e-01,
          3.42115253e-01, 2.94476599e-01, 3.75118941e-01, 2.64541447e-01,
          3.75118941e-01, 2.32949153e-01, 3.75118941e-01, 3.75118941e-01,
          1.66492507e-01, 3.75118941e-01, 3.75118941e-01, 1.31067485e-01,
          5.08260667e-01, 5.08260667e-01, 4.58841354e-01, 6.23008795e-02,
          9.65981111e-02, 7.29050264e-02, 3.97171289e-01, 2.72542059e-01,
          4.81974334e-01, 4.81974334e-01, 4.81974334e-01, 1.56847872e-02,
          9.80197936e-02, 2.25414485e-01, 4.66551781e-01, 3.29678208e-02,
          1.37351230e-01, 4.32115376e-01, 7.56650418e-02, 3.67313653e-01,
          2.02290818e-01, 1.30913168e-01, 7.56663010e-02, 3.40577304e-01,
          5.48726559e-01, 4.31593627e-01, 2.14597173e-02, 2.60943174e-02,
          5.39277971e-01, 5.39277971e-01, 2.60922074e-01, 6.37904406e-02,
          1.71661273e-01, 5.39277971e-01, 1.39260724e-01, 4.81974334e-01,
          4.81974334e-01, 4.81974334e-01, 1.56847872e-02, 9.80197936e-02,
          2.25414485e-01, 4.66551781e-01, 3.29678208e-02, 1.37351230e-01,
          4.32115376e-01, 7.56650418e-02, 3.67313653e-01, 2.02290818e-01,
          1.30913168e-01, 7.56663010e-02, 3.40577304e-01, 5.48726559e-01,
          4.31593627e-01, 2.14597173e-02, 2.60943174e-02, 5.39277971e-01,
          5.39277971e-01, 2.60922074e-01, 6.37904406e-02, 1.71661273e-01,
          5.39277971e-01, 1.39260724e-01, 1.79551765e-01, 6.46924555e-01,
          6.46924555e-01, 2.02195883e-01, 6.64289147e-02, 1.62513033e-01,
          1.76233619e-01, 1.26765922e-01, 7.37934932e-02, 1.38076767e-01,
          2.42388532e-01, 8.99681821e-02, 7.08529800e-02, 1.02427289e-01,
          4.30999756e-01, 5.42540312e-01, 5.42540312e-01, 3.44525725e-01,
          4.07049954e-01, 2.25554764e-01, 1.15794294e-01, 4.07049954e-01,
          4.07049954e-01, 2.71436274e-01, 4.07049954e-01, 4.07049954e-01,
          1.71827108e-01, 2.82181744e-02, 1.16087653e-01, 5.59752941e-01,
          5.59752941e-01, 5.87577783e-02, 4.24406230e-02, 1.82160959e-01,
          5.59752941e-01, 4.16077003e-02, 5.95300868e-02, 1.85059056e-01,
          2.00829282e-01, 9.00651738e-02, 4.42553610e-01, 5.87934196e-01,
          5.87934196e-01, 1.30951032e-01, 5.96602410e-02, 3.46606940e-01,
          4.83011097e-01, 3.45628500e-01, 2.12070928e-03, 5.34668900e-02,
          4.83011097e-01, 4.83011097e-01, 2.08402276e-01, 9.68842134e-02 ]
      - [ 5.04768312e-01, 5.04768312e-01, 1.09953307e-01, 3.94106423e-03,
          1.60974592e-01, 5.04768312e-01, 4.09330815e-01, 6.04570769e-02,
          1.46153077e-01, 5.78498125e-01, 5.78498125e-01, 1.88395940e-02,
          4.80650598e-03, 1.11105770e-01, 4.92785096e-01, 1.12170212e-01,
          1.48406504e-02, 2.37784088e-01, 4.84649330e-01, 1.92495361e-01,
          5.47689684e-02, 7.12128952e-02, 4.84649330e-01, 4.84649330e-01,
          7.40574971e-02, 7.07786903e-02, 4.84649330e-01, 3.58074039e-01,
          5.94765723e-01, 5.94765723e-01, 7.73127424e-03, 4.17132638e-02,
          2.59624839e-01, 2.91990429e-01, 6.03106841e-02, 1.58499777e-02,
          3.88738632e-01, 3.76550585e-01, 1.68241635e-01, 3.57650630e-02,
          1.79365396e-01, 4.53625768e-01, 4.53625768e-01, 4.01350141e-01,
          2.61093795e-01, 4.23738301e-01, 4.23738301e-01, 1.32969707e-01,
          1.52996302e-01, 4.23738301e-01, 4.23738301e-01, 2.94210643e-01,
          2.04670116e-01, 3.28651667e-01, 4.92975488e-02, 6.53165400e-01,
          6.53165400e-01, 2.11122930e-01, 3.04616690e-02, 5.35175391e-02,
          2.79125392e-01, 1.05170146e-01, 2.14943178e-02, 4.37376082e-01,
          7.16899037e-02, 1.07439861e-01, 3.03388163e-02, 1.46760747e-01,
          4.37376082e-01, 4.37376082e-01, 4.37376082e-01, 4.37376082e-01,
          4.85869706e-01, 7.31119290e-02, 5.97065799e-02, 7.71272928e-02,
          4.85869706e-01, 4.85869706e-01, 5.53368852e-02, 1.81517571e-01,
          4.85869706e-01, 4.92975488e-02, 6.53165400e-01, 6.53165400e-01,
          2.11122930e-01, 3.04616690e-02, 5.35175391e-02, 2.79125392e-01,
          1.05170146e-01, 2.14943178e-02, 4.37376082e-01, 7.16899037e-02,
          1.07439861e-01, 3.03388163e-02, 1.46760747e-01, 4.37376082e-01,
          4.37376082e-01, 4.37376082e-01, 4.37376082e-01, 4.85869706e-01,
          7.31119290e-02, 5.97065799e-02, 7.71272928e-02, 4.85869706e-01,
          4.85869706e-01, 5.53368852e-02, 1.81517571e-01, 4.85869706e-01,
          4.36045267e-02, 1.13028109e-01, 6.19101644e-01, 6.19101644e-01,
          3.05583365e-02, 2.14796662e-02, 1.18883513e-01, 4.33265448e-01,
          9.65447053e-02, 8.05331022e-02, 2.55779415e-01, 3.74868989e-01,
          4.09869552e-01, 9.74429920e-02, 4.47766036e-01, 4.47766036e-01,
          4.47766036e-01, 6.41915128e-02, 3.88014883e-01, 3.88014883e-01,
          3.39045733e-01, 2.33085468e-01, 3.88014883e-01, 3.88014883e-01,
          2.79328078e-01, 1.32866830e-01, 3.59085977e-01, 9.22548100e-02,
          7.80966207e-02, 4.86162663e-01, 4.86162663e-01, 1.41104221e-01,
          8.47457200e-02, 8.95849466e-02, 4.86162663e-01, 4.86162663e-01,
          1.06486883e-02, 3.86132300e-02, 1.97704583e-01, 4.97751296e-01,
          3.91075820e-01, 3.74171920e-02, 3.03654522e-01, 4.97751296e-01,
          4.60736454e-01, 2.18623221e-01, 1.26534805e-01, 2.93756545e-01,
          4.57881063e-01, 4.57881063e-01, 4.69675474e-02, 6.70840442e-02,
          4.57881063e-01, 4.57881063e-01, 4.84649330e-01, 1.92495361e-01,
          5.47689684e-02, 7.12128952e-02, 4.84649330e-01, 4.84649330e-01,
          7.40574971e-02, 7.07786903e-02, 4.84649330e-01, 3.05241466e-01,
          1.23869665e-01, 3.88100415e-01, 3.88100415e-01, 3.88100415e-01,
          3.65109593e-01, 3.45252901e-02, 3.88100415e-01, 3.88100415e-01,
          7.07224682e-02, 3.92818861e-02, 2.61538833e-01, 5.43846071e-01,
          1.79586455e-01, 7.56650977e-03, 2.73744599e-03, 5.43846071e-01,
          5.43846071e-01, 4.23738301e-01, 4.23738301e-01, 1.32969707e-01,
          1.52996302e-01, 4.23738301e-01, 4.23738301e-01, 2.94210643e-01,
          2.04670116e-01, 3.28651667e-01, 3.62294644e-01, 2.51424998e-01,
          3.62294644e-01, 3.62294644e-01, 3.62294644e-01, 3.44827741e-01,
          3.27694833e-01, 3.62294644e-01, 2.24919602e-01, 2.34150574e-01,
          1.99184924e-01, 4.50439066e-01, 4.14579540e-01, 3.32004428e-01,
          5.09475730e-02, 8.72621015e-02, 4.50439066e-01, 4.50439066e-01,
          4.85869706e-01, 7.31119290e-02, 5.97065799e-02, 7.71272928e-02,
          4.85869706e-01, 4.85869706e-01, 5.53368852e-02, 1.81517571e-01,
          4.85869706e-01, 3.95131022e-01, 3.95131022e-01, 2.04895198e-01,
          3.95131022e-01, 3.95131022e-01, 1.27098486e-01, 3.38427387e-02,
          3.95131022e-01, 3.95131022e-01, 4.09711212e-01, 4.09711212e-01,
          4.09711212e-01, 4.09711212e-01, 4.09711212e-01, 7.76915103e-02,
          1.61136746e-01, 2.90325195e-01, 2.00750992e-01, 4.85869706e-01,
          7.31119290e-02, 5.97065799e-02, 7.71272928e-02, 4.85869706e-01,
          4.85869706e-01, 5.53368852e-02, 1.81517571e-01, 4.85869706e-01,
          3.95131022e-01, 3.95131022e-01, 2.04895198e-01, 3.95131022e-01,
          3.95131022e-01, 1.27098486e-01, 3.38427387e-02, 3.95131022e-01,
          3.95131022e-01, 4.09711212e-01, 4.09711212e-01, 4.09711212e-01,
          4.09711212e-01, 4.09711212e-01, 7.76915103e-02, 1.61136746e-01,
          2.90325195e-01, 2.00750992e-01, 3.88014883e-01, 3.88014883e-01,
          3.39045733e-01, 2.33085468e-01, 3.88014883e-01, 3.88014883e-01,
          2.79328078e-01, 1.32866830e-01, 3.59085977e-01, 4.24424320e-01,
          4.83726524e-02, 1.64528981e-01, 4.24424320e-01, 4.24424320e-01,
          2.09648386e-01, 1.47370785e-01, 4.24424320e-01, 4.24424320e-01,
          3.36664841e-02, 3.59806001e-01, 4.69380826e-01, 4.69380826e-01,
          1.28126681e-01, 2.35661089e-01, 2.90576935e-01, 4.69380826e-01,
          2.17658818e-01, 2.18623221e-01, 1.26534805e-01, 2.93756545e-01,
          4.57881063e-01, 4.57881063e-01, 4.69675474e-02, 6.70840442e-02,
          4.57881063e-01, 4.57881063e-01, 4.38116372e-01, 4.11095172e-01,
          2.96874084e-02, 1.30433619e-01, 4.38116372e-01, 4.38116372e-01,
          1.52684748e-01, 1.32791996e-01, 4.38116372e-01, 4.61464942e-01,
          4.61464942e-01, 4.44395393e-01, 9.34963748e-02, 3.19492489e-01,
          4.61464942e-01, 2.00233191e-01, 8.90336931e-02, 1.47069832e-02 ]
      - [ 3.71379375e-01, 3.71379375e-01, 3.71379375e-01, 3.62391651e-01,
          3.35557729e-01, 3.71379375e-01, 2.47621402e-01, 3.78587283e-02,
          3.71379375e-01, 1.77112430e-01, 5.04801236e-02, 8.53640810e-02,
          4.06972855e-01, 4.06972855e-01, 3.55803102e-01, 4.06972855e-01,
          4.06972855e-01, 4.06972855e-01, 3.88917252e-02, 1.46857835e-02,
          4.04174253e-02, 2.38801643e-01, 1.44746259e-01, 1.79702058e-01,
          6.29385054e-01, 6.29385054e-01, 2.96366006e-01, 1.22382143e-03,
          4.91284460e-01, 4.91284460e-01, 1.52320668e-01, 1.89668238e-01,
          4.47941214e-01, 4.91284460e-01, 1.05743296e-01, 1.34731282e-03,
          1.38785411e-02, 2.09477879e-02, 1.13514863e-01, 5.23728073e-01,
          3.16932976e-01, 2.91357815e-01, 5.23728073e-01, 4.95381057e-01,
          4.39568311e-02, 1.48908887e-02, 4.10958789e-02, 1.12239070e-01,
          4.77964491e-01, 4.09132004e-01, 4.77964491e-01, 4.77964491e-01,
          3.38644147e-01, 1.15319982e-01, 1.48462120e-03, 5.95216513e-01,
          5.95216513e-01, 5.37472926e-02, 2.83186771e-02, 1.50728496e-02,
          4.51704115e-01, 2.77703702e-01, 2.03744583e-02, 4.96814072e-01,
          1.81563646e-02, 7.53509477e-02, 3.98738533e-02, 9.07367561e-03,
          7.84207880e-03, 4.96814072e-01, 4.96814072e-01, 4.96814072e-01,
          6.85552955e-01, 9.44761280e-03, 3.09371501e-02, 3.28563042e-02,
          4.04663123e-02, 2.83760224e-02, 5.45787551e-02, 2.13642344e-01,
          6.85552955e-01, 1.48462120e-03, 5.95216513e-01, 5.95216513e-01,
          5.37472926e-02, 2.83186771e-02, 1.50728496e-02, 4.51704115e-01,
          2.77703702e-01, 2.03744583e-02, 4.96814072e-01, 1.81563646e-02,
          7.53509477e-02, 3.98738533e-02, 9.07367561e-03, 7.84207880e-03,
          4.96814072e-01, 4.96814072e-01, 4.96814072e-01, 6.85552955e-01,
          9.44761280e-03, 3.09371501e-02, 3.28563042e-02, 4.04663123e-02,
          2.83760224e-02, 5.45787551e-02, 2.13642344e-01, 6.85552955e-01,
          1.33127207e-02, 2.55445659e-01, 5.54268122e-01, 5.54268122e-01,
          5.54268122e-01, 6.44497946e-03, 2.36554798e-02, 7.30793625e-02,
          3.81326266e-02, 3.93212229e-01, 5.31271845e-03, 2.56701764e-02,
          2.03466088e-01, 6.37454987e-01, 2.97933906e-01, 4.83257845e-02,
          1.70903027e-01, 5.19882023e-01, 5.67159295e-01, 1.95969813e-04,
          9.00742598e-05, 2.44120583e-02, 5.84626615e-01, 3.42030138e-01,
          4.99495864e-03, 1.62036496e-03, 4.61623520e-01, 3.46079260e-01,
          1.91674456e-01, 1.22189030e-01, 4.50753599e-01, 4.50753599e-01,
          6.99694008e-02, 8.02899152e-02, 4.50753599e-01, 4.50753599e-01,
          3.49064529e-01, 1.88125242e-02, 1.13761462e-02, 1.20649435e-01,
          6.48313403e-01, 3.41404766e-01, 4.91630584e-02, 1.97125673e-01,
          5.27729869e-01, 5.66827297e-01, 2.85317618e-02, 8.32445361e-03,
          4.49903198e-02, 5.66827297e-01, 3.24847937e-01, 4.73071635e-02,
          6.49753287e-02, 4.86682653e-01, 3.88917252e-02, 1.46857835e-02,
          4.04174253e-02, 2.38801643e-01, 1.44746259e-01, 1.79702058e-01,
          6.29385054e-01, 6.29385054e-01, 2.96366006e-01, 1.74834356e-01,
          9.16267633e-02, 1.11048549e-01, 1.53369412e-01, 5.15293419e-01,
          5.15293419e-01, 5.15293419e-01, 2.54686147e-01, 2.42054403e-01,
          9.12881270e-02, 8.75670314e-02, 4.12985176e-01, 3.31160635e-01,
          4.09436494e-01, 1.42618820e-01, 4.12985176e-01, 4.12985176e-01,
          4.12985176e-01, 1.48908887e-02, 4.10958789e-02, 1.12239070e-01,
          4.77964491e-01, 4.09132004e-01, 4.77964491e-01, 4.77964491e-01,
          3.38644147e-01, 1.15319982e-01, 4.73924309e-01, 3.32213342e-01,
          4.73924309e-01, 1.92957699e-01, 3.80221933e-01, 9.98279899e-02,
          9.67681855e-02, 9.97843742e-02, 4.73924309e-01, 5.24260461e-01,
          1.84973046e-01, 3.75413969e-02, 9.39362198e-02, 3.55766714e-01,
          3.13816458e-01, 1.91433564e-01, 3.72720122e-01, 5.24260461e-01,
          6.85552955e-01, 9.44761280e-03, 3.09371501e-02, 3.28563042e-02,
          4.04663123e-02, 2.83760224e-02, 5.45787551e-02, 2.13642344e-01,
          6.85552955e-01, 6.98931515e-01, 8.58549215e-03, 1.56858824e-02,
          2.31976192e-02, 1.21293008e-01, 2.54100887e-03, 6.80672238e-04,
          2.08735876e-02, 6.98931515e-01, 5.96277475e-01, 9.82048083e-03,
          5.39671921e-04, 2.24379245e-02, 1.35480091e-01, 4.03583944e-02,
          2.63737708e-01, 4.39102620e-01, 5.96277475e-01, 6.85552955e-01,
          9.44761280e-03, 3.09371501e-02, 3.28563042e-02, 4.04663123e-02,
          2.83760224e-02, 5.45787551e-02, 2.13642344e-01, 6.85552955e-01,
          6.98931515e-01, 8.58549215e-03, 1.56858824e-02, 2.31976192e-02,
          1.21293008e-01, 2.54100887e-03, 6.80672238e-04, 2.08735876e-02,
          6.98931515e-01, 5.96277475e-01, 9.82048083e-03, 5.39671921e-04,
          2.24379245e-02, 1.35480091e-01, 4.03583944e-02, 2.63737708e-01,
          4.39102620e-01, 5.96277475e-01, 5.67159295e-01, 1.95969813e-04,
          9.00742598e-05, 2.44120583e-02, 5.84626615e-01, 3.42030138e-01,
          4.99495864e-03, 1.62036496e-03, 4.61623520e-01, 4.87967968e-01,
          9.83102364e-04, 5.56616287e-04, 2.84514613e-02, 6.64082468e-01,
          3.01664650e-01, 1.81147293e-03, 1.47608900e-03, 4.71629262e-01,
          3.59154910e-01, 2.24475116e-01, 2.72256602e-02, 1.32955639e-02,
          4.77286547e-01, 4.77286547e-01, 4.77286547e-01, 1.69428259e-01,
          3.20656002e-01, 5.66827297e-01, 2.85317618e-02, 8.32445361e-03,
          4.49903198e-02, 5.66827297e-01, 3.24847937e-01, 4.73071635e-02,
          6.49753287e-02, 4.86682653e-01, 5.83684146e-01, 4.29078788e-01,
          9.09749325e-03, 6.69244900e-02, 5.83684146e-01, 2.73274809e-01,
          8.18295404e-02, 6.23493791e-02, 1.97140574e-01, 4.87427294e-01,
          4.87427294e-01, 9.81500074e-02, 2.06674654e-02, 4.87427294e-01,
          4.85071391e-01, 1.72815889e-01, 4.84055765e-02, 6.93711042e-02 ]
      - [ 6.45817041e-01, 1.40974656e-01, 1.51236966e-01, 7.03407871e-03,
          1.31009892e-01, 0., 8.68596211e-02, 3.03131849e-01,
          6.45817041e-01, 7.04614520e-01, 8.77147948e-04, 1.55237946e-03,
          0., 0., 0., 0., 0., 7.04614520e-01, 6.53040409e-01,
          3.44997734e-01, 1.14460006e-01, 1.43106859e-02, 8.58841762e-02,
          0., 2.35118773e-02, 1.72717627e-02, 6.53040409e-01,
          6.87762082e-01, 6.87762082e-01, 1.60258636e-01, 0.,
          2.15102662e-03, 1.86845921e-02, 1.47322845e-02, 0.,
          1.44385859e-01, 5.10665655e-01, 5.10665655e-01, 1.56444788e-01,
          1.15746610e-01, 3.62462670e-01, 5.10665655e-01, 1.72315016e-01,
          3.86093892e-02, 1.10123172e-01, 4.34621543e-01, 4.34621543e-01,
          3.37985218e-01, 3.51361334e-01, 4.34621543e-01, 4.34621543e-01,
          1.34025160e-02, 1.35231833e-03, 4.69554663e-02, 3.58855337e-01,
          3.58855337e-01, 1.34147614e-01, 3.58855337e-01, 3.58855337e-01,
          3.58855337e-01, 3.58855337e-01, 3.58855337e-01, 2.77451247e-01,
          4.00455207e-01, 2.25587875e-01, 8.63495991e-02, 2.54591703e-01,
          4.00455207e-01, 4.00455207e-01, 4.00455207e-01, 2.66485721e-01,
          4.00455207e-01, 4.32535946e-01, 1.80662602e-01, 2.47439623e-01,
          3.89588714e-01, 4.32535946e-01, 4.32535946e-01, 3.67673784e-02,
          1.82575621e-02, 4.32535946e-01, 3.58855337e-01, 3.58855337e-01,
          1.34147614e-01, 3.58855337e-01, 3.58855337e-01, 3.58855337e-01,
          3.58855337e-01, 3.58855337e-01, 2.77451247e-01, 4.00455207e-01,
          2.25587875e-01, 8.63495991e-02, 2.54591703e-01, 4.00455207e-01,
          4.00455207e-01, 4.00455207e-01, 2.66485721e-01, 4.00455207e-01,
          4.32535946e-01, 1.80662602e-01, 2.47439623e-01, 3.89588714e-01,
          4.32535946e-01, 4.32535946e-01, 3.67673784e-02, 1.82575621e-02,
          4.32535946e-01, 3.85985523e-01, 3.19021106e-01, 1.07074909e-01,
          3.85985523e-01, 3.85985523e-01, 1.82737961e-01, 3.23399127e-01,
          3.85985523e-01, 3.85985523e-01, 4.25692648e-01, 2.18506217e-01,
          3.22304815e-02, 4.25692648e-01, 4.25692648e-01, 1.63413212e-01,
          1.19116813e-01, 4.25692648e-01, 4.25692648e-01, 4.20148462e-01,
          2.60268241e-01, 4.20148462e-01, 4.20148462e-01, 2.07535028e-01,
          4.06906269e-02, 2.67023388e-02, 4.20148462e-01, 4.20148462e-01,
          2.12609135e-02, 0., 2.39516888e-02, 7.04048097e-01,
          7.04048097e-01, 9.55534074e-03, 5.94907021e-03, 0.,
          2.12609135e-02, 0., 0., 5.11725508e-02, 6.41708732e-01,
          6.41708732e-01, 1.04116216e-01, 4.03612629e-02, 3.20911020e-01,
          2.27906689e-01, 1.25872046e-01, 1.39810771e-01, 5.16577661e-01,
          5.16577661e-01, 5.16577661e-01, 5.73038831e-02, 1.73316877e-02,
          2.15839058e-01, 3.29730123e-01, 6.53040409e-01, 3.44997734e-01,
          1.14460006e-01, 1.43106859e-02, 8.58841762e-02, 0.,
          2.35118773e-02, 1.72717627e-02, 6.53040409e-01, 4.61358994e-01,
          3.36083502e-01, 9.42108780e-02, 3.56721580e-02, 1.73005328e-01,
          2.76517242e-01, 4.23112869e-01, 4.01459754e-01, 4.61358994e-01,
          4.34906930e-01, 4.34906930e-01, 1.22285917e-01, 3.02766692e-02,
          4.34906930e-01, 4.34906930e-01, 3.06186676e-01, 1.32852167e-01,
          3.34378630e-01, 4.34621543e-01, 4.34621543e-01, 3.37985218e-01,
          3.51361334e-01, 4.34621543e-01, 4.34621543e-01, 1.34025160e-02,
          1.35231833e-03, 4.69554663e-02, 4.23528880e-01, 2.79168993e-01,
          1.45807654e-01, 1.53757289e-01, 4.23528880e-01, 4.23528880e-01,
          4.23528880e-01, 2.80497670e-01, 2.77032375e-01, 4.03649062e-01,
          2.92433798e-01, 3.70200574e-01, 2.39210680e-01, 4.03649062e-01,
          4.03649062e-01, 4.03649062e-01, 1.12801544e-01, 2.27432370e-01,
          4.32535946e-01, 1.80662602e-01, 2.47439623e-01, 3.89588714e-01,
          4.32535946e-01, 4.32535946e-01, 3.67673784e-02, 1.82575621e-02,
          4.32535946e-01, 3.97650808e-01, 2.42021888e-01, 3.59456271e-01,
          3.97650808e-01, 3.97650808e-01, 3.97650808e-01, 1.32446408e-01,
          8.44028592e-03, 3.97650808e-01, 3.91908258e-01, 2.87098259e-01,
          3.35667491e-01, 3.91908258e-01, 3.91908258e-01, 3.57676804e-01,
          2.33820975e-01, 6.33506328e-02, 3.91908258e-01, 4.32535946e-01,
          1.80662602e-01, 2.47439623e-01, 3.89588714e-01, 4.32535946e-01,
          4.32535946e-01, 3.67673784e-02, 1.82575621e-02, 4.32535946e-01,
          3.97650808e-01, 2.42021888e-01, 3.59456271e-01, 3.97650808e-01,
          3.97650808e-01, 3.97650808e-01, 1.32446408e-01, 8.44028592e-03,
          3.97650808e-01, 3.91908258e-01, 2.87098259e-01, 3.35667491e-01,
          3.91908258e-01, 3.91908258e-01, 3.57676804e-01, 2.33820975e-01,
          6.33506328e-02, 3.91908258e-01, 4.20148462e-01, 2.60268241e-01,
          4.20148462e-01, 4.20148462e-01, 2.07535028e-01, 4.06906269e-02,
          2.67023388e-02, 4.20148462e-01, 4.20148462e-01, 5.50347209e-01,
          7.65013769e-02, 2.37282693e-01, 3.57719958e-01, 2.17265084e-01,
          1.39871180e-01, 2.68773586e-01, 2.44158909e-01, 5.50347209e-01,
          4.44004685e-01, 2.17983369e-02, 1.20763898e-01, 4.44004685e-01,
          4.44004685e-01, 2.11597383e-01, 1.51363879e-01, 3.52506191e-01,
          4.44004685e-01, 1.25872046e-01, 1.39810771e-01, 5.16577661e-01,
          5.16577661e-01, 5.16577661e-01, 5.73038831e-02, 1.73316877e-02,
          2.15839058e-01, 3.29730123e-01, 1.24922981e-02, 1.51221892e-02,
          5.79779856e-02, 4.55181658e-01, 4.55181658e-01, 4.55181658e-01,
          4.55181658e-01, 3.14913243e-01, 2.52538204e-01, 1.47419989e-01,
          3.91187742e-02, 7.63660446e-02, 4.42826986e-01, 4.42826986e-01,
          2.32740685e-01, 3.65106970e-01, 4.36719000e-01, 4.42826986e-01 ]
      - [ 5.16362369e-01, 5.16362369e-01, 1.39985636e-01, 2.92119738e-02,
          1.23027712e-01, 5.16362369e-01, 3.92705321e-01, 5.86074106e-02,
          4.14178111e-02, 2.45167911e-01, 4.79977578e-01, 4.79977578e-01,
          7.48424605e-02, 4.79977578e-01, 4.79977578e-01, 8.52834731e-02,
          2.59150770e-02, 6.21589599e-03, 2.77311563e-01, 6.12160563e-01,
          6.12160563e-01, 2.91221831e-02, 1.16057158e-01, 7.28723481e-02,
          2.91530006e-02, 1.12474132e-02, 3.83276582e-01, 4.76513863e-01,
          4.38912600e-01, 5.92091158e-02, 6.70658275e-02, 2.99960494e-01,
          4.84368056e-01, 4.84368056e-01, 4.33613844e-02, 7.97968656e-02,
          3.81667651e-02, 7.01935530e-01, 7.01935530e-01, 6.70962185e-02,
          9.51083656e-03, 3.28105502e-02, 1.63448527e-02, 5.58870286e-03,
          1.19171366e-02, 5.21629304e-03, 6.76676095e-01, 6.76676095e-01,
          7.88984355e-03, 3.39322351e-03, 5.70930587e-03, 2.69499153e-01,
          6.85227811e-02, 2.19850708e-03, 1.88398898e-01, 2.03433961e-01,
          1.84994802e-01, 1.28530324e-01, 1.88730001e-01, 3.28927457e-01,
          5.95776260e-01, 5.95776260e-01, 1.12772323e-01, 7.69483903e-03,
          7.03586280e-01, 7.03586280e-01, 5.05965725e-02, 1.27263507e-02,
          7.82502291e-04, 1.03713134e-02, 2.96540884e-03, 3.33395647e-03,
          2.52000964e-03, 5.71536422e-01, 5.71536422e-01, 3.30814831e-02,
          2.70421710e-02, 6.21358752e-02, 5.71536422e-01, 9.29429829e-02,
          2.08175217e-04, 1.88398898e-01, 2.03433961e-01, 1.84994802e-01,
          1.28530324e-01, 1.88730001e-01, 3.28927457e-01, 5.95776260e-01,
          5.95776260e-01, 1.12772323e-01, 7.69483903e-03, 7.03586280e-01,
          7.03586280e-01, 5.05965725e-02, 1.27263507e-02, 7.82502291e-04,
          1.03713134e-02, 2.96540884e-03, 3.33395647e-03, 2.52000964e-03,
          5.71536422e-01, 5.71536422e-01, 3.30814831e-02, 2.70421710e-02,
          6.21358752e-02, 5.71536422e-01, 9.29429829e-02, 2.08175217e-04,
          2.16899231e-01, 7.87820071e-02, 1.21308833e-01, 4.43604201e-01,
          3.72888088e-01, 3.76426727e-02, 4.43604201e-01, 4.43604201e-01,
          4.43604201e-01, 3.11736092e-02, 7.04073608e-01, 7.04073608e-01,
          1.37189711e-02, 1.13060540e-02, 2.22426350e-03, 8.56001489e-03,
          2.91179237e-03, 1.25742191e-02, 3.14158313e-02, 5.50013125e-01,
          5.50013125e-01, 1.14152059e-02, 1.40388077e-02, 8.50563124e-02,
          5.50013125e-01, 2.80012459e-01, 2.88127363e-03, 7.22697228e-02,
          1.07597329e-01, 4.27481264e-01, 5.08003473e-01, 8.97070244e-02,
          2.57363152e-02, 1.11686409e-01, 5.08003473e-01, 5.08003473e-01,
          4.40613069e-02, 6.40484273e-01, 6.40484273e-01, 2.11271629e-01,
          5.66769727e-02, 7.16227060e-03, 7.23514194e-03, 2.00002745e-01,
          2.88567573e-01, 8.25072918e-03, 4.78628397e-01, 4.78628397e-01,
          1.68082133e-01, 3.39783013e-01, 2.84566671e-01, 4.78628397e-01,
          2.88275421e-01, 1.05349468e-02, 2.77311563e-01, 6.12160563e-01,
          6.12160563e-01, 2.91221831e-02, 1.16057158e-01, 7.28723481e-02,
          2.91530006e-02, 1.12474132e-02, 3.83276582e-01, 1.38200611e-01,
          2.09221747e-02, 1.13724500e-01, 2.04356924e-01, 1.08444296e-01,
          1.39430553e-01, 5.51226676e-01, 5.51226676e-01, 5.30434191e-01,
          8.87654664e-04, 2.90647568e-03, 2.81809896e-01, 4.60054785e-01,
          2.54860014e-01, 6.65083379e-02, 4.60054785e-01, 4.60054785e-01,
          4.60054785e-01, 5.21629304e-03, 6.76676095e-01, 6.76676095e-01,
          7.88984355e-03, 3.39322351e-03, 5.70930587e-03, 2.69499153e-01,
          6.85227811e-02, 2.19850708e-03, 2.35990505e-03, 4.15006094e-03,
          5.36407577e-03, 1.82008045e-03, 4.97838669e-03, 4.24430013e-01,
          7.51955390e-01, 4.96824354e-01, 1.71469653e-03, 2.32195016e-02,
          5.19944355e-02, 4.92267817e-01, 4.92267817e-01, 1.85031384e-01,
          2.90722042e-01, 4.92267817e-01, 3.69630784e-01, 9.73408744e-02,
          2.52000964e-03, 5.71536422e-01, 5.71536422e-01, 3.30814831e-02,
          2.70421710e-02, 6.21358752e-02, 5.71536422e-01, 9.29429829e-02,
          2.08175217e-04, 2.25296273e-04, 8.89156130e-04, 5.13550173e-03,
          4.85422462e-03, 1.05890464e-02, 2.60748029e-01, 7.90481031e-01,
          5.46898842e-01, 8.56824845e-05, 1.98358996e-03, 3.68197374e-02,
          3.06730270e-01, 4.45169866e-01, 3.45418751e-01, 2.10346341e-01,
          5.99175155e-01, 4.20914799e-01, 2.56552398e-02, 2.52000964e-03,
          5.71536422e-01, 5.71536422e-01, 3.30814831e-02, 2.70421710e-02,
          6.21358752e-02, 5.71536422e-01, 9.29429829e-02, 2.08175217e-04,
          2.25296273e-04, 8.89156130e-04, 5.13550173e-03, 4.85422462e-03,
          1.05890464e-02, 2.60748029e-01, 7.90481031e-01, 5.46898842e-01,
          8.56824845e-05, 1.98358996e-03, 3.68197374e-02, 3.06730270e-01,
          4.45169866e-01, 3.45418751e-01, 2.10346341e-01, 5.99175155e-01,
          4.20914799e-01, 2.56552398e-02, 3.14158313e-02, 5.50013125e-01,
          5.50013125e-01, 1.14152059e-02, 1.40388077e-02, 8.50563124e-02,
          5.50013125e-01, 2.80012459e-01, 2.88127363e-03, 1.24898786e-03,
          3.49411694e-03, 5.42448601e-03, 3.52090970e-03, 7.20896525e-03,
          2.55302846e-01, 7.48329401e-01, 6.06008887e-01, 3.12710035e-04,
          1.46184921e-01, 4.87576336e-01, 3.57594043e-01, 2.44642109e-01,
          4.14223790e-01, 3.31354797e-01, 4.87576336e-01, 1.70513466e-01,
          1.11096632e-02, 8.25072918e-03, 4.78628397e-01, 4.78628397e-01,
          1.68082133e-01, 3.39783013e-01, 2.84566671e-01, 4.78628397e-01,
          2.88275421e-01, 1.05349468e-02, 1.02115981e-01, 3.72744091e-02,
          1.54402517e-02, 8.06856435e-03, 3.11924387e-02, 4.13273931e-01,
          6.78024471e-01, 5.89897573e-01, 4.05721962e-02, 5.55034995e-01,
          5.55034995e-01, 8.65126476e-02, 2.19160225e-02, 5.23642451e-02,
          5.55034995e-01, 2.38400429e-01, 2.01984029e-02, 4.81287353e-02 ]
      - [ 5.24688840e-01, 5.24688840e-01, 1.64211735e-01, 2.16996241e-02,
          1.26467317e-01, 5.24688840e-01, 3.52767557e-01, 1.88303143e-02,
          2.51995046e-02, 1.99485376e-01, 5.33135474e-01, 5.33135474e-01,
          1.41616076e-01, 2.71686256e-01, 5.33135474e-01, 6.76725656e-02,
          1.44430790e-02, 5.93655258e-02, 4.05590504e-01, 4.05590504e-01,
          4.05590504e-01, 6.38477132e-02, 2.74676159e-02, 6.39948845e-02,
          4.05590504e-01, 4.05590504e-01, 4.05590504e-01, 3.40322226e-01,
          4.01784331e-01, 1.48597732e-01, 3.90265286e-02, 1.93758950e-01,
          5.22555292e-01, 5.22555292e-01, 2.69882977e-01, 1.93441734e-01,
          9.49512329e-03, 6.14742517e-01, 7.50465870e-01, 2.21882358e-01,
          8.71896185e-03, 9.54496115e-03, 3.82776782e-02, 1.91451591e-02,
          9.00929421e-03, 1.49446714e-03, 5.09480894e-01, 5.32280385e-01,
          1.10288404e-01, 4.31497640e-04, 1.99537762e-02, 5.32280385e-01,
          3.94570023e-01, 1.48019241e-02, 1.58456787e-01, 2.36647561e-01,
          1.69943154e-01, 2.61707753e-01, 3.85613382e-01, 1.50798753e-01,
          5.46983898e-01, 5.46983898e-01, 2.15022787e-01, 2.56943256e-02,
          7.01939464e-01, 7.01939464e-01, 2.64167301e-02, 1.37258200e-02,
          2.08952986e-02, 7.39102811e-02, 8.48949328e-03, 6.09876821e-03,
          9.18568298e-03, 6.16184056e-01, 6.16184056e-01, 1.50076859e-02,
          7.96736497e-03, 1.23677030e-02, 4.27609444e-01, 2.25927413e-01,
          7.93206599e-03, 1.58456787e-01, 2.36647561e-01, 1.69943154e-01,
          2.61707753e-01, 3.85613382e-01, 1.50798753e-01, 5.46983898e-01,
          5.46983898e-01, 2.15022787e-01, 2.56943256e-02, 7.01939464e-01,
          7.01939464e-01, 2.64167301e-02, 1.37258200e-02, 2.08952986e-02,
          7.39102811e-02, 8.48949328e-03, 6.09876821e-03, 9.18568298e-03,
          6.16184056e-01, 6.16184056e-01, 1.50076859e-02, 7.96736497e-03,
          1.23677030e-02, 4.27609444e-01, 2.25927413e-01, 7.93206599e-03,
          6.17211685e-02, 1.52469754e-01, 1.55502260e-01, 3.45292479e-01,
          2.97318459e-01, 1.69779193e-02, 4.95278567e-01, 4.95278567e-01,
          4.95278567e-01, 1.23273851e-02, 6.78025424e-01, 7.25122690e-01,
          8.36189985e-02, 9.30944644e-03, 1.16901565e-03, 2.21734910e-04,
          2.53605400e-03, 1.38379075e-03, 3.86486598e-03, 5.68099022e-01,
          7.28234529e-01, 6.09829761e-02, 7.32288556e-03, 8.37360788e-03,
          3.46760511e-01, 1.24743447e-01, 2.75422982e-03, 2.61678156e-02,
          3.78526747e-02, 4.59186882e-01, 5.08872986e-01, 6.15848973e-02,
          9.74071119e-03, 3.47126275e-02, 5.08872986e-01, 5.08872986e-01,
          7.21114352e-02, 3.87271911e-01, 5.12728512e-01, 2.23800987e-01,
          2.94685308e-02, 8.45429953e-03, 1.20511977e-03, 5.12728512e-01,
          5.12728512e-01, 2.79882867e-02, 6.18700624e-01, 6.49262369e-01,
          2.18078747e-01, 3.34693134e-01, 4.10748087e-02, 1.51340201e-01,
          4.78226505e-02, 4.41210046e-02, 4.05590504e-01, 4.05590504e-01,
          4.05590504e-01, 6.38477132e-02, 2.74676159e-02, 6.39948845e-02,
          4.05590504e-01, 4.05590504e-01, 4.05590504e-01, 9.56376418e-02,
          2.52973866e-02, 6.26208857e-02, 3.99158448e-01, 2.70983964e-01,
          2.93343123e-02, 5.97025096e-01, 5.97025096e-01, 1.83936760e-01,
          3.18632461e-02, 8.84481147e-03, 2.86071509e-01, 5.52859664e-01,
          2.79237241e-01, 4.53260075e-03, 1.03117585e-01, 5.52859664e-01,
          4.60015059e-01, 1.49446714e-03, 5.09480894e-01, 5.32280385e-01,
          1.10288404e-01, 4.31497640e-04, 1.99537762e-02, 5.32280385e-01,
          3.94570023e-01, 1.48019241e-02, 1.36790844e-03, 4.05062130e-03,
          9.48307943e-03, 3.54498927e-03, 2.03006389e-03, 1.61690277e-03,
          7.04568088e-01, 7.04568088e-01, 2.61464086e-03, 1.05840191e-02,
          3.87369469e-02, 4.95366812e-01, 4.95366812e-01, 7.23870769e-02,
          3.40482853e-02, 4.95366812e-01, 4.95366812e-01, 7.40780234e-02,
          9.18568298e-03, 6.16184056e-01, 6.16184056e-01, 1.50076859e-02,
          7.96736497e-03, 1.23677030e-02, 4.27609444e-01, 2.25927413e-01,
          7.93206599e-03, 4.44613025e-03, 5.81714604e-03, 1.23822279e-02,
          2.97062006e-03, 1.17045054e-02, 5.75490482e-03, 7.04475284e-01,
          7.04475284e-01, 3.29956366e-03, 4.15443927e-02, 4.30952720e-02,
          1.14123866e-01, 9.77908354e-03, 2.05837503e-01, 1.15650132e-01,
          6.77129149e-01, 6.77129149e-01, 6.15261383e-02, 9.18568298e-03,
          6.16184056e-01, 6.16184056e-01, 1.50076859e-02, 7.96736497e-03,
          1.23677030e-02, 4.27609444e-01, 2.25927413e-01, 7.93206599e-03,
          4.44613025e-03, 5.81714604e-03, 1.23822279e-02, 2.97062006e-03,
          1.17045054e-02, 5.75490482e-03, 7.04475284e-01, 7.04475284e-01,
          3.29956366e-03, 4.15443927e-02, 4.30952720e-02, 1.14123866e-01,
          9.77908354e-03, 2.05837503e-01, 1.15650132e-01, 6.77129149e-01,
          6.77129149e-01, 6.15261383e-02, 3.86486598e-03, 5.68099022e-01,
          7.28234529e-01, 6.09829761e-02, 7.32288556e-03, 8.37360788e-03,
          3.46760511e-01, 1.24743447e-01, 2.75422982e-03, 4.21386864e-03,
          7.84041453e-03, 1.88799519e-02, 1.39403238e-03, 2.95588607e-03,
          5.98165393e-03, 7.04437077e-01, 7.04437077e-01, 4.77955956e-03,
          1.12733372e-01, 3.30670416e-01, 1.65739581e-01, 1.49842594e-02,
          1.11189209e-01, 1.12386800e-01, 6.34989321e-01, 6.34989321e-01,
          1.11793421e-01, 2.79882867e-02, 6.18700624e-01, 6.49262369e-01,
          2.18078747e-01, 3.34693134e-01, 4.10748087e-02, 1.51340201e-01,
          4.78226505e-02, 4.41210046e-02, 8.53174031e-02, 4.85929400e-02,
          1.27403773e-02, 6.17690617e-03, 2.08858162e-01, 2.54440904e-01,
          6.60476148e-01, 6.60476148e-01, 5.24020568e-02, 4.49618489e-01,
          4.49618489e-01, 7.84320384e-02, 7.08919065e-03, 1.51769698e-01,
          4.49618489e-01, 4.49618489e-01, 3.87467802e-01, 8.66867751e-02 ]
      - [ 4.30641174e-01, 4.30641174e-01, 7.23666698e-02, 1.20806636e-03,
          2.06007753e-02, 4.30641174e-01, 4.30641174e-01, 4.30641174e-01,
          2.50552237e-01, 4.84397620e-01, 4.84397620e-01, 7.25393593e-02,
          7.60902185e-03, 7.20213503e-02, 1.84396163e-01, 1.09950036e-01,
          4.84397620e-01, 4.84397620e-01, 1.01675078e-01, 7.68712237e-02,
          6.71296716e-02, 1.98292974e-02, 2.56139278e-01, 1.08535454e-01,
          2.01298282e-01, 6.53612971e-01, 6.53612971e-01, 2.04084843e-01,
          4.59167778e-01, 4.59167778e-01, 1.62317812e-01, 2.88497567e-01,
          4.59167778e-01, 4.59167778e-01, 2.71485951e-02, 1.03810551e-02,
          2.34232143e-01, 3.84174526e-01, 3.84174526e-01, 3.84174526e-01,
          3.84174526e-01, 3.84174526e-01, 3.84174526e-01, 2.26233572e-01,
          6.76420182e-02, 8.28262605e-03, 8.95195175e-03, 3.68506238e-02,
          4.72664893e-01, 4.72664893e-01, 2.45275006e-01, 4.72664893e-01,
          4.72664893e-01, 1.99910462e-01, 2.68845819e-02, 4.27746028e-01,
          4.27746028e-01, 3.16224545e-01, 4.27746028e-01, 4.27746028e-01,
          3.90258938e-01, 1.01876512e-01, 2.14224942e-02, 8.43030680e-03,
          5.04838049e-01, 5.04838049e-01, 1.29149094e-01, 1.30333796e-01,
          1.54249340e-01, 5.04838049e-01, 4.14588362e-01, 3.09796669e-02,
          3.22523206e-01, 9.01092403e-03, 2.65641157e-02, 4.26939547e-01,
          3.85772198e-01, 2.43020758e-01, 4.26939547e-01, 4.26939547e-01,
          3.69074464e-01, 2.68845819e-02, 4.27746028e-01, 4.27746028e-01,
          3.16224545e-01, 4.27746028e-01, 4.27746028e-01, 3.90258938e-01,
          1.01876512e-01, 2.14224942e-02, 8.43030680e-03, 5.04838049e-01,
          5.04838049e-01, 1.29149094e-01, 1.30333796e-01, 1.54249340e-01,
          5.04838049e-01, 4.14588362e-01, 3.09796669e-02, 3.22523206e-01,
          9.01092403e-03, 2.65641157e-02, 4.26939547e-01, 3.85772198e-01,
          2.43020758e-01, 4.26939547e-01, 4.26939547e-01, 3.69074464e-01,
          1.52348056e-02, 4.12076801e-01, 5.12126863e-01, 3.29124272e-01,
          8.28928649e-02, 1.14352405e-01, 4.11390990e-01, 5.12126863e-01,
          5.27748093e-02, 7.99423754e-02, 4.15660203e-01, 4.34092909e-01,
          4.34092909e-01, 4.34092909e-01, 2.93330774e-02, 3.50965679e-01,
          3.15603554e-01, 1.65971994e-01, 4.97141123e-01, 4.20182711e-03,
          1.66631280e-03, 6.39408678e-02, 4.97141123e-01, 1.57284349e-01,
          2.99020916e-01, 3.67866874e-01, 4.97141123e-01, 1.32902879e-02,
          4.15846407e-02, 2.12296233e-01, 2.57171810e-01, 2.03802034e-01,
          1.02030523e-01, 4.85203594e-01, 5.45012176e-01, 5.45012176e-01,
          5.00329137e-02, 8.69302452e-02, 4.72507656e-01, 5.30688524e-01,
          5.30688524e-01, 1.81205124e-01, 7.65920803e-02, 1.95504740e-01,
          3.48126650e-01, 1.78612411e-01, 1.32576202e-03, 4.46334155e-03,
          1.05683379e-01, 7.97316432e-01, 5.32699168e-01, 5.77429980e-02,
          4.65322472e-02, 1.54816955e-01, 1.01675078e-01, 7.68712237e-02,
          6.71296716e-02, 1.98292974e-02, 2.56139278e-01, 1.08535454e-01,
          2.01298282e-01, 6.53612971e-01, 6.53612971e-01, 2.59089153e-02,
          4.93194535e-02, 1.28667548e-01, 4.62235212e-01, 4.62235212e-01,
          9.04278010e-02, 4.47921634e-01, 4.62235212e-01, 3.54864419e-01,
          1.54726014e-01, 5.04590645e-02, 4.38914448e-01, 4.38914448e-01,
          4.36861396e-01, 4.64525335e-02, 7.44316056e-02, 4.38914448e-01,
          4.38914448e-01, 8.28262605e-03, 8.95195175e-03, 3.68506238e-02,
          4.72664893e-01, 4.72664893e-01, 2.45275006e-01, 4.72664893e-01,
          4.72664893e-01, 1.99910462e-01, 2.00890340e-02, 4.90505658e-02,
          2.62901217e-01, 9.42645296e-02, 1.17024414e-01, 1.98514968e-01,
          6.47489071e-01, 6.47489071e-01, 1.45382613e-01, 1.27000585e-01,
          1.02766864e-01, 4.64091122e-01, 4.64091122e-01, 2.79385895e-01,
          1.28772512e-01, 4.51357275e-01, 4.46737260e-01, 1.99942067e-01,
          3.22523206e-01, 9.01092403e-03, 2.65641157e-02, 4.26939547e-01,
          3.85772198e-01, 2.43020758e-01, 4.26939547e-01, 4.26939547e-01,
          3.69074464e-01, 5.31663477e-01, 2.79352069e-02, 1.38069734e-01,
          8.15467834e-02, 1.45785019e-01, 1.72791854e-01, 5.31663477e-01,
          2.62847155e-01, 5.31663477e-01, 6.49932384e-01, 1.02506183e-01,
          7.54661020e-03, 1.63402036e-02, 4.21603471e-02, 4.02175449e-02,
          1.85042098e-01, 3.16575646e-01, 6.49932384e-01, 3.22523206e-01,
          9.01092403e-03, 2.65641157e-02, 4.26939547e-01, 3.85772198e-01,
          2.43020758e-01, 4.26939547e-01, 4.26939547e-01, 3.69074464e-01,
          5.31663477e-01, 2.79352069e-02, 1.38069734e-01, 8.15467834e-02,
          1.45785019e-01, 1.72791854e-01, 5.31663477e-01, 2.62847155e-01,
          5.31663477e-01, 6.49932384e-01, 1.02506183e-01, 7.54661020e-03,
          1.63402036e-02, 4.21603471e-02, 4.02175449e-02, 1.85042098e-01,
          3.16575646e-01, 6.49932384e-01, 4.97141123e-01, 4.20182711e-03,
          1.66631280e-03, 6.39408678e-02, 4.97141123e-01, 1.57284349e-01,
          2.99020916e-01, 3.67866874e-01, 4.97141123e-01, 5.71803987e-01,
          7.78872636e-04, 1.36390910e-03, 1.41958883e-02, 5.71803987e-01,
          1.14693247e-01, 2.68120971e-03, 6.70014462e-03, 5.71803987e-01,
          4.70520794e-01, 3.53446454e-02, 9.21799336e-03, 2.12343712e-03,
          4.70520794e-01, 2.79341966e-01, 4.04515326e-01, 2.96862811e-01,
          4.70520794e-01, 1.78612411e-01, 1.32576202e-03, 4.46334155e-03,
          1.05683379e-01, 7.97316432e-01, 5.32699168e-01, 5.77429980e-02,
          4.65322472e-02, 1.54816955e-01, 4.16687399e-01, 1.21408992e-01,
          5.89629337e-02, 7.29490593e-02, 8.46805096e-01, 2.31569707e-01,
          3.77294272e-02, 4.70431447e-02, 1.41573891e-01, 4.85557407e-01,
          4.85557407e-01, 8.42069611e-02, 2.76849270e-02, 4.85557407e-01,
          4.85557407e-01, 1.95080385e-01, 5.07590957e-02, 5.99678829e-02 ]
      - [ 4.46116269e-01, 3.28139991e-01, 1.35652333e-01, 1.43122599e-01,
          4.46116269e-01, 2.40643278e-01, 2.81168759e-01, 3.39054883e-01,
          4.46116269e-01, 4.40804094e-01, 4.40804094e-01, 1.29578531e-01,
          1.59801602e-01, 4.40804094e-01, 2.14031577e-01, 1.69717759e-01,
          3.22738379e-01, 4.37688470e-01, 5.03431737e-01, 1.87851503e-01,
          3.79471242e-01, 1.81766599e-01, 4.00206745e-01, 2.96697319e-01,
          1.44431457e-01, 8.18792880e-02, 5.03431737e-01, 3.74653429e-01,
          3.74653429e-01, 3.47666591e-01, 2.37601534e-01, 3.74653429e-01,
          3.74653429e-01, 3.74653429e-01, 2.87742615e-01, 1.85225964e-01,
          5.49242556e-01, 5.49242556e-01, 8.16277787e-02, 2.43111197e-02,
          1.57789037e-01, 3.55658859e-01, 3.97526473e-01, 2.01021761e-01,
          1.84658051e-01, 4.27060366e-01, 3.23188663e-01, 2.31175408e-01,
          1.57925487e-01, 4.27060366e-01, 4.27060366e-01, 2.13621229e-01,
          1.94278494e-01, 4.27060366e-01, 4.95194681e-02, 5.73908150e-01,
          5.73908150e-01, 4.41059381e-01, 6.94001541e-02, 1.36542737e-01,
          2.71119565e-01, 2.01644450e-01, 3.02638430e-02, 2.08539113e-01,
          3.84272635e-01, 3.84272635e-01, 3.52467030e-01, 2.61619747e-01,
          3.84272635e-01, 3.84272635e-01, 2.38082647e-01, 3.35632831e-01,
          4.60123986e-01, 2.21681416e-01, 1.33618340e-01, 1.75359845e-01,
          4.60123986e-01, 4.60123986e-01, 1.51681229e-01, 1.66712463e-01,
          4.60123986e-01, 4.95194681e-02, 5.73908150e-01, 5.73908150e-01,
          4.41059381e-01, 6.94001541e-02, 1.36542737e-01, 2.71119565e-01,
          2.01644450e-01, 3.02638430e-02, 2.08539113e-01, 3.84272635e-01,
          3.84272635e-01, 3.52467030e-01, 2.61619747e-01, 3.84272635e-01,
          3.84272635e-01, 2.38082647e-01, 3.35632831e-01, 4.60123986e-01,
          2.21681416e-01, 1.33618340e-01, 1.75359845e-01, 4.60123986e-01,
          4.60123986e-01, 1.51681229e-01, 1.66712463e-01, 4.60123986e-01,
          7.30540082e-02, 3.67551148e-01, 5.49716413e-01, 5.49716413e-01,
          1.05614334e-01, 2.18415752e-01, 2.77314693e-01, 2.94173092e-01,
          1.65536597e-01, 3.88739333e-02, 1.52567998e-01, 4.27471936e-01,
          4.27471936e-01, 3.74995917e-01, 2.76729763e-01, 4.27471936e-01,
          4.27471936e-01, 1.51034549e-01, 3.47366035e-01, 3.47366035e-01,
          3.35865468e-01, 3.47366035e-01, 3.47366035e-01, 3.47366035e-01,
          1.97690934e-01, 3.47366035e-01, 3.47366035e-01, 4.01245266e-01,
          3.56157184e-01, 4.01245266e-01, 2.42212594e-01, 3.19301412e-02,
          6.68469444e-02, 4.01245266e-01, 4.01245266e-01, 4.01245266e-01,
          9.48317498e-02, 1.15670763e-01, 4.31461334e-01, 4.31461334e-01,
          4.31461334e-01, 1.33621082e-01, 4.31461334e-01, 4.31461334e-01,
          1.57060951e-01, 3.79047006e-01, 3.71180117e-01, 3.79047006e-01,
          3.79047006e-01, 3.79047006e-01, 2.54061997e-01, 7.78849795e-02,
          2.63518035e-01, 3.79047006e-01, 5.03431737e-01, 1.87851503e-01,
          3.79471242e-01, 1.81766599e-01, 4.00206745e-01, 2.96697319e-01,
          1.44431457e-01, 8.18792880e-02, 5.03431737e-01, 4.14992720e-01,
          1.49366155e-01, 4.14992720e-01, 4.14992720e-01, 4.14992720e-01,
          2.87020952e-01, 1.48421988e-01, 8.96616951e-02, 4.14992720e-01,
          2.36498248e-02, 7.18722343e-02, 1.07444011e-01, 5.08791387e-01,
          5.08791387e-01, 6.16217330e-02, 8.38258043e-02, 4.36141312e-01,
          5.08791387e-01, 4.27060366e-01, 3.23188663e-01, 2.31175408e-01,
          1.57925487e-01, 4.27060366e-01, 4.27060366e-01, 2.13621229e-01,
          1.94278494e-01, 4.27060366e-01, 3.34918231e-01, 3.34918231e-01,
          3.34918231e-01, 3.15106243e-01, 3.34918231e-01, 3.34918231e-01,
          3.34918231e-01, 3.34918231e-01, 3.34918231e-01, 9.07842442e-02,
          2.63540536e-01, 4.67653126e-01, 4.67653126e-01, 1.40771851e-01,
          9.84733086e-03, 1.51400283e-01, 4.67653126e-01, 4.67653126e-01,
          4.60123986e-01, 2.21681416e-01, 1.33618340e-01, 1.75359845e-01,
          4.60123986e-01, 4.60123986e-01, 1.51681229e-01, 1.66712463e-01,
          4.60123986e-01, 4.03413594e-01, 2.37885013e-01, 3.22557330e-01,
          4.03413594e-01, 4.03413594e-01, 1.65653393e-01, 1.49142191e-01,
          3.66991848e-01, 4.03413594e-01, 3.73141408e-01, 3.39853764e-01,
          3.73141408e-01, 3.73141408e-01, 1.58780530e-01, 3.64589810e-01,
          3.73141408e-01, 3.73141408e-01, 1.62671432e-01, 4.60123986e-01,
          2.21681416e-01, 1.33618340e-01, 1.75359845e-01, 4.60123986e-01,
          4.60123986e-01, 1.51681229e-01, 1.66712463e-01, 4.60123986e-01,
          4.03413594e-01, 2.37885013e-01, 3.22557330e-01, 4.03413594e-01,
          4.03413594e-01, 1.65653393e-01, 1.49142191e-01, 3.66991848e-01,
          4.03413594e-01, 3.73141408e-01, 3.39853764e-01, 3.73141408e-01,
          3.73141408e-01, 1.58780530e-01, 3.64589810e-01, 3.73141408e-01,
          3.73141408e-01, 1.62671432e-01, 3.47366035e-01, 3.47366035e-01,
          3.35865468e-01, 3.47366035e-01, 3.47366035e-01, 3.47366035e-01,
          1.97690934e-01, 3.47366035e-01, 3.47366035e-01, 3.51991624e-01,
          3.51991624e-01, 2.78916776e-01, 3.51991624e-01, 3.51991624e-01,
          3.51991624e-01, 3.51991624e-01, 2.26720065e-01, 3.51991624e-01,
          4.60686445e-01, 4.60686445e-01, 3.85827482e-01, 1.30604938e-01,
          2.44388312e-01, 4.60686445e-01, 3.61868769e-01, 3.39025892e-02,
          3.09534650e-02, 3.79047006e-01, 3.71180117e-01, 3.79047006e-01,
          3.79047006e-01, 3.79047006e-01, 2.54061997e-01, 7.78849795e-02,
          2.63518035e-01, 3.79047006e-01, 4.25919741e-01, 4.25919741e-01,
          4.25919741e-01, 2.37669781e-01, 4.25919741e-01, 4.25919741e-01,
          1.17528988e-02, 3.44676189e-02, 1.75767139e-01, 5.44403732e-01,
          5.44403732e-01, 7.20981732e-02, 5.12426533e-03, 1.81901827e-01,
          5.44403732e-01, 1.75601155e-01, 9.81389955e-02, 1.63271725e-01 ]
      - [ 4.35212761e-01, 4.35212761e-01, 4.35212761e-01, 4.35212761e-01,
          4.35212761e-01, 2.18773082e-01, 2.71471739e-02, 1.04256126e-03,
          1.42384472e-03, 4.83609051e-01, 4.83609051e-01, 1.09832279e-01,
          5.65551519e-02, 4.83609051e-01, 4.83609051e-01, 7.04511702e-02,
          1.25830043e-02, 1.98180601e-01, 4.02492851e-01, 4.02492851e-01,
          4.02492851e-01, 1.51565179e-01, 1.10460848e-01, 4.02492851e-01,
          3.57363820e-01, 1.51967272e-01, 4.02492851e-01, 6.79564536e-01,
          6.79564536e-01, 2.43266553e-01, 4.50266227e-02, 3.94027606e-02,
          3.91675532e-03, 2.09989361e-02, 4.62172739e-02, 6.51852563e-02,
          5.02632141e-01, 5.02632141e-01, 3.28100063e-02, 2.51706801e-02,
          3.09993714e-01, 5.02632141e-01, 2.61112601e-01, 1.06384262e-01,
          2.44456947e-01, 4.40416157e-01, 2.55840451e-01, 1.55550569e-01,
          1.51506975e-01, 4.40416157e-01, 4.40416157e-01, 2.93193161e-01,
          1.45493075e-01, 4.40416157e-01, 3.75552475e-01, 6.15997791e-01,
          6.15997791e-01, 2.67305702e-01, 3.15676332e-02, 2.40702983e-02,
          7.72725120e-02, 9.48153511e-02, 7.69028664e-02, 3.70374113e-01,
          3.70374113e-01, 1.71435848e-01, 8.16743448e-02, 3.70374113e-01,
          3.70374113e-01, 3.70374113e-01, 3.70374113e-01, 3.70374113e-01,
          4.40260947e-01, 1.90822974e-01, 1.51971251e-01, 2.55705208e-01,
          4.40260947e-01, 4.40260947e-01, 1.79692402e-01, 2.51197666e-01,
          4.40260947e-01, 3.75552475e-01, 6.15997791e-01, 6.15997791e-01,
          2.67305702e-01, 3.15676332e-02, 2.40702983e-02, 7.72725120e-02,
          9.48153511e-02, 7.69028664e-02, 3.70374113e-01, 3.70374113e-01,
          1.71435848e-01, 8.16743448e-02, 3.70374113e-01, 3.70374113e-01,
          3.70374113e-01, 3.70374113e-01, 3.70374113e-01, 4.40260947e-01,
          1.90822974e-01, 1.51971251e-01, 2.55705208e-01, 4.40260947e-01,
          4.40260947e-01, 1.79692402e-01, 2.51197666e-01, 4.40260947e-01,
          4.39635754e-01, 1.88398197e-01, 5.23179650e-01, 5.23179650e-01,
          7.40158260e-02, 7.66557008e-02, 2.41521508e-01, 1.35605901e-01,
          3.61236274e-01, 1.11890085e-01, 2.58134484e-01, 3.77609491e-01,
          3.77609491e-01, 3.77609491e-01, 3.77609491e-01, 3.77609491e-01,
          3.77609491e-01, 2.48074472e-01, 3.81353945e-01, 3.57679963e-01,
          2.30513439e-01, 3.81353945e-01, 3.81353945e-01, 3.75027955e-01,
          1.30271509e-01, 2.75279790e-01, 3.81353945e-01, 4.59815949e-01,
          4.59815949e-01, 1.99263275e-01, 4.59815949e-01, 1.42994270e-01,
          4.73067723e-02, 1.09359898e-01, 2.74469554e-01, 4.59815949e-01,
          1.10438697e-01, 6.00789785e-02, 7.06893727e-02, 5.00860751e-01,
          4.60969985e-01, 1.55893266e-02, 9.42003354e-02, 5.00860751e-01,
          5.00860751e-01, 4.43026036e-01, 1.07238881e-01, 4.94651571e-02,
          4.43026036e-01, 4.43026036e-01, 1.27616242e-01, 3.60336378e-02,
          4.23030823e-01, 4.43026036e-01, 4.02492851e-01, 4.02492851e-01,
          4.02492851e-01, 1.51565179e-01, 1.10460848e-01, 4.02492851e-01,
          3.57363820e-01, 1.51967272e-01, 4.02492851e-01, 4.03167218e-01,
          2.01392934e-01, 4.03167218e-01, 2.40458399e-01, 7.75145218e-02,
          2.80829966e-01, 4.03167218e-01, 4.03167218e-01, 4.03167218e-01,
          2.68320084e-01, 1.49112970e-01, 4.30621058e-01, 4.30621058e-01,
          3.63272220e-01, 7.92522877e-02, 1.46569043e-01, 4.30621058e-01,
          4.30621058e-01, 4.40416157e-01, 2.55840451e-01, 1.55550569e-01,
          1.51506975e-01, 4.40416157e-01, 4.40416157e-01, 2.93193161e-01,
          1.45493075e-01, 4.40416157e-01, 3.63423169e-01, 3.07720691e-01,
          3.63423169e-01, 3.63423169e-01, 2.76082546e-01, 3.29145581e-01,
          2.61623681e-01, 3.46938223e-01, 3.63423169e-01, 2.80798435e-01,
          1.59735098e-01, 3.26394290e-01, 1.87929615e-01, 5.64142019e-02,
          2.10711937e-02, 3.02760322e-02, 6.09572291e-01, 6.09572291e-01,
          4.40260947e-01, 1.90822974e-01, 1.51971251e-01, 2.55705208e-01,
          4.40260947e-01, 4.40260947e-01, 1.79692402e-01, 2.51197666e-01,
          4.40260947e-01, 3.84875208e-01, 3.84875208e-01, 3.84875208e-01,
          3.84875208e-01, 3.84875208e-01, 1.65696174e-01, 1.55583560e-01,
          2.36050606e-01, 3.84875208e-01, 2.77183056e-01, 2.70172060e-01,
          4.11884367e-01, 3.87549162e-01, 8.46090093e-02, 1.00568876e-01,
          4.11884367e-01, 4.11884367e-01, 4.11884367e-01, 4.40260947e-01,
          1.90822974e-01, 1.51971251e-01, 2.55705208e-01, 4.40260947e-01,
          4.40260947e-01, 1.79692402e-01, 2.51197666e-01, 4.40260947e-01,
          3.84875208e-01, 3.84875208e-01, 3.84875208e-01, 3.84875208e-01,
          3.84875208e-01, 1.65696174e-01, 1.55583560e-01, 2.36050606e-01,
          3.84875208e-01, 2.77183056e-01, 2.70172060e-01, 4.11884367e-01,
          3.87549162e-01, 8.46090093e-02, 1.00568876e-01, 4.11884367e-01,
          4.11884367e-01, 4.11884367e-01, 3.81353945e-01, 3.57679963e-01,
          2.30513439e-01, 3.81353945e-01, 3.81353945e-01, 3.75027955e-01,
          1.30271509e-01, 2.75279790e-01, 3.81353945e-01, 3.32778692e-01,
          3.32778692e-01, 3.32778692e-01, 3.32778692e-01, 3.32778692e-01,
          3.32778692e-01, 3.32778692e-01, 3.32778692e-01, 3.32778692e-01,
          1.60998762e-01, 4.52929586e-01, 4.52929586e-01, 2.46852830e-01,
          2.64082074e-01, 4.52929586e-01, 4.52929586e-01, 1.29776180e-01,
          3.81688587e-02, 4.43026036e-01, 1.07238881e-01, 4.94651571e-02,
          4.43026036e-01, 4.43026036e-01, 1.27616242e-01, 3.60336378e-02,
          4.23030823e-01, 4.43026036e-01, 4.29987878e-01, 4.29987878e-01,
          1.33642092e-01, 4.43760417e-02, 4.29987878e-01, 4.29987878e-01,
          1.59694627e-01, 1.61013216e-01, 4.29987878e-01, 4.47202116e-01,
          4.47202116e-01, 4.19003725e-01, 3.94686982e-02, 4.47202116e-01,
          4.47202116e-01, 5.46685793e-02, 7.32312649e-02, 1.00501776e-01 ]
      - [ 5.50139487e-01, 5.50139487e-01, 1.80422366e-01, 1.23852566e-02,
          7.49572888e-02, 2.78116725e-02, 1.18139267e-01, 1.83006242e-01,
          5.50139487e-01, 5.32172501e-01, 2.03497514e-01, 9.88969952e-02,
          1.77697223e-02, 9.31149442e-03, 1.02470377e-02, 5.72740257e-01,
          5.72740257e-01, 5.75437956e-02, 1.04478011e-02, 1.22296482e-01,
          4.06087250e-01, 2.27779988e-02, 1.24178648e-01, 8.42690542e-02,
          6.28559351e-01, 6.28559351e-01, 2.31895223e-02, 4.23457384e-01,
          4.23457384e-01, 4.23457384e-01, 1.59443706e-01, 4.22137320e-01,
          3.10713593e-02, 1.62376046e-01, 2.18063459e-01, 4.23457384e-01,
          2.19295709e-03, 2.68483590e-02, 5.78847453e-02, 1.79496482e-02,
          3.16587422e-04, 2.46415078e-03, 7.03056574e-01, 7.03056574e-01,
          0., 7.10444758e-04, 1.45214498e-01, 4.72615719e-01,
          4.27638972e-03, 2.20446251e-02, 3.62507291e-02, 6.11392021e-01,
          6.11392021e-01, 4.83026030e-03, 3.47523719e-01, 3.63792479e-01,
          4.86798674e-01, 4.69369024e-01, 1.29403099e-01, 3.25497776e-01,
          2.00557768e-01, 1.62465841e-01, 3.08913589e-01, 1.26840046e-03,
          1.06122987e-02, 4.07429412e-02, 3.09406854e-02, 0.,
          5.52504836e-03, 7.03635871e-01, 7.03635871e-01, 2.67302711e-03,
          8.88103433e-03, 1.76522642e-01, 5.36423981e-01, 2.04671407e-03,
          8.20685085e-03, 3.68563980e-02, 5.79846919e-01, 5.79846919e-01,
          3.66796553e-02, 3.47523719e-01, 3.63792479e-01, 4.86798674e-01,
          4.69369024e-01, 1.29403099e-01, 3.25497776e-01, 2.00557768e-01,
          1.62465841e-01, 3.08913589e-01, 1.26840046e-03, 1.06122987e-02,
          4.07429412e-02, 3.09406854e-02, 0., 5.52504836e-03,
          7.03635871e-01, 7.03635871e-01, 2.67302711e-03, 8.88103433e-03,
          1.76522642e-01, 5.36423981e-01, 2.04671407e-03, 8.20685085e-03,
          3.68563980e-02, 5.79846919e-01, 5.79846919e-01, 3.66796553e-02,
          3.60650182e-01, 3.88579667e-01, 3.95759016e-01, 2.12026551e-01,
          1.16450049e-01, 1.73109531e-01, 3.95759016e-01, 3.95759016e-01,
          3.95759016e-01, 6.85678935e-03, 1.40590537e-02, 1.87809933e-02,
          8.14894866e-03, 1.09080803e-02, 8.61118641e-03, 7.04310834e-01,
          7.04310834e-01, 2.18997686e-03, 1.24110514e-02, 2.00962439e-01,
          5.61891794e-01, 5.51771896e-04, 1.12003339e-02, 6.88865483e-02,
          5.61891794e-01, 5.61891794e-01, 4.25534733e-02, 2.09310666e-01,
          4.81477678e-02, 1.68949291e-01, 2.22385764e-01, 4.29087013e-01,
          3.67590249e-01, 4.29087013e-01, 4.29087013e-01, 4.29087013e-01,
          2.04057116e-02, 2.30941307e-02, 2.31268071e-02, 3.16101573e-02,
          2.40335632e-02, 1.21316286e-02, 7.03334212e-01, 7.03334212e-01,
          2.03132294e-02, 2.27990169e-02, 2.71068066e-01, 5.51507413e-01,
          2.66950894e-02, 2.61344742e-02, 6.79924935e-02, 5.51507413e-01,
          5.51507413e-01, 4.46651168e-02, 1.04478011e-02, 1.22296482e-01,
          4.06087250e-01, 2.27779988e-02, 1.24178648e-01, 8.42690542e-02,
          6.28559351e-01, 6.28559351e-01, 2.31895223e-02, 3.64547670e-02,
          6.85452402e-01, 6.85452402e-01, 3.35732959e-02, 4.05918658e-02,
          1.13528576e-02, 4.55703624e-02, 1.09071396e-01, 1.87779978e-01,
          1.54150233e-01, 1.68137267e-01, 3.65306735e-01, 4.64731216e-04,
          0., 4.90655676e-02, 2.62695342e-01, 6.07058823e-01,
          6.07058823e-01, 7.10444758e-04, 1.45214498e-01, 4.72615719e-01,
          4.27638972e-03, 2.20446251e-02, 3.62507291e-02, 6.11392021e-01,
          6.11392021e-01, 4.83026030e-03, 2.12602608e-04, 7.02646136e-01,
          7.02646136e-01, 2.25116895e-03, 5.19302953e-03, 8.58723372e-03,
          5.94858080e-02, 4.36482392e-02, 3.63401673e-03, 0.,
          4.41003591e-01, 5.12761295e-01, 0., 0., 4.39619981e-02,
          5.12761295e-01, 5.12761295e-01, 9.84366313e-02, 8.88103433e-03,
          1.76522642e-01, 5.36423981e-01, 2.04671407e-03, 8.20685085e-03,
          3.68563980e-02, 5.79846919e-01, 5.79846919e-01, 3.66796553e-02,
          2.84499768e-03, 7.02895582e-01, 7.02895582e-01, 0.,
          1.84336654e-03, 1.52986664e-02, 6.07377253e-02, 2.88360771e-02,
          9.63560957e-03, 0., 4.88132864e-01, 5.00197947e-01,
          6.97875395e-04, 0., 7.83305615e-02, 5.00197947e-01,
          5.00197947e-01, 7.41073687e-04, 8.88103433e-03, 1.76522642e-01,
          5.36423981e-01, 2.04671407e-03, 8.20685085e-03, 3.68563980e-02,
          5.79846919e-01, 5.79846919e-01, 3.66796553e-02, 2.84499768e-03,
          7.02895582e-01, 7.02895582e-01, 0., 1.84336654e-03,
          1.52986664e-02, 6.07377253e-02, 2.88360771e-02, 9.63560957e-03,
          0., 4.88132864e-01, 5.00197947e-01, 6.97875395e-04, 0.,
          7.83305615e-02, 5.00197947e-01, 5.00197947e-01, 7.41073687e-04,
          1.24110514e-02, 2.00962439e-01, 5.61891794e-01, 5.51771896e-04,
          1.12003339e-02, 6.88865483e-02, 5.61891794e-01, 5.61891794e-01,
          4.25534733e-02, 2.29248963e-03, 7.01917708e-01, 7.01917708e-01,
          2.25911476e-03, 5.23536757e-04, 1.04315383e-02, 6.90255463e-02,
          5.17253764e-02, 7.52473529e-03, 2.64777932e-02, 4.59418416e-01,
          5.07650971e-01, 8.69408436e-03, 0., 9.50881764e-02,
          5.07650971e-01, 5.07650971e-01, 3.02949734e-02, 2.27990169e-02,
          2.71068066e-01, 5.51507413e-01, 2.66950894e-02, 2.61344742e-02,
          6.79924935e-02, 5.51507413e-01, 5.51507413e-01, 4.46651168e-02,
          1.11282049e-02, 7.02735364e-01, 7.02735364e-01, 1.18166832e-02,
          3.72375292e-03, 1.20959952e-02, 5.58655113e-02, 3.94944213e-02,
          1.43721793e-02, 2.46357061e-02, 2.80347705e-01, 4.65793759e-01,
          2.29480222e-01, 1.50184408e-01, 4.65793759e-01, 4.65793759e-01,
          4.32293028e-01, 5.62180430e-02 ]
      - [ 6.20560825e-01, 6.20560825e-01, 1.53624728e-01, 6.02175780e-02,
          1.47763789e-01, 2.96056837e-01, 1.14461020e-01, 9.06079262e-02,
          2.56107420e-01, 4.48309392e-01, 4.48309392e-01, 1.84639573e-01,
          4.31962050e-02, 8.73158053e-02, 3.65135133e-01, 3.73102248e-01,
          2.76527315e-01, 4.48309392e-01, 3.71584117e-01, 2.95827121e-01,
          2.83393085e-01, 2.27555290e-01, 2.93780774e-01, 3.71584117e-01,
          3.71584117e-01, 3.71584117e-01, 3.71584117e-01, 3.76937658e-01,
          4.04741198e-01, 4.04741198e-01, 2.18212664e-01, 1.65094212e-01,
          4.04741198e-01, 4.04741198e-01, 2.62787908e-01, 2.33843073e-01,
          1.69039413e-01, 3.87520820e-01, 3.87520820e-01, 3.87520820e-01,
          1.29744202e-01, 3.87087822e-01, 3.87520820e-01, 3.87520820e-01,
          2.23655716e-01, 3.83358806e-01, 3.83358806e-01, 3.09168547e-01,
          1.63334146e-01, 2.87709683e-01, 2.75534064e-01, 3.56868535e-01,
          3.83358806e-01, 3.83358806e-01, 1.07189797e-01, 3.44788522e-01,
          4.86352175e-01, 1.88333347e-01, 4.39878106e-02, 2.39162266e-01,
          5.13489306e-01, 5.13489306e-01, 7.75817335e-02, 4.28825706e-01,
          4.28825706e-01, 4.28825706e-01, 4.28825706e-01, 4.28825706e-01,
          1.57615080e-01, 8.09688196e-02, 1.35554925e-01, 1.62742853e-01,
          4.09065485e-01, 3.39238822e-01, 1.15699358e-01, 4.09065485e-01,
          4.09065485e-01, 4.09065485e-01, 1.05436072e-01, 1.40194550e-01,
          4.09065485e-01, 1.07189797e-01, 3.44788522e-01, 4.86352175e-01,
          1.88333347e-01, 4.39878106e-02, 2.39162266e-01, 5.13489306e-01,
          5.13489306e-01, 7.75817335e-02, 4.28825706e-01, 4.28825706e-01,
          4.28825706e-01, 4.28825706e-01, 4.28825706e-01, 1.57615080e-01,
          8.09688196e-02, 1.35554925e-01, 1.62742853e-01, 4.09065485e-01,
          3.39238822e-01, 1.15699358e-01, 4.09065485e-01, 4.09065485e-01,
          4.09065485e-01, 1.05436072e-01, 1.40194550e-01, 4.09065485e-01,
          2.02477295e-02, 2.60305256e-01, 4.13685024e-01, 2.53165159e-02,
          4.88858186e-02, 3.99101079e-02, 5.00358224e-01, 5.00358224e-01,
          5.00358224e-01, 4.44560051e-01, 4.44560051e-01, 4.44560051e-01,
          1.37419149e-01, 4.83231992e-02, 3.02372217e-01, 4.44560051e-01,
          2.76924968e-01, 1.25257120e-01, 3.89742494e-01, 1.58396989e-01,
          2.42829453e-02, 3.79592746e-01, 3.89742494e-01, 3.89742494e-01,
          3.89742494e-01, 2.58534849e-01, 3.89742494e-01, 3.04807294e-02,
          3.64365354e-02, 1.95782125e-01, 3.32833380e-01, 4.92179126e-01,
          3.83072086e-02, 9.19583216e-02, 5.43618381e-01, 5.43618381e-01,
          2.04790443e-01, 1.83333531e-01, 4.59941626e-01, 4.59941626e-01,
          1.79087475e-01, 4.56105024e-02, 1.98790684e-01, 4.59941626e-01,
          4.59941626e-01, 4.34602231e-01, 3.87927927e-02, 9.79025587e-02,
          4.34602231e-01, 4.31705683e-01, 1.28547132e-01, 1.97250053e-01,
          4.19678420e-01, 4.34602231e-01, 3.71584117e-01, 2.95827121e-01,
          2.83393085e-01, 2.27555290e-01, 2.93780774e-01, 3.71584117e-01,
          3.71584117e-01, 3.71584117e-01, 3.71584117e-01, 4.03617859e-01,
          4.03617859e-01, 4.03617859e-01, 4.03617859e-01, 1.24694727e-01,
          1.76625699e-02, 5.16024269e-02, 4.03617859e-01, 4.03617859e-01,
          3.47631097e-01, 2.19917133e-01, 2.48205557e-01, 3.77578557e-01,
          3.77578557e-01, 2.29309902e-01, 3.77578557e-01, 3.77578557e-01,
          3.77578557e-01, 3.83358806e-01, 3.83358806e-01, 3.09168547e-01,
          1.63334146e-01, 2.87709683e-01, 2.75534064e-01, 3.56868535e-01,
          3.83358806e-01, 3.83358806e-01, 3.68010074e-01, 3.68010074e-01,
          3.68010074e-01, 3.68010074e-01, 1.55158639e-01, 1.96527138e-01,
          3.47904831e-01, 3.68010074e-01, 3.68010074e-01, 4.46253456e-02,
          1.70015603e-01, 2.45099485e-01, 4.67860609e-01, 1.56060115e-01,
          4.67860609e-01, 4.67860609e-01, 4.67860609e-01, 6.65390193e-02,
          4.09065485e-01, 3.39238822e-01, 1.15699358e-01, 4.09065485e-01,
          4.09065485e-01, 4.09065485e-01, 1.05436072e-01, 1.40194550e-01,
          4.09065485e-01, 3.84971082e-01, 1.95976585e-01, 7.86485896e-02,
          3.04567188e-01, 4.03778136e-01, 4.03778136e-01, 2.41377115e-01,
          4.03778136e-01, 4.03778136e-01, 1.03507377e-01, 1.07005395e-01,
          1.20119601e-01, 4.44007441e-02, 1.76539704e-01, 4.81005520e-01,
          4.81005520e-01, 4.81005520e-01, 4.81005520e-01, 4.09065485e-01,
          3.39238822e-01, 1.15699358e-01, 4.09065485e-01, 4.09065485e-01,
          4.09065485e-01, 1.05436072e-01, 1.40194550e-01, 4.09065485e-01,
          3.84971082e-01, 1.95976585e-01, 7.86485896e-02, 3.04567188e-01,
          4.03778136e-01, 4.03778136e-01, 2.41377115e-01, 4.03778136e-01,
          4.03778136e-01, 1.03507377e-01, 1.07005395e-01, 1.20119601e-01,
          4.44007441e-02, 1.76539704e-01, 4.81005520e-01, 4.81005520e-01,
          4.81005520e-01, 4.81005520e-01, 3.89742494e-01, 1.58396989e-01,
          2.42829453e-02, 3.79592746e-01, 3.89742494e-01, 3.89742494e-01,
          3.89742494e-01, 2.58534849e-01, 3.89742494e-01, 3.28257948e-01,
          2.77292460e-01, 4.01603520e-01, 4.01603520e-01, 4.01603520e-01,
          4.89996560e-02, 5.01573645e-02, 4.01603520e-01, 4.01603520e-01,
          8.31648037e-02, 2.38464758e-01, 3.14926535e-01, 1.41938061e-01,
          3.35102193e-02, 8.03325400e-02, 5.17734230e-01, 5.17734230e-01,
          5.17734230e-01, 4.34602231e-01, 3.87927927e-02, 9.79025587e-02,
          4.34602231e-01, 4.31705683e-01, 1.28547132e-01, 1.97250053e-01,
          4.19678420e-01, 4.34602231e-01, 4.15557921e-01, 4.15557921e-01,
          2.88293749e-01, 1.45623326e-01, 4.15557921e-01, 4.15557921e-01,
          1.63626656e-01, 3.62451524e-02, 4.15557921e-01, 4.52160209e-01,
          4.52160209e-01, 1.82943657e-01, 4.60581593e-02, 9.83905494e-02,
          4.52160209e-01, 4.52160209e-01, 3.21983248e-01, 1.69541910e-01 ]
      - [ 4.46296275e-01, 1.99568748e-01, 2.64327854e-01, 4.15503502e-01,
          4.46296275e-01, 1.22801349e-01, 7.57857412e-02, 3.07956487e-01,
          4.46296275e-01, 3.48328233e-01, 2.91221589e-01, 4.89787102e-01,
          4.89787102e-01, 4.89787102e-01, 1.32727787e-01, 3.95411663e-02,
          9.32482406e-02, 2.03509361e-01, 3.64699997e-02, 5.60758412e-02,
          1.37362644e-01, 6.77071661e-02, 5.04490614e-01, 4.35668796e-01,
          5.04490614e-01, 5.04490614e-01, 1.17023706e-01, 4.75824028e-01,
          3.14283460e-01, 4.15381372e-01, 1.64517492e-01, 2.49537043e-02,
          3.06500848e-02, 1.26799211e-01, 4.75824028e-01, 4.75824028e-01,
          5.61774909e-01, 2.00556666e-01, 4.22231317e-01, 2.01430231e-01,
          2.20493272e-01, 8.71135741e-02, 5.30099832e-02, 2.12404430e-01,
          5.61774909e-01, 4.37841982e-01, 4.61530276e-02, 1.90141842e-01,
          1.74653277e-01, 3.21221501e-01, 2.84959227e-01, 4.09068227e-01,
          4.37841982e-01, 4.37841982e-01, 1.60350844e-01, 9.69607681e-02,
          4.77372557e-01, 4.77372557e-01, 6.68841302e-02, 1.37159467e-01,
          4.77372557e-01, 4.77372557e-01, 1.59040362e-01, 3.57881248e-01,
          1.68908432e-01, 3.84379864e-01, 3.84379864e-01, 3.84379864e-01,
          2.30287373e-01, 2.18584895e-01, 3.84379864e-01, 3.84379864e-01,
          1.12773769e-01, 7.46568218e-02, 4.85897452e-01, 4.85897452e-01,
          7.40553588e-02, 3.30568552e-02, 3.60390604e-01, 4.85897452e-01,
          3.63466501e-01, 1.60350844e-01, 9.69607681e-02, 4.77372557e-01,
          4.77372557e-01, 6.68841302e-02, 1.37159467e-01, 4.77372557e-01,
          4.77372557e-01, 1.59040362e-01, 3.57881248e-01, 1.68908432e-01,
          3.84379864e-01, 3.84379864e-01, 3.84379864e-01, 2.30287373e-01,
          2.18584895e-01, 3.84379864e-01, 3.84379864e-01, 1.12773769e-01,
          7.46568218e-02, 4.85897452e-01, 4.85897452e-01, 7.40553588e-02,
          3.30568552e-02, 3.60390604e-01, 4.85897452e-01, 3.63466501e-01,
          1.62799098e-02, 2.56507155e-02, 4.81902421e-01, 4.81902421e-01,
          1.25653192e-01, 1.51918279e-02, 4.81902421e-01, 4.81902421e-01,
          2.22091004e-01, 1.76623821e-01, 1.08729862e-01, 4.55259711e-01,
          4.55259711e-01, 4.55259711e-01, 1.03174418e-01, 1.34334415e-01,
          4.55259711e-01, 3.07730675e-01, 4.09313701e-02, 9.90088433e-02,
          4.83799189e-01, 3.23229015e-01, 4.83799189e-01, 2.81083196e-01,
          2.57671535e-01, 4.83799189e-01, 1.77835792e-01, 2.73320317e-01,
          2.07128018e-01, 4.61211205e-01, 4.08172846e-01, 6.46968186e-02,
          1.28991706e-02, 4.61211205e-01, 4.61211205e-01, 2.62073964e-01,
          2.74773329e-01, 5.66691048e-02, 1.31360546e-01, 1.66577622e-01,
          4.67034340e-01, 1.01411298e-01, 4.92406338e-01, 4.92406338e-01,
          3.97533953e-01, 4.14853722e-01, 3.26683283e-01, 4.14853722e-01,
          4.14853722e-01, 4.14853722e-01, 1.32867858e-01, 6.80920631e-02,
          7.95310959e-02, 4.14853722e-01, 3.64699997e-02, 5.60758412e-02,
          1.37362644e-01, 6.77071661e-02, 5.04490614e-01, 4.35668796e-01,
          5.04490614e-01, 5.04490614e-01, 1.17023706e-01, 1.49639636e-01,
          1.12354726e-01, 4.64161873e-01, 4.64161873e-01, 4.64161873e-01,
          8.51880312e-02, 2.25092307e-01, 4.64161873e-01, 2.01593369e-01,
          2.66709685e-01, 4.33009788e-02, 4.81766850e-01, 4.81766850e-01,
          1.00682653e-01, 1.08051054e-01, 3.49199444e-01, 4.81766850e-01,
          2.86581278e-01, 4.37841982e-01, 4.61530276e-02, 1.90141842e-01,
          1.74653277e-01, 3.21221501e-01, 2.84959227e-01, 4.09068227e-01,
          4.37841982e-01, 4.37841982e-01, 4.10997778e-01, 1.57723531e-01,
          4.10997778e-01, 3.68456393e-01, 1.68059275e-01, 1.83126032e-01,
          3.12732458e-01, 4.10997778e-01, 4.10997778e-01, 6.56767860e-02,
          1.04951270e-01, 5.53654373e-01, 5.53654373e-01, 9.82481148e-03,
          6.77242950e-02, 1.19938888e-01, 5.53654373e-01, 2.01183826e-01,
          1.12773769e-01, 7.46568218e-02, 4.85897452e-01, 4.85897452e-01,
          7.40553588e-02, 3.30568552e-02, 3.60390604e-01, 4.85897452e-01,
          3.63466501e-01, 5.13039455e-02, 4.94539440e-02, 4.17712599e-01,
          2.26530775e-01, 6.41689971e-02, 5.28334454e-02, 5.84534228e-01,
          6.06166184e-01, 2.16894194e-01, 1.44764781e-01, 1.23267226e-01,
          5.92145979e-01, 5.92145979e-01, 4.01361054e-03, 3.52878124e-02,
          6.94194213e-02, 3.56728315e-01, 3.51178735e-01, 1.12773769e-01,
          7.46568218e-02, 4.85897452e-01, 4.85897452e-01, 7.40553588e-02,
          3.30568552e-02, 3.60390604e-01, 4.85897452e-01, 3.63466501e-01,
          5.13039455e-02, 4.94539440e-02, 4.17712599e-01, 2.26530775e-01,
          6.41689971e-02, 5.28334454e-02, 5.84534228e-01, 6.06166184e-01,
          2.16894194e-01, 1.44764781e-01, 1.23267226e-01, 5.92145979e-01,
          5.92145979e-01, 4.01361054e-03, 3.52878124e-02, 6.94194213e-02,
          3.56728315e-01, 3.51178735e-01, 4.09313701e-02, 9.90088433e-02,
          4.83799189e-01, 3.23229015e-01, 4.83799189e-01, 2.81083196e-01,
          2.57671535e-01, 4.83799189e-01, 1.77835792e-01, 4.87248003e-02,
          4.41372767e-02, 1.83679968e-01, 7.15450197e-02, 4.78369147e-01,
          3.02618682e-01, 4.78369147e-01, 4.78369147e-01, 4.17077422e-01,
          1.08905748e-01, 8.85249972e-02, 4.76788849e-01, 4.76788849e-01,
          1.86810736e-03, 8.86964425e-02, 4.16097850e-01, 4.76788849e-01,
          3.35484624e-01, 4.14853722e-01, 3.26683283e-01, 4.14853722e-01,
          4.14853722e-01, 4.14853722e-01, 1.32867858e-01, 6.80920631e-02,
          7.95310959e-02, 4.14853722e-01, 2.93078840e-01, 1.49756940e-02,
          1.04344942e-01, 2.53418803e-01, 4.11762625e-01, 4.11762625e-01,
          4.11762625e-01, 3.95555645e-01, 4.11762625e-01, 1.06385812e-01,
          3.75773981e-02, 4.61871535e-01, 2.61181921e-01, 6.95920140e-02,
          2.37268582e-01, 4.61871535e-01, 4.61871535e-01, 4.61871535e-01 ]
      - [ 5.56287467e-01, 5.56287467e-01, 6.96065053e-02, 8.03352334e-03,
          5.90980425e-02, 2.23119721e-01, 7.35702440e-02, 2.24072680e-01,
          5.11593461e-01, 2.15438932e-01, 1.29554734e-01, 5.46866991e-02,
          5.26623148e-03, 1.46646142e-01, 1.15524933e-01, 7.50387385e-02,
          6.65828168e-01, 6.65828168e-01, 7.50990137e-02, 6.11441620e-02,
          9.85950753e-02, 1.73672751e-01, 5.04473507e-01, 1.68641225e-01,
          3.92147422e-01, 5.04473507e-01, 5.04473507e-01, 3.76432240e-01,
          3.76432240e-01, 3.76432240e-01, 3.76432240e-01, 3.76432240e-01,
          3.76432240e-01, 3.58201593e-01, 1.20195568e-01, 5.72401509e-02,
          1.29321394e-02, 1.59859732e-02, 9.85365659e-02, 4.37913656e-01,
          4.37913656e-01, 3.33775908e-01, 4.37913656e-01, 4.37913656e-01,
          3.27129304e-01, 6.76962500e-03, 1.17136212e-02, 3.51396687e-02,
          3.66124094e-01, 2.30016023e-01, 2.78764933e-01, 5.87384284e-01,
          5.87384284e-01, 1.94967568e-01, 5.30844554e-04, 5.33652365e-01,
          5.33652365e-01, 9.20706242e-02, 1.39925003e-01, 2.88215876e-01,
          5.33652365e-01, 1.70704648e-01, 7.16469157e-03, 1.15091190e-01,
          6.30251169e-02, 1.48301810e-01, 4.33097303e-01, 3.18022549e-01,
          1.41658336e-01, 5.41693985e-01, 5.41693985e-01, 2.44408384e-01,
          3.89324337e-01, 8.90514106e-02, 7.43084475e-02, 3.89324337e-01,
          3.89324337e-01, 3.51425797e-01, 3.89324337e-01, 3.18263084e-01,
          3.89324337e-01, 5.30844554e-04, 5.33652365e-01, 5.33652365e-01,
          9.20706242e-02, 1.39925003e-01, 2.88215876e-01, 5.33652365e-01,
          1.70704648e-01, 7.16469157e-03, 1.15091190e-01, 6.30251169e-02,
          1.48301810e-01, 4.33097303e-01, 3.18022549e-01, 1.41658336e-01,
          5.41693985e-01, 5.41693985e-01, 2.44408384e-01, 3.89324337e-01,
          8.90514106e-02, 7.43084475e-02, 3.89324337e-01, 3.89324337e-01,
          3.51425797e-01, 3.89324337e-01, 3.18263084e-01, 3.89324337e-01,
          1.33688143e-02, 5.07449627e-01, 5.07449627e-01, 5.07449627e-01,
          3.74341637e-01, 2.95302011e-02, 2.34995618e-01, 1.52215645e-01,
          5.33075035e-02, 4.44258600e-01, 1.50949089e-02, 3.64667252e-02,
          7.64051825e-02, 4.44258600e-01, 3.65824290e-02, 4.44258600e-01,
          4.44258600e-01, 4.44258600e-01, 5.72457790e-01, 8.17871094e-03,
          4.96563036e-03, 4.50223535e-02, 5.72457790e-01, 8.96101370e-02,
          1.49207124e-02, 2.80836597e-02, 5.72457790e-01, 1.14246882e-01,
          5.92755638e-02, 4.94091898e-01, 4.99908745e-01, 4.99908745e-01,
          1.63798735e-01, 2.40381602e-02, 1.02472790e-01, 4.43382800e-01,
          1.33679241e-01, 5.64293517e-03, 1.20746503e-02, 1.84391230e-01,
          8.74433994e-01, 3.44481349e-01, 1.09322369e-02, 4.61533293e-02,
          2.31678382e-01, 2.44234592e-01, 5.60829043e-02, 6.62771845e-03,
          6.75470605e-02, 8.82291257e-01, 3.33801568e-01, 8.53175111e-03,
          2.56556775e-02, 1.82213292e-01, 7.50990137e-02, 6.11441620e-02,
          9.85950753e-02, 1.73672751e-01, 5.04473507e-01, 1.68641225e-01,
          3.92147422e-01, 5.04473507e-01, 5.04473507e-01, 8.79230648e-02,
          2.17211042e-02, 7.79435411e-02, 4.96228993e-01, 4.96228993e-01,
          2.59205729e-01, 3.94918293e-01, 4.02431518e-01, 3.21217805e-01,
          2.91188061e-01, 8.93838033e-02, 3.38202178e-01, 4.44729418e-01,
          4.10961747e-01, 1.38366744e-01, 8.37202221e-02, 4.44729418e-01,
          4.44729418e-01, 6.76962500e-03, 1.17136212e-02, 3.51396687e-02,
          3.66124094e-01, 2.30016023e-01, 2.78764933e-01, 5.87384284e-01,
          5.87384284e-01, 1.94967568e-01, 8.35606605e-02, 7.31259212e-02,
          9.87662077e-02, 1.92288205e-01, 2.95335531e-01, 3.79774511e-01,
          4.84647036e-01, 4.84647036e-01, 4.84647036e-01, 1.89241931e-01,
          1.23007838e-02, 4.57630485e-01, 4.57630485e-01, 1.07596725e-01,
          1.71376273e-01, 3.78303766e-01, 3.83572102e-01, 4.57630485e-01,
          3.89324337e-01, 8.90514106e-02, 7.43084475e-02, 3.89324337e-01,
          3.89324337e-01, 3.51425797e-01, 3.89324337e-01, 3.18263084e-01,
          3.89324337e-01, 6.79493427e-01, 1.12966046e-01, 6.84573203e-02,
          6.04736172e-02, 2.01382428e-01, 6.45988733e-02, 5.20959198e-02,
          3.53185646e-02, 6.79493427e-01, 6.41046643e-01, 4.02489193e-02,
          4.01513763e-02, 6.19187485e-03, 1.73153989e-02, 7.07062855e-02,
          2.42831081e-01, 3.22771668e-01, 6.41046643e-01, 3.89324337e-01,
          8.90514106e-02, 7.43084475e-02, 3.89324337e-01, 3.89324337e-01,
          3.51425797e-01, 3.89324337e-01, 3.18263084e-01, 3.89324337e-01,
          6.79493427e-01, 1.12966046e-01, 6.84573203e-02, 6.04736172e-02,
          2.01382428e-01, 6.45988733e-02, 5.20959198e-02, 3.53185646e-02,
          6.79493427e-01, 6.41046643e-01, 4.02489193e-02, 4.01513763e-02,
          6.19187485e-03, 1.73153989e-02, 7.07062855e-02, 2.42831081e-01,
          3.22771668e-01, 6.41046643e-01, 5.72457790e-01, 8.17871094e-03,
          4.96563036e-03, 4.50223535e-02, 5.72457790e-01, 8.96101370e-02,
          1.49207124e-02, 2.80836597e-02, 5.72457790e-01, 5.67219436e-01,
          4.97419899e-03, 1.67876494e-03, 1.65966935e-02, 5.67219436e-01,
          1.69746041e-01, 2.03556800e-03, 1.04966830e-03, 5.67219436e-01,
          4.37781006e-01, 5.41282818e-02, 5.27014956e-03, 6.45739865e-03,
          4.37781006e-01, 3.56928557e-01, 4.37781006e-01, 3.14039469e-01,
          4.37781006e-01, 2.44234592e-01, 5.60829043e-02, 6.62771845e-03,
          6.75470605e-02, 8.82291257e-01, 3.33801568e-01, 8.53175111e-03,
          2.56556775e-02, 1.82213292e-01, 5.15689552e-01, 1.77230522e-01,
          6.44628704e-03, 2.73086037e-02, 7.31271923e-01, 3.81354123e-01,
          2.67907865e-02, 5.22203650e-03, 1.16757900e-01, 4.83924389e-01,
          4.83924389e-01, 3.62453163e-02, 2.10533608e-02, 4.83924389e-01,
          4.83924389e-01, 2.20072836e-01, 4.28348370e-02, 8.00718665e-02 ]
      - [ 3.49626690e-01, 3.49626690e-01, 3.49626690e-01, 2.98098117e-01,
          3.49626690e-01, 3.49626690e-01, 3.49626690e-01, 2.87672341e-01,
          3.02416682e-01, 3.58639330e-01, 3.58639330e-01, 3.58639330e-01,
          3.58639330e-01, 3.33634466e-01, 3.05111527e-01, 1.98577747e-01,
          3.58639330e-01, 3.30859214e-01, 3.62664759e-01, 1.40359625e-01,
          2.49511033e-01, 3.53928983e-01, 3.62664759e-01, 3.62664759e-01,
          3.62664759e-01, 3.62664759e-01, 3.62664759e-01, 3.71714681e-01,
          3.71714681e-01, 3.71714681e-01, 1.00283533e-01, 3.03721935e-01,
          2.85966665e-01, 3.71714681e-01, 3.48348290e-01, 3.71714681e-01,
          1.19311996e-01, 3.29729289e-01, 3.80644113e-01, 3.80644113e-01,
          2.54878938e-01, 3.80644113e-01, 3.80644113e-01, 3.80644113e-01,
          2.89530009e-01, 2.60647267e-01, 1.78825349e-01, 1.44153774e-01,
          3.47471505e-01, 4.10464585e-01, 4.10464585e-01, 4.10464585e-01,
          2.83800334e-01, 4.10464585e-01, 2.38897949e-01, 4.00986880e-01,
          4.00986880e-01, 1.89320952e-01, 4.00986880e-01, 4.00986880e-01,
          4.00986880e-01, 1.41535029e-01, 2.81238347e-01, 8.82244781e-02,
          4.24120098e-01, 4.24120098e-01, 2.35045165e-01, 1.84380472e-01,
          4.24120098e-01, 4.24120098e-01, 4.04162824e-01, 1.26009971e-01,
          1.50397673e-01, 3.23872209e-01, 4.21009153e-01, 4.21009153e-01,
          3.96581963e-02, 1.23582199e-01, 3.77414137e-01, 4.21009153e-01,
          4.21009153e-01, 2.38897949e-01, 4.00986880e-01, 4.00986880e-01,
          1.89320952e-01, 4.00986880e-01, 4.00986880e-01, 4.00986880e-01,
          1.41535029e-01, 2.81238347e-01, 8.82244781e-02, 4.24120098e-01,
          4.24120098e-01, 2.35045165e-01, 1.84380472e-01, 4.24120098e-01,
          4.24120098e-01, 4.04162824e-01, 1.26009971e-01, 1.50397673e-01,
          3.23872209e-01, 4.21009153e-01, 4.21009153e-01, 3.96581963e-02,
          1.23582199e-01, 3.77414137e-01, 4.21009153e-01, 4.21009153e-01,
          1.25385150e-01, 2.21509635e-01, 4.60999817e-01, 4.60999817e-01,
          4.64600287e-02, 2.17161462e-01, 4.60999817e-01, 4.60999817e-01,
          1.76653266e-01, 1.74796179e-01, 4.50795710e-01, 4.50795710e-01,
          2.34958008e-01, 9.10681412e-02, 2.39331901e-01, 4.50795710e-01,
          4.50795710e-01, 1.76912308e-01, 2.62593757e-02, 3.56397003e-01,
          4.11121756e-01, 3.78168762e-01, 1.66199788e-01, 1.46514222e-01,
          4.11121756e-01, 4.11121756e-01, 4.11121756e-01, 1.41224042e-01,
          1.26935303e-01, 4.58164781e-01, 4.58164781e-01, 4.58164781e-01,
          1.71456486e-01, 4.58164781e-01, 2.52888292e-01, 1.62349269e-01,
          3.86855185e-01, 3.17653716e-01, 3.86855185e-01, 3.86855185e-01,
          3.86855185e-01, 1.25140309e-01, 2.97558576e-01, 3.06573242e-01,
          3.13712090e-01, 1.37464166e-01, 1.94617271e-01, 1.60095409e-01,
          4.46713537e-01, 4.46713537e-01, 4.46713537e-01, 3.50973547e-01,
          4.12922412e-01, 1.44183442e-01, 3.62664759e-01, 1.40359625e-01,
          2.49511033e-01, 3.53928983e-01, 3.62664759e-01, 3.62664759e-01,
          3.62664759e-01, 3.62664759e-01, 3.62664759e-01, 2.17194661e-01,
          1.52483396e-02, 1.24490745e-01, 2.92922318e-01, 5.08270919e-01,
          6.93845972e-02, 2.57651299e-01, 5.08270919e-01, 5.08270919e-01,
          1.24966539e-01, 1.29849557e-02, 3.49972606e-01, 4.84327167e-01,
          3.83906305e-01, 9.52298194e-03, 7.55214542e-02, 4.84327167e-01,
          4.84327167e-01, 2.60647267e-01, 1.78825349e-01, 1.44153774e-01,
          3.47471505e-01, 4.10464585e-01, 4.10464585e-01, 4.10464585e-01,
          2.83800334e-01, 4.10464585e-01, 2.91266680e-01, 2.15172172e-01,
          3.24259132e-01, 4.91172284e-01, 4.91172284e-01, 1.67564601e-01,
          4.81687896e-02, 6.83108196e-02, 4.91172284e-01, 1.52810216e-01,
          3.26723158e-01, 3.69967997e-01, 3.69967997e-01, 3.69967997e-01,
          2.12007061e-01, 3.69967997e-01, 3.69967997e-01, 3.69967997e-01,
          1.50397673e-01, 3.23872209e-01, 4.21009153e-01, 4.21009153e-01,
          3.96581963e-02, 1.23582199e-01, 3.77414137e-01, 4.21009153e-01,
          4.21009153e-01, 4.79778498e-01, 1.34046167e-01, 4.79778498e-01,
          4.79778498e-01, 6.23052306e-02, 5.97639270e-02, 1.64488807e-01,
          1.48256034e-01, 4.79778498e-01, 3.79295081e-01, 2.08878279e-01,
          3.72084230e-01, 9.13297907e-02, 2.89629877e-01, 2.93944597e-01,
          4.04716104e-01, 4.04716104e-01, 4.04716104e-01, 1.50397673e-01,
          3.23872209e-01, 4.21009153e-01, 4.21009153e-01, 3.96581963e-02,
          1.23582199e-01, 3.77414137e-01, 4.21009153e-01, 4.21009153e-01,
          4.79778498e-01, 1.34046167e-01, 4.79778498e-01, 4.79778498e-01,
          6.23052306e-02, 5.97639270e-02, 1.64488807e-01, 1.48256034e-01,
          4.79778498e-01, 3.79295081e-01, 2.08878279e-01, 3.72084230e-01,
          9.13297907e-02, 2.89629877e-01, 2.93944597e-01, 4.04716104e-01,
          4.04716104e-01, 4.04716104e-01, 2.62593757e-02, 3.56397003e-01,
          4.11121756e-01, 3.78168762e-01, 1.66199788e-01, 1.46514222e-01,
          4.11121756e-01, 4.11121756e-01, 4.11121756e-01, 1.35933626e-02,
          2.06690002e-02, 5.10730207e-01, 5.10730207e-01, 2.61276346e-02,
          9.66520309e-02, 3.36161345e-01, 5.10730207e-01, 2.97863305e-01,
          1.61717415e-01, 5.88909537e-03, 1.43250912e-01, 4.14828360e-01,
          4.06408966e-01, 4.14828360e-01, 4.14828360e-01, 4.14828360e-01,
          3.09272379e-01, 1.37464166e-01, 1.94617271e-01, 1.60095409e-01,
          4.46713537e-01, 4.46713537e-01, 4.46713537e-01, 3.50973547e-01,
          4.12922412e-01, 1.44183442e-01, 2.98472447e-03, 1.04114870e-02,
          9.33102742e-02, 4.32596296e-01, 4.32596296e-01, 4.32596296e-01,
          4.32596296e-01, 4.32596296e-01, 2.26179048e-01, 5.30967973e-02,
          4.61553372e-02, 2.68334776e-01, 4.18796360e-01, 4.18796360e-01,
          4.18796360e-01, 4.18796360e-01, 3.88793588e-01, 2.57179409e-01 ]
      - [ 5.37091911e-01, 5.37091911e-01, 7.49584064e-02, 2.13262662e-02,
          7.82114118e-02, 5.37091911e-01, 3.36333185e-01, 1.06591433e-02,
          6.17162623e-02, 1.48108736e-01, 4.81421918e-01, 4.81421918e-01,
          8.15917999e-02, 4.81421918e-01, 4.81421918e-01, 1.93412438e-01,
          2.99702194e-02, 3.49769369e-02, 4.92452741e-01, 5.81261814e-01,
          5.81261814e-01, 1.76108554e-02, 6.20354041e-02, 2.31206901e-02,
          6.80381581e-02, 2.71651149e-02, 2.56700963e-01, 3.02411079e-01,
          3.65544111e-01, 1.70322761e-01, 9.38202739e-02, 7.75941759e-02,
          5.96314371e-01, 5.96314371e-01, 7.82434791e-02, 8.85108933e-02,
          7.81982541e-02, 6.75230205e-01, 6.75230205e-01, 2.65961021e-01,
          5.16302325e-02, 4.19466011e-02, 4.61703353e-03, 3.60130053e-03,
          8.82155728e-03, 1.33649698e-02, 5.79472721e-01, 7.80738652e-01,
          2.15006202e-01, 3.88716860e-03, 8.89790989e-03, 3.62344552e-03,
          7.34961033e-03, 1.72852166e-02, 8.68035555e-02, 8.85922611e-02,
          3.94068778e-01, 3.06553036e-01, 3.24061126e-01, 1.75520286e-01,
          5.40795267e-01, 5.40795267e-01, 9.59634259e-02, 2.45161057e-02,
          3.52784395e-01, 6.65967047e-01, 6.34726524e-01, 1.44707426e-01,
          6.76388806e-03, 1.77033397e-03, 1.77797303e-02, 2.44638901e-02,
          2.61170277e-03, 6.62424624e-01, 7.41522372e-01, 6.07742071e-02,
          2.63218908e-03, 4.65023145e-03, 9.54814255e-03, 7.38282129e-03,
          7.88307376e-03, 8.68035555e-02, 8.85922611e-02, 3.94068778e-01,
          3.06553036e-01, 3.24061126e-01, 1.75520286e-01, 5.40795267e-01,
          5.40795267e-01, 9.59634259e-02, 2.45161057e-02, 3.52784395e-01,
          6.65967047e-01, 6.34726524e-01, 1.44707426e-01, 6.76388806e-03,
          1.77033397e-03, 1.77797303e-02, 2.44638901e-02, 2.61170277e-03,
          6.62424624e-01, 7.41522372e-01, 6.07742071e-02, 2.63218908e-03,
          4.65023145e-03, 9.54814255e-03, 7.38282129e-03, 7.88307376e-03,
          2.85276789e-02, 2.38052700e-02, 2.02014998e-01, 3.95640582e-01,
          3.39752525e-01, 1.67686455e-02, 4.76377577e-01, 4.76377577e-01,
          4.76377577e-01, 8.84208363e-03, 5.21902740e-01, 5.91514766e-01,
          5.91514766e-01, 1.46652952e-01, 0., 4.49549640e-03,
          1.57817975e-02, 8.79648235e-03, 1.06494280e-03, 6.61390841e-01,
          7.43832767e-01, 4.25684527e-02, 2.65951664e-03, 1.21549820e-03,
          1.26621919e-03, 2.60497141e-03, 4.53254161e-03, 8.37976336e-02,
          5.27946539e-02, 4.91159767e-01, 4.91159767e-01, 5.27905114e-02,
          2.63314899e-02, 1.29820049e-01, 4.91159767e-01, 4.91159767e-01,
          3.34775984e-01, 1.95534334e-01, 4.95222956e-01, 3.26939881e-01,
          1.50510864e-02, 1.69166327e-02, 4.00702953e-02, 4.95222956e-01,
          4.95222956e-01, 3.99646908e-02, 5.29678941e-01, 7.89024532e-01,
          2.72669882e-01, 9.37118605e-02, 1.38263432e-02, 1.24824438e-02,
          1.30476356e-02, 6.13246709e-02, 4.92452741e-01, 5.81261814e-01,
          5.81261814e-01, 1.76108554e-02, 6.20354041e-02, 2.31206901e-02,
          6.80381581e-02, 2.71651149e-02, 2.56700963e-01, 3.16407442e-01,
          3.11148986e-02, 5.84040321e-02, 1.74791291e-02, 7.24443272e-02,
          2.42860764e-02, 5.96005142e-01, 5.96005142e-01, 4.15894538e-01,
          7.13957846e-03, 1.92243066e-02, 1.61409006e-01, 4.89093125e-01,
          4.89093125e-01, 8.79405960e-02, 4.89093125e-01, 4.89093125e-01,
          6.37159795e-02, 1.33649698e-02, 5.79472721e-01, 7.80738652e-01,
          2.15006202e-01, 3.88716860e-03, 8.89790989e-03, 3.62344552e-03,
          7.34961033e-03, 1.72852166e-02, 1.29050119e-02, 4.87167798e-02,
          1.40693352e-01, 1.47783924e-02, 1.19783971e-02, 8.37656949e-03,
          6.96402192e-01, 6.96402192e-01, 1.81562603e-02, 1.29768634e-02,
          4.74543078e-03, 1.24562141e-02, 1.64994085e-03, 1.32446717e-02,
          6.27855882e-02, 7.02804148e-01, 7.02804148e-01, 2.55068801e-02,
          2.61170277e-03, 6.62424624e-01, 7.41522372e-01, 6.07742071e-02,
          2.63218908e-03, 4.65023145e-03, 9.54814255e-03, 7.38282129e-03,
          7.88307376e-03, 1.21125663e-02, 8.50785747e-02, 2.15996116e-01,
          0., 3.24489153e-03, 1.54538257e-02, 6.85077667e-01,
          6.85077667e-01, 1.44722825e-02, 3.40243778e-03, 2.03725952e-03,
          2.12329882e-03, 4.06188564e-03, 1.74391866e-02, 1.39787406e-01,
          6.97546422e-01, 6.97546422e-01, 3.66863911e-03, 2.61170277e-03,
          6.62424624e-01, 7.41522372e-01, 6.07742071e-02, 2.63218908e-03,
          4.65023145e-03, 9.54814255e-03, 7.38282129e-03, 7.88307376e-03,
          1.21125663e-02, 8.50785747e-02, 2.15996116e-01, 0.,
          3.24489153e-03, 1.54538257e-02, 6.85077667e-01, 6.85077667e-01,
          1.44722825e-02, 3.40243778e-03, 2.03725952e-03, 2.12329882e-03,
          4.06188564e-03, 1.74391866e-02, 1.39787406e-01, 6.97546422e-01,
          6.97546422e-01, 3.66863911e-03, 1.06494280e-03, 6.61390841e-01,
          7.43832767e-01, 4.25684527e-02, 2.65951664e-03, 1.21549820e-03,
          1.26621919e-03, 2.60497141e-03, 4.53254161e-03, 6.83213444e-03,
          6.87415451e-02, 3.78935367e-01, 2.60774465e-03, 1.28881587e-02,
          1.07678287e-02, 6.49866939e-01, 6.49866939e-01, 1.43202953e-02,
          3.50868772e-03, 4.29917779e-03, 1.74168893e-03, 2.29600985e-02,
          1.38976544e-01, 9.23812166e-02, 6.94466412e-01, 6.94466412e-01,
          9.50808357e-03, 3.99646908e-02, 5.29678941e-01, 7.89024532e-01,
          2.72669882e-01, 9.37118605e-02, 1.38263432e-02, 1.24824438e-02,
          1.30476356e-02, 6.13246709e-02, 1.17630409e-02, 8.74671638e-02,
          4.86103296e-01, 5.71140796e-02, 4.86103296e-01, 1.96791127e-01,
          4.86103296e-01, 4.86103296e-01, 1.34721948e-02, 4.89711046e-01,
          1.21638373e-01, 1.52344676e-02, 2.79963692e-03, 5.89114390e-02,
          1.23692207e-01, 5.95732212e-01, 5.95732212e-01, 1.03125483e-01 ]
      - [ 4.15977746e-01, 5.26137710e-01, 1.18551552e-01, 3.72222997e-02,
          4.27118182e-01, 5.26137710e-01, 2.48658404e-01, 1.48175983e-02,
          9.02541801e-02, 3.24639045e-02, 4.86227334e-01, 4.86227334e-01,
          2.07376294e-02, 4.86227334e-01, 4.86227334e-01, 2.06790492e-01,
          7.11641088e-02, 1.28389066e-02, 4.77167338e-01, 4.77167338e-01,
          4.77167338e-01, 5.66916093e-02, 3.53355706e-01, 9.65657905e-02,
          1.59513950e-01, 4.74482626e-02, 3.83500874e-01, 2.96291560e-01,
          5.22133052e-01, 1.05926827e-01, 4.52326015e-02, 1.25652477e-01,
          5.22133052e-01, 5.22133052e-01, 1.79668501e-01, 1.66710049e-01,
          4.89572473e-02, 6.72091722e-01, 6.72091722e-01, 3.45400311e-02,
          3.38791944e-02, 9.47508439e-02, 2.28362650e-01, 1.41440436e-01,
          6.32894635e-02, 3.90502834e-03, 6.32358670e-01, 6.32358670e-01,
          4.09447914e-03, 1.73445791e-03, 4.46646772e-02, 4.33240712e-01,
          6.38608187e-02, 1.12152845e-02, 1.07296348e-01, 3.00264776e-01,
          3.14411938e-01, 2.32774511e-01, 3.73032689e-02, 2.67508447e-01,
          5.74605882e-01, 5.74605882e-01, 7.90943205e-02, 3.62300687e-03,
          6.72986984e-01, 6.72986984e-01, 3.28759067e-02, 1.91479772e-02,
          4.95795235e-02, 2.68253267e-01, 1.07115947e-01, 1.02971792e-02,
          7.38281291e-03, 5.73237419e-01, 5.73237419e-01, 4.99032577e-03,
          2.29885522e-03, 5.73405847e-02, 5.73237419e-01, 7.12853670e-02,
          4.27663513e-03, 1.07296348e-01, 3.00264776e-01, 3.14411938e-01,
          2.32774511e-01, 3.73032689e-02, 2.67508447e-01, 5.74605882e-01,
          5.74605882e-01, 7.90943205e-02, 3.62300687e-03, 6.72986984e-01,
          6.72986984e-01, 3.28759067e-02, 1.91479772e-02, 4.95795235e-02,
          2.68253267e-01, 1.07115947e-01, 1.02971792e-02, 7.38281291e-03,
          5.73237419e-01, 5.73237419e-01, 4.99032577e-03, 2.29885522e-03,
          5.73405847e-02, 5.73237419e-01, 7.12853670e-02, 4.27663513e-03,
          6.66195080e-02, 1.03462860e-01, 1.84877694e-01, 1.38310760e-01,
          4.80075888e-02, 1.46917347e-02, 2.18401521e-01, 6.61334038e-01,
          6.61334038e-01, 4.47499640e-02, 6.97123945e-01, 6.97123945e-01,
          1.59083921e-02, 2.59427354e-02, 3.15648615e-02, 5.21123335e-02,
          6.60146922e-02, 1.00393794e-01, 3.62963998e-03, 5.69036782e-01,
          5.69036782e-01, 2.24492718e-02, 1.80536453e-02, 3.45539376e-02,
          5.69036782e-01, 1.44457176e-01, 2.04059784e-03, 2.95333024e-02,
          7.87244886e-02, 1.07130505e-01, 9.44118351e-02, 7.40405768e-02,
          1.39694875e-02, 6.25848621e-02, 6.91391289e-01, 6.91391289e-01,
          4.62387688e-02, 4.71009940e-01, 4.71009940e-01, 3.02201122e-01,
          1.19530901e-01, 1.09010739e-02, 4.91104787e-03, 4.71009940e-01,
          4.71009940e-01, 1.59621954e-01, 3.78549606e-01, 3.97647917e-01,
          3.97647917e-01, 3.97647917e-01, 3.16389769e-01, 3.97647917e-01,
          1.32308230e-01, 2.77750105e-01, 4.77167338e-01, 4.77167338e-01,
          4.77167338e-01, 5.66916093e-02, 3.53355706e-01, 9.65657905e-02,
          1.59513950e-01, 4.74482626e-02, 3.83500874e-01, 2.33350262e-01,
          3.26247886e-02, 7.83189163e-02, 4.62595463e-01, 2.75381714e-01,
          4.37649786e-02, 4.62595463e-01, 4.62595463e-01, 4.62595463e-01,
          2.66699940e-01, 8.31161567e-04, 1.49442777e-01, 6.49169862e-01,
          4.52890188e-01, 3.48567776e-02, 3.72495532e-01, 2.03673810e-01,
          3.03437501e-01, 3.90502834e-03, 6.32358670e-01, 6.32358670e-01,
          4.09447914e-03, 1.73445791e-03, 4.46646772e-02, 4.33240712e-01,
          6.38608187e-02, 1.12152845e-02, 4.25115461e-03, 1.56775620e-02,
          2.73382794e-02, 6.47581136e-03, 1.37258545e-02, 5.43523394e-02,
          8.40381742e-01, 5.30221224e-01, 6.48563262e-03, 1.69295643e-03,
          2.07480285e-02, 4.98689979e-01, 4.98689979e-01, 1.59326062e-01,
          7.58018792e-02, 4.98689979e-01, 4.31869566e-01, 1.75694644e-01,
          7.38281291e-03, 5.73237419e-01, 5.73237419e-01, 4.99032577e-03,
          2.29885522e-03, 5.73405847e-02, 5.73237419e-01, 7.12853670e-02,
          4.27663513e-03, 5.99988410e-03, 3.97012047e-02, 1.61124021e-02,
          4.66017431e-04, 1.43694226e-02, 1.40659153e-01, 9.56586659e-01,
          2.31314093e-01, 5.40421158e-03, 7.68108517e-02, 2.36591816e-01,
          3.32031161e-01, 2.45808095e-01, 3.69894266e-01, 4.10551876e-01,
          4.75923538e-01, 4.43800926e-01, 1.84031233e-01, 7.38281291e-03,
          5.73237419e-01, 5.73237419e-01, 4.99032577e-03, 2.29885522e-03,
          5.73405847e-02, 5.73237419e-01, 7.12853670e-02, 4.27663513e-03,
          5.99988410e-03, 3.97012047e-02, 1.61124021e-02, 4.66017431e-04,
          1.43694226e-02, 1.40659153e-01, 9.56586659e-01, 2.31314093e-01,
          5.40421158e-03, 7.68108517e-02, 2.36591816e-01, 3.32031161e-01,
          2.45808095e-01, 3.69894266e-01, 4.10551876e-01, 4.75923538e-01,
          4.43800926e-01, 1.84031233e-01, 3.62963998e-03, 5.69036782e-01,
          5.69036782e-01, 2.24492718e-02, 1.80536453e-02, 3.45539376e-02,
          5.69036782e-01, 1.44457176e-01, 2.04059784e-03, 1.57153625e-02,
          1.06813297e-01, 9.79737043e-02, 2.27601640e-03, 1.57791597e-03,
          3.81007940e-02, 9.35356617e-01, 3.04363698e-01, 2.06058621e-02,
          4.43290383e-01, 4.43290383e-01, 4.43290383e-01, 9.88967437e-03,
          7.03057125e-02, 2.51545072e-01, 4.43290383e-01, 3.47412944e-01,
          1.43301010e-01, 1.59621954e-01, 3.78549606e-01, 3.97647917e-01,
          3.97647917e-01, 3.97647917e-01, 3.16389769e-01, 3.97647917e-01,
          1.32308230e-01, 2.77750105e-01, 6.07445955e-01, 1.54579610e-01,
          5.56995384e-02, 5.39461374e-02, 1.82574898e-01, 3.42885911e-01,
          6.07445955e-01, 2.25971714e-01, 1.55172080e-01, 6.83564842e-01,
          6.83564842e-01, 6.36204407e-02, 4.35254816e-03, 9.16514024e-02,
          1.84898436e-01, 6.19839355e-02, 2.22828276e-02, 8.75307247e-02 ]
      - [ 3.98198217e-01, 3.98198217e-01, 3.98198217e-01, 1.71952456e-01,
          2.00361565e-01, 3.73843104e-01, 3.98198217e-01, 7.64821768e-02,
          3.82693410e-01, 1.64834186e-01, 2.77164690e-02, 1.64530054e-01,
          4.96048272e-01, 2.87150413e-01, 3.78916889e-01, 4.96048272e-01,
          4.21048135e-01, 2.11173996e-01, 3.41461897e-02, 2.08698753e-02,
          9.22851339e-02, 4.77637202e-01, 3.65820199e-01, 4.77637202e-01,
          4.77637202e-01, 4.00416672e-01, 8.08799267e-02, 8.01213377e-04,
          5.63737571e-01, 5.63737571e-01, 1.03583569e-02, 2.55523864e-02,
          5.26329204e-02, 5.63737571e-01, 1.93426237e-01, 5.05642733e-03,
          1.87687665e-01, 3.26670036e-02, 1.08009920e-01, 8.42924640e-02,
          3.31960246e-02, 1.97737068e-02, 6.58681571e-01, 6.58681571e-01,
          2.62950987e-01, 4.97776955e-01, 3.32786404e-02, 1.37209386e-01,
          1.47363618e-01, 1.54149845e-01, 1.85395569e-01, 3.89742464e-01,
          4.97776955e-01, 4.97776955e-01, 4.15818440e-03, 5.97566247e-01,
          5.97566247e-01, 4.51274186e-01, 9.30930972e-02, 1.15264831e-02,
          1.44200951e-01, 2.13067815e-01, 3.47227342e-02, 4.60802943e-01,
          1.64213162e-02, 5.97076081e-02, 5.20903729e-02, 3.72173071e-01,
          3.12876776e-02, 4.60802943e-01, 4.60802943e-01, 4.60802943e-01,
          6.16178513e-01, 2.46438687e-03, 4.86537488e-03, 7.92658795e-03,
          4.78272527e-01, 5.93491942e-02, 2.92004589e-02, 3.58274616e-02,
          6.16178513e-01, 4.15818440e-03, 5.97566247e-01, 5.97566247e-01,
          4.51274186e-01, 9.30930972e-02, 1.15264831e-02, 1.44200951e-01,
          2.13067815e-01, 3.47227342e-02, 4.60802943e-01, 1.64213162e-02,
          5.97076081e-02, 5.20903729e-02, 3.72173071e-01, 3.12876776e-02,
          4.60802943e-01, 4.60802943e-01, 4.60802943e-01, 6.16178513e-01,
          2.46438687e-03, 4.86537488e-03, 7.92658795e-03, 4.78272527e-01,
          5.93491942e-02, 2.92004589e-02, 3.58274616e-02, 6.16178513e-01,
          4.00855280e-02, 7.08913356e-02, 5.71259320e-01, 5.71259320e-01,
          5.71259320e-01, 1.64270606e-02, 1.61012709e-02, 6.16279058e-02,
          6.57604560e-02, 7.96514228e-02, 2.85149738e-03, 1.40084969e-02,
          2.39728332e-01, 8.50370526e-01, 4.28565979e-01, 4.54719597e-03,
          2.72257309e-02, 1.41192645e-01, 1.23721257e-01, 7.34730205e-03,
          3.28507787e-03, 1.81710254e-02, 8.71518791e-01, 4.51585203e-01,
          7.89321773e-03, 6.59371633e-03, 1.09643750e-01, 3.82284045e-01,
          2.42154896e-01, 9.63006243e-02, 4.36946929e-01, 4.36946929e-01,
          1.05860449e-01, 8.17586929e-02, 4.36946929e-01, 4.36946929e-01,
          3.74253660e-01, 6.16659634e-02, 6.31245449e-02, 1.10462770e-01,
          5.34939647e-01, 3.25552791e-01, 7.59217367e-02, 3.87985885e-01,
          5.34939647e-01, 5.33496559e-01, 1.18937716e-01, 1.81947723e-02,
          8.04904699e-02, 5.33496559e-01, 2.56496817e-01, 4.52796966e-02,
          2.28077978e-01, 5.33496559e-01, 3.41461897e-02, 2.08698753e-02,
          9.22851339e-02, 4.77637202e-01, 3.65820199e-01, 4.77637202e-01,
          4.77637202e-01, 4.00416672e-01, 8.08799267e-02, 2.62225896e-01,
          2.70264983e-01, 5.29512644e-01, 1.88452020e-01, 3.99201334e-01,
          9.46875513e-02, 5.06118715e-01, 2.69619137e-01, 1.99575916e-01,
          5.34514427e-01, 2.25334316e-01, 1.06524348e-01, 3.48654203e-02,
          2.12549850e-01, 1.08611412e-01, 3.28453213e-01, 4.41614836e-01,
          5.34544885e-01, 4.97776955e-01, 3.32786404e-02, 1.37209386e-01,
          1.47363618e-01, 1.54149845e-01, 1.85395569e-01, 3.89742464e-01,
          4.97776955e-01, 4.97776955e-01, 6.81200027e-01, 5.72636984e-02,
          1.48247197e-01, 1.62407055e-01, 7.46152252e-02, 3.33439186e-02,
          4.53913808e-02, 6.89971149e-02, 6.81200027e-01, 6.41711652e-01,
          3.33951786e-02, 1.12825464e-02, 1.06394373e-01, 3.43176484e-01,
          1.09994248e-01, 1.84580106e-02, 1.65026084e-01, 6.41711652e-01,
